{"learner":{"attributes":{"scikit_learn":"{\"_estimator_type\": \"classifier\"}"},"feature_names":["log_returns","RSI_14","MACDh_12_26_9","ATRr_14"],"feature_types":["float","float","float","float"],"gradient_booster":{"model":{"gbtree_model_param":{"num_parallel_tree":"1","num_trees":"100"},"iteration_indptr":[0,1,2,3,4,5,6,7,8,9,10,11,12,13,14,15,16,17,18,19,20,21,22,23,24,25,26,27,28,29,30,31,32,33,34,35,36,37,38,39,40,41,42,43,44,45,46,47,48,49,50,51,52,53,54,55,56,57,58,59,60,61,62,63,64,65,66,67,68,69,70,71,72,73,74,75,76,77,78,79,80,81,82,83,84,85,86,87,88,89,90,91,92,93,94,95,96,97,98,99,100],"tree_info":[0,0,0,0,0,0,0,0,0,0,0,0,0,0,0,0,0,0,0,0,0,0,0,0,0,0,0,0,0,0,0,0,0,0,0,0,0,0,0,0,0,0,0,0,0,0,0,0,0,0,0,0,0,0,0,0,0,0,0,0,0,0,0,0,0,0,0,0,0,0,0,0,0,0,0,0,0,0,0,0,0,0,0,0,0,0,0,0,0,0,0,0,0,0,0,0,0,0,0,0],"trees":[{"base_weights":[-1.0647044E-8,3.859517E-1,-1.1521934E-1,-3.067465E-1,7.228111E-1,-6.1318666E-1,-1.9203424E-2,4.3110963E-2,-6.816556E-2,8.7263815E-2,-1.5092122E-2,3.8595494E-2,-7.659219E-2,4.661312E-2,-1.5095874E-2],"categories":[],"categories_nodes":[],"categories_segments":[],"categories_sizes":[],"default_left":[0,0,0,0,0,0,0,0,0,0,0,0,0,0,0],"id":0,"left_children":[1,3,5,7,9,11,13,-1,-1,-1,-1,-1,-1,-1,-1],"loss_changes":[8.508715E0,1.0486221E1,7.0334806E0,4.469524E0,4.045126E0,3.925539E0,8.035682E0,0E0,0E0,0E0,0E0,0E0,0E0,0E0,0E0],"parents":[2147483647,0,0,1,1,2,2,3,3,4,4,5,5,6,6],"right_children":[2,4,6,8,10,12,14,-1,-1,-1,-1,-1,-1,-1,-1],"split_conditions":[4.2629597E1,-6.743364E0,4.6320045E1,3.0384638E1,2.168201E-3,1.4075385E1,5.062347E1,4.3110963E-2,-6.816556E-2,8.7263815E-2,-1.5092122E-2,3.8595494E-2,-7.659219E-2,4.661312E-2,-1.5095874E-2],"split_indices":[1,2,1,1,0,3,1,0,0,0,0,0,0,0,0],"split_type":[0,0,0,0,0,0,0,0,0,0,0,0,0,0,0],"sum_hessian":[1.8933995E2,4.2989098E1,1.4635086E2,1.4094786E1,2.889431E1,2.278657E1,1.23564285E2,4.6982617E0,9.396523E0,2.4665874E1,4.2284355E0,2.818957E0,1.9967613E1,2.584044E1,9.772385E1],"tree_param":{"num_deleted":"0","num_feature":"4","num_nodes":"15","size_leaf_vector":"1"}},{"base_weights":[-6.832302E-5,3.4499106E-1,-1.04233354E-1,-2.803635E-1,6.4204276E-1,-5.6294775E-1,-1.711757E-2,3.9208185E-2,-6.30655E-2,4.4682827E-2,1.3941954E-1,3.5493065E-2,-7.07154E-2,4.165933E-2,-1.3655135E-2],"categories":[],"categories_nodes":[],"categories_segments":[],"categories_sizes":[],"default_left":[0,0,0,0,0,0,0,0,0,0,0,0,0,0,0],"id":1,"left_children":[1,3,5,7,9,11,13,-1,-1,-1,-1,-1,-1,-1,-1],"loss_changes":[6.8737507E0,8.417505E0,5.8604727E0,3.7750502E0,3.8359356E0,3.3500805E0,6.504997E0,0E0,0E0,0E0,0E0,0E0,0E0,0E0,0E0],"parents":[2147483647,0,0,1,1,2,2,3,3,4,4,5,5,6,6],"right_children":[2,4,6,8,10,12,14,-1,-1,-1,-1,-1,-1,-1,-1],"split_conditions":[4.2629597E1,-6.743364E0,4.6320045E1,3.0384638E1,1.8132613E0,1.4075385E1,5.062347E1,3.9208185E-2,-6.30655E-2,4.4682827E-2,1.3941954E-1,3.5493065E-2,-7.07154E-2,4.165933E-2,-1.3655135E-2],"split_indices":[1,2,1,1,2,3,1,0,0,0,0,0,0,0,0],"split_type":[0,0,0,0,0,0,0,0,0,0,0,0,0,0,0],"sum_hessian":[1.8923921E2,4.3344223E1,1.4589499E2,1.39766655E1,2.9367558E1,2.2413427E1,1.2348156E2,4.7462034E0,9.230462E0,2.4581669E1,4.7858872E0,2.8448129E0,1.9568615E1,2.6124651E1,9.735691E1],"tree_param":{"num_deleted":"0","num_feature":"4","num_nodes":"15","size_leaf_vector":"1"}},{"base_weights":[5.2532804E-4,3.121752E-1,-9.432304E-2,-2.565156E-1,5.7700866E-1,-5.1728934E-1,-1.525188E-2,3.5704967E-2,-5.8387417E-2,4.002185E-2,1.2521005E-1,3.2667905E-2,-6.5350816E-2,3.7307456E-2,-1.2348476E-2],"categories":[],"categories_nodes":[],"categories_segments":[],"categories_sizes":[],"default_left":[0,0,0,0,0,0,0,0,0,0,0,0,0,0,0],"id":2,"left_children":[1,3,5,7,9,11,13,-1,-1,-1,-1,-1,-1,-1,-1],"loss_changes":[5.6445374E0,6.858404E0,4.888504E0,3.190915E0,3.163704E0,2.860921E0,5.2735343E0,0E0,0E0,0E0,0E0,0E0,0E0,0E0,0E0],"parents":[2147483647,0,0,1,1,2,2,3,3,4,4,5,5,6,6],"right_children":[2,4,6,8,10,12,14,-1,-1,-1,-1,-1,-1,-1,-1],"split_conditions":[4.2629597E1,-6.743364E0,4.6320045E1,3.0384638E1,1.8132613E0,1.4075385E1,5.062347E1,3.5704967E-2,-5.8387417E-2,4.002185E-2,1.2521005E-1,3.2667905E-2,-6.5350816E-2,3.7307456E-2,-1.2348476E-2],"split_indices":[1,2,1,1,2,3,1,0,0,0,0,0,0,0,0],"split_type":[0,0,0,0,0,0,0,0,0,0,0,0,0,0,0],"sum_hessian":[1.8895909E2,4.3555256E1,1.4540384E2,1.3848674E1,2.9706581E1,2.2028301E1,1.2337554E2,4.7865634E0,9.062111E0,2.4803883E1,4.9026976E0,2.867012E0,1.916129E1,2.6358276E1,9.7017265E1],"tree_param":{"num_deleted":"0","num_feature":"4","num_nodes":"15","size_leaf_vector":"1"}},{"base_weights":[1.0123047E-3,1.3171123E-1,-2.0912078E-1,4.6209458E-1,9.591979E-4,-2.7682257E-1,3.8028133E-1,6.3757814E-2,-2.7666492E-2,7.33397E-2,-8.681604E-3,-2.1519976E-2,-1.18036844E-1,-5.653546E-2,9.301508E-2],"categories":[],"categories_nodes":[],"categories_segments":[],"categories_sizes":[],"default_left":[0,0,0,0,0,0,0,0,0,0,0,0,0,0,0],"id":3,"left_children":[1,3,5,7,9,11,13,-1,-1,-1,-1,-1,-1,-1,-1],"loss_changes":[5.233769E0,5.0747337E0,3.0213714E0,4.4947352E0,5.539586E0,3.4279327E0,4.659997E0,0E0,0E0,0E0,0E0,0E0,0E0,0E0,0E0],"parents":[2147483647,0,0,1,1,2,2,3,3,4,4,5,5,6,6],"right_children":[2,4,6,8,10,12,14,-1,-1,-1,-1,-1,-1,-1,-1],"split_conditions":[9.5667125E-4,4.2629597E1,8.554959E-3,3.6585033E1,1.1155941E1,3.788175E1,2.5958403E1,6.3757814E-2,-2.7666492E-2,7.33397E-2,-8.681604E-3,-2.1519976E-2,-1.18036844E-1,-5.653546E-2,9.301508E-2],"split_indices":[0,1,0,3,3,3,3,0,0,0,0,0,0,0,0],"split_type":[0,0,0,0,0,0,0,0,0,0,0,0,0,0,0],"sum_hessian":[1.8856427E2,1.1648558E2,7.207869E1,3.2310215E1,8.417536E1,6.5128075E1,6.9506154E0,2.6219133E1,6.0910835E0,8.220901E0,7.595446E1,6.2128983E1,2.999092E0,2.5452573E0,4.4053583E0],"tree_param":{"num_deleted":"0","num_feature":"4","num_nodes":"15","size_leaf_vector":"1"}},{"base_weights":[7.358915E-4,8.9584894E-2,-2.7016187E-1,1.420381E-1,-6.211219E-1,-7.8559506E-1,-3.61805E-2,4.0945854E-2,5.627784E-3,-1.0541041E-1,-1.684491E-2,-1.1835339E-1,-4.3072734E-2,-3.3208903E-2,1.343093E-2],"categories":[],"categories_nodes":[],"categories_segments":[],"categories_sizes":[],"default_left":[0,0,0,0,0,0,0,0,0,0,0,0,0,0,0],"id":4,"left_children":[1,3,5,7,9,11,13,-1,-1,-1,-1,-1,-1,-1,-1],"loss_changes":[4.582376E0,5.43245E0,5.6424284E0,3.0574303E0,1.7901428E0,1.5565805E0,1.729039E0,0E0,0E0,0E0,0E0,0E0,0E0,0E0,0E0],"parents":[2147483647,0,0,1,1,2,2,3,3,4,4,5,5,6,6],"right_children":[2,4,6,8,10,12,14,-1,-1,-1,-1,-1,-1,-1,-1],"split_conditions":[2.089525E-3,6.601533E1,3.2065427E-3,4.1631382E1,2.1538023E1,5.140429E1,4.8738E1,4.0945854E-2,5.627784E-3,-1.0541041E-1,-1.684491E-2,-1.1835339E-1,-4.3072734E-2,-3.3208903E-2,1.343093E-2],"split_indices":[0,1,0,1,3,1,1,0,0,0,0,0,0,0,0],"split_type":[0,0,0,0,0,0,0,0,0,0,0,0,0,0,0],"sum_hessian":[1.8837944E2,1.4235814E2,4.6021297E1,1.3331879E2,9.039353E0,1.3632659E1,3.2388638E1,3.1456295E1,1.01862495E2,3.9410803E0,5.098273E0,5.32557E0,8.307088E0,1.1493037E1,2.0895601E1],"tree_param":{"num_deleted":"0","num_feature":"4","num_nodes":"15","size_leaf_vector":"1"}},{"base_weights":[-8.3147705E-4,7.927638E-2,-2.5182465E-1,1.2689987E-1,-5.8012575E-1,-1.0538749E0,-9.7429074E-2,3.8324755E-2,4.4120224E-3,-1.1240257E-1,-2.1669632E-2,-1.1297256E-1,-3.3495054E-2,-4.0525097E-2,5.8974167E-3],"categories":[],"categories_nodes":[],"categories_segments":[],"categories_sizes":[],"default_left":[0,0,0,0,0,0,0,0,0,0,0,0,0,0,0],"id":5,"left_children":[1,3,5,7,9,11,13,-1,-1,-1,-1,-1,-1,-1,-1],"loss_changes":[3.8258002E0,4.603448E0,5.59803E0,2.8553212E0,1.7125003E0,2.1281242E-2,1.9355172E0,0E0,0E0,0E0,0E0,0E0,0E0,0E0,0E0],"parents":[2147483647,0,0,1,1,2,2,3,3,4,4,5,5,6,6],"right_children":[2,4,6,8,10,12,14,-1,-1,-1,-1,-1,-1,-1,-1],"split_conditions":[2.168201E-3,6.601533E1,2.6041286E-3,4.1631382E1,2.9730127E0,2.7343214E1,4.8738E1,3.8324755E-2,4.4120224E-3,-1.1240257E-1,-2.1669632E-2,-1.1297256E-1,-3.3495054E-2,-4.0525097E-2,5.8974167E-3],"split_indices":[0,1,0,1,2,3,1,0,0,0,0,0,0,0,0],"split_type":[0,0,0,0,0,0,0,0,0,0,0,0,0,0,0],"sum_hessian":[1.8828366E2,1.4324821E2,4.503545E1,1.3435252E2,8.895684E0,6.32947E0,3.870598E1,3.190892E1,1.024436E2,2.7248728E0,6.170811E0,5.2085285E0,1.1209414E0,1.2504478E1,2.6201502E1],"tree_param":{"num_deleted":"0","num_feature":"4","num_nodes":"15","size_leaf_vector":"1"}},{"base_weights":[-2.313298E-3,4.5309883E-2,-3.610986E-1,1.8795611E-2,1.0086068E0,-5.56852E-1,2.5699185E-2,1.2078508E-2,-1.736282E-2,1.7390367E-2,1.4206773E-1,9.133164E-3,-7.750517E-2,7.038532E-2,-3.4653325E-2],"categories":[],"categories_nodes":[],"categories_segments":[],"categories_sizes":[],"default_left":[0,0,0,0,0,0,0,0,0,0,0,0,0,0,0],"id":6,"left_children":[1,3,5,7,9,11,13,-1,-1,-1,-1,-1,-1,-1,-1],"loss_changes":[3.2479424E0,4.2682915E0,1.7008257E0,3.2469492E0,1.2929783E0,2.1687245E0,2.374564E0,0E0,0E0,0E0,0E0,0E0,0E0,0E0,0E0],"parents":[2147483647,0,0,1,1,2,2,3,3,4,4,5,5,6,6],"right_children":[2,4,6,8,10,12,14,-1,-1,-1,-1,-1,-1,-1,-1],"split_conditions":[6.492666E1,6.4147644E1,4.28323E-3,9.5667125E-4,2.5376434E1,-1.5639453E-3,1.6587927E1,1.2078508E-2,-1.736282E-2,1.7390367E-2,1.4206773E-1,9.133164E-3,-7.750517E-2,7.038532E-2,-3.4653325E-2],"split_indices":[1,1,0,0,3,0,3,0,0,0,0,0,0,0,0],"split_type":[0,0,0,0,0,0,0,0,0,0,0,0,0,0,0],"sum_hessian":[1.881307E2,1.6685677E2,2.1273933E1,1.6337935E2,3.4774237E0,1.3833386E1,7.4405475E0,1.0702546E2,5.6353886E1,1.619314E0,1.8581098E0,3.630389E0,1.0202997E1,2.3210433E0,5.1195045E0],"tree_param":{"num_deleted":"0","num_feature":"4","num_nodes":"15","size_leaf_vector":"1"}},{"base_weights":[-1.5493908E-3,6.601646E-2,-2.2029966E-1,1.0430621E-1,-5.696422E-1,-1.0877696E0,-7.34205E-2,-1.5147293E-3,4.467572E-2,5.2840736E-2,-8.184143E-2,-3.0364027E-2,-1.1930417E-1,-1.7690402E-2,3.5614774E-2],"categories":[],"categories_nodes":[],"categories_segments":[],"categories_sizes":[],"default_left":[0,0,0,0,0,0,0,0,0,0,0,0,0,0,0],"id":7,"left_children":[1,3,5,7,9,11,13,-1,-1,-1,-1,-1,-1,-1,-1],"loss_changes":[2.8074105E0,3.5919986E0,5.631111E0,5.641243E0,2.727236E0,1.6752863E-1,1.8146605E0,0E0,0E0,0E0,0E0,0E0,0E0,0E0,0E0],"parents":[2147483647,0,0,1,1,2,2,3,3,4,4,5,5,6,6],"right_children":[2,4,6,8,10,12,14,-1,-1,-1,-1,-1,-1,-1,-1],"split_conditions":[2.19366E-3,3.8971622E1,2.6041286E-3,2.716525E1,3.3137276E1,1.5071437E1,8.554959E-3,-1.5147293E-3,4.467572E-2,5.2840736E-2,-8.184143E-2,-3.0364027E-2,-1.1930417E-1,-1.7690402E-2,3.5614774E-2],"split_indices":[0,3,0,3,1,3,0,0,0,0,0,0,0,0,0],"split_type":[0,0,0,0,0,0,0,0,0,0,0,0,0,0,0],"sum_hessian":[1.8796198E2,1.4413953E2,4.382246E1,1.3673878E2,7.4007363E0,5.417973E0,3.8404488E1,1.0208524E2,3.4653538E1,1.1593678E0,6.241369E0,1.1010481E0,4.316925E0,3.1422865E1,6.981624E0],"tree_param":{"num_deleted":"0","num_feature":"4","num_nodes":"15","size_leaf_vector":"1"}},{"base_weights":[-2.1619932E-3,3.180035E-2,-4.262246E-1,1.1675358E-1,-1.1844602E-1,2.6060982E-2,-5.6544864E-1,7.148796E-2,5.867873E-3,-7.4557E-2,-3.151627E-3,-6.913422E-2,1.4426216E-2],"categories":[],"categories_nodes":[],"categories_segments":[],"categories_sizes":[],"default_left":[0,0,0,0,0,0,0,0,0,0,0,0,0],"id":8,"left_children":[1,3,5,7,9,-1,11,-1,-1,-1,-1,-1,-1],"loss_changes":[2.7324765E0,2.2566774E0,1.4925797E0,3.8746443E0,3.4636052E0,0E0,1.1730092E0,0E0,0E0,0E0,0E0,0E0,0E0],"parents":[2147483647,0,0,1,1,2,2,3,3,4,4,6,6],"right_children":[2,4,6,8,10,-1,12,-1,-1,-1,-1,-1,-1],"split_conditions":[6.804602E1,9.5667125E-4,1.555414E1,1.1155941E1,1.3856246E-3,2.6060982E-2,1.0577141E-2,7.148796E-2,5.867873E-3,-7.4557E-2,-3.151627E-3,-6.913422E-2,1.4426216E-2],"split_indices":[1,0,3,3,0,0,0,0,0,0,0,0,0],"split_type":[0,0,0,0,0,0,0,0,0,0,0,0,0],"sum_hessian":[1.8778574E2,1.7471793E2,1.3067806E1,1.1175286E2,6.296507E1,2.055505E0,1.1012301E1,8.88939E0,1.0286347E2,6.7430468E0,5.6222023E1,9.375153E0,1.6371491E0],"tree_param":{"num_deleted":"0","num_feature":"4","num_nodes":"13","size_leaf_vector":"1"}},{"base_weights":[-2.1922153E-3,2.2145726E-1,-6.0028803E-2,-1.294906E-1,6.5047854E-1,-1.505696E-1,2.2804801E-1,4.7045056E-2,-4.7224443E-2,1.363961E-1,4.8726793E-2,-6.387265E-2,-5.3371466E-3,9.743451E-2,1.4326436E-3],"categories":[],"categories_nodes":[],"categories_segments":[],"categories_sizes":[],"default_left":[0,0,0,0,0,0,0,0,0,0,0,0,0,0,0],"id":9,"left_children":[1,3,5,7,9,11,13,-1,-1,-1,-1,-1,-1,-1,-1],"loss_changes":[2.4533978E0,5.952201E0,3.9641798E0,4.801836E0,1.3967543E0,5.4338446E0,5.7962723E0,0E0,0E0,0E0,0E0,0E0,0E0,0E0,0E0],"parents":[2147483647,0,0,1,1,2,2,3,3,4,4,5,5,6,6],"right_children":[2,4,6,8,10,12,14,-1,-1,-1,-1,-1,-1,-1,-1],"split_conditions":[4.1631382E1,-2.9618328E0,2.7769005E1,2.8372131E1,3.3268673E1,-2.1527262E0,-1.9329939E0,4.7045056E-2,-4.7224443E-2,1.363961E-1,4.8726793E-2,-6.387265E-2,-5.3371466E-3,9.743451E-2,1.4326436E-3],"split_indices":[1,2,3,3,1,2,2,0,0,0,0,0,0,0,0],"split_type":[0,0,0,0,0,0,0,0,0,0,0,0,0,0,0],"sum_hessian":[1.8764174E2,3.797324E1,1.496685E2,2.1271172E1,1.6702066E1,1.1424068E2,3.5427826E1,7.5985117E0,1.3672661E1,1.7397237E0,1.4962342E1,1.8044525E1,9.619615E1,7.094724E0,2.8333103E1],"tree_param":{"num_deleted":"0","num_feature":"4","num_nodes":"15","size_leaf_vector":"1"}},{"base_weights":[-9.814567E-4,3.854371E-2,-3.0467469E-1,1.3913245E-2,9.1815597E-1,-4.8203227E-1,3.500317E-2,4.2678416E-3,-4.9077038E-2,1.6873311E-2,1.2760699E-1,1.3611716E-2,-6.981825E-2,6.619536E-2,-3.1742465E-2],"categories":[],"categories_nodes":[],"categories_segments":[],"categories_sizes":[],"default_left":[0,0,0,0,0,0,0,0,0,0,0,0,0,0,0],"id":10,"left_children":[1,3,5,7,9,11,13,-1,-1,-1,-1,-1,-1,-1,-1],"loss_changes":[2.2727075E0,3.6173398E0,1.3304257E0,2.4018722E0,1.0047495E0,2.0180132E0,2.0687E0,0E0,0E0,0E0,0E0,0E0,0E0,0E0,0E0],"parents":[2147483647,0,0,1,1,2,2,3,3,4,4,5,5,6,6],"right_children":[2,4,6,8,10,12,14,-1,-1,-1,-1,-1,-1,-1,-1],"split_conditions":[6.492666E1,6.4147644E1,4.28323E-3,3.8971622E1,2.5376434E1,-1.5639453E-3,1.6587927E1,4.2678416E-3,-4.9077038E-2,1.6873311E-2,1.2760699E-1,1.3611716E-2,-6.981825E-2,6.619536E-2,-3.1742465E-2],"split_indices":[1,1,0,3,3,0,3,0,0,0,0,0,0,0,0],"split_type":[0,0,0,0,0,0,0,0,0,0,0,0,0,0,0],"sum_hessian":[1.8735835E2,1.6655463E2,2.0803722E1,1.6300604E2,3.548596E0,1.3392138E1,7.4115853E0,1.5508234E2,7.9237065E0,1.6225765E0,1.9260194E0,3.565561E0,9.826576E0,2.351005E0,5.0605803E0],"tree_param":{"num_deleted":"0","num_feature":"4","num_nodes":"15","size_leaf_vector":"1"}},{"base_weights":[-5.568887E-4,5.9923876E-2,-1.9427295E-1,1.9084756E-1,-8.6335875E-2,-9.362129E-1,-5.9393667E-2,1.3329774E-2,1.581844E-1,-5.5945784E-2,6.652936E-3,-2.7647419E-2,-1.0115137E-1,-3.502418E-2,8.575205E-3],"categories":[],"categories_nodes":[],"categories_segments":[],"categories_sizes":[],"default_left":[0,0,0,0,0,0,0,0,0,0,0,0,0,0,0],"id":11,"left_children":[1,3,5,7,9,11,13,-1,-1,-1,-1,-1,-1,-1,-1],"loss_changes":[2.2165654E0,2.7774198E0,4.4489536E0,5.904423E0,5.0124803E0,6.096697E-2,1.68304E0,0E0,0E0,0E0,0E0,0E0,0E0,0E0,0E0],"parents":[2147483647,0,0,1,1,2,2,3,3,4,4,5,5,6,6],"right_children":[2,4,6,8,10,12,14,-1,-1,-1,-1,-1,-1,-1,-1],"split_conditions":[2.168201E-3,5.062347E1,2.6041286E-3,5.025129E1,5.348082E1,1.5071437E1,4.8738E1,1.3329774E-2,1.581844E-1,-5.5945784E-2,6.652936E-3,-2.7647419E-2,-1.0115137E-1,-3.502418E-2,8.575205E-3],"split_indices":[0,1,0,1,1,3,1,0,0,0,0,0,0,0,0],"split_type":[0,0,0,0,0,0,0,0,0,0,0,0,0,0,0],"sum_hessian":[1.8719612E2,1.4318309E2,4.401303E1,7.539172E1,6.7791374E1,5.856524E0,3.8156506E1,7.344875E1,1.9429729E0,1.5905042E1,5.1886333E1,1.0785491E0,4.7779746E0,1.2232184E1,2.5924324E1],"tree_param":{"num_deleted":"0","num_feature":"4","num_nodes":"15","size_leaf_vector":"1"}},{"base_weights":[-8.053698E-4,2.8542098E-2,-3.747776E-1,5.096472E-1,7.4572605E-3,-6.5609455E-1,-7.7618347E-3,-3.6168553E-2,8.387182E-2,-8.4655896E-2,3.5181628E-3,1.8327257E-2,-8.192502E-2,9.472182E-2,-4.695388E-2],"categories":[],"categories_nodes":[],"categories_segments":[],"categories_sizes":[],"default_left":[0,0,0,0,0,0,0,0,0,0,0,0,0,0,0],"id":12,"left_children":[1,3,5,7,9,11,13,-1,-1,-1,-1,-1,-1,-1,-1],"loss_changes":[2.0737948E0,1.7737386E0,1.4144646E0,2.40862E0,4.0285516E0,1.2143977E0,3.5218768E0,0E0,0E0,0E0,0E0,0E0,0E0,0E0,0E0],"parents":[2147483647,0,0,1,1,2,2,3,3,4,4,5,5,6,6],"right_children":[2,4,6,8,10,12,14,-1,-1,-1,-1,-1,-1,-1,-1],"split_conditions":[6.804602E1,3.0384638E1,7.206703E1,2.5337269E1,-1.0302562E1,6.9569886E-1,7.407708E1,-3.6168553E-2,8.387182E-2,-8.4655896E-2,3.5181628E-3,1.8327257E-2,-8.192502E-2,9.472182E-2,-4.695388E-2],"split_indices":[1,1,1,1,2,2,1,0,0,0,0,0,0,0,0],"split_type":[0,0,0,0,0,0,0,0,0,0,0,0,0,0,0],"sum_hessian":[1.8697923E2,1.742302E2,1.2749035E1,6.342327E0,1.6788786E2,6.771242E0,5.977793E0,1.7114755E0,4.6308517E0,4.3502026E0,1.6353767E2,1.0819197E0,5.6893225E0,1.6057558E0,4.3720374E0],"tree_param":{"num_deleted":"0","num_feature":"4","num_nodes":"15","size_leaf_vector":"1"}},{"base_weights":[-1.0836825E-3,1.9879478E-1,-5.280511E-2,-1.17928535E-1,5.8097565E-1,-1.3678429E-1,2.1226849E-1,4.1860916E-2,-4.3129075E-2,1.2455293E-1,4.3068673E-2,-5.9316106E-2,-4.7253175E-3,5.5256482E-2,-1.7180728E-2],"categories":[],"categories_nodes":[],"categories_segments":[],"categories_sizes":[],"default_left":[0,0,0,0,0,0,0,0,0,0,0,0,0,0,0],"id":13,"left_children":[1,3,5,7,9,11,13,-1,-1,-1,-1,-1,-1,-1,-1],"loss_changes":[1.9522005E0,4.767559E0,3.3681674E0,3.8894048E0,1.2374535E0,4.65127E0,4.862982E0,0E0,0E0,0E0,0E0,0E0,0E0,0E0,0E0],"parents":[2147483647,0,0,1,1,2,2,3,3,4,4,5,5,6,6],"right_children":[2,4,6,8,10,12,14,-1,-1,-1,-1,-1,-1,-1,-1],"split_conditions":[4.1631382E1,-2.9618328E0,2.7769005E1,2.8372131E1,3.3268673E1,-2.1527262E0,3.2873845E0,4.1860916E-2,-4.3129075E-2,1.2455293E-1,4.3068673E-2,-5.9316106E-2,-4.7253175E-3,5.5256482E-2,-1.7180728E-2],"split_indices":[1,2,3,3,1,2,2,0,0,0,0,0,0,0,0],"split_type":[0,0,0,0,0,0,0,0,0,0,0,0,0,0,0],"sum_hessian":[1.8682193E2,3.782046E1,1.4900148E2,2.105941E1,1.6761053E1,1.1352051E2,3.548097E1,7.640872E0,1.3418538E1,1.747283E0,1.5013769E1,1.7695269E1,9.582523E1,1.858008E1,1.690089E1],"tree_param":{"num_deleted":"0","num_feature":"4","num_nodes":"15","size_leaf_vector":"1"}},{"base_weights":[-3.436445E-4,5.5224374E-2,-1.8287344E-1,8.722425E-2,-4.9082506E-1,-9.838257E-1,-5.623807E-2,1.6596416E-3,5.4065604E-2,5.895387E-2,-7.46489E-2,-2.5305554E-2,-1.0902317E-1,-3.3085167E-2,7.953019E-3],"categories":[],"categories_nodes":[],"categories_segments":[],"categories_sizes":[],"default_left":[0,0,0,0,0,0,0,0,0,0,0,0,0,0,0],"id":14,"left_children":[1,3,5,7,9,11,13,-1,-1,-1,-1,-1,-1,-1,-1],"loss_changes":[1.9115866E0,2.567503E0,4.405979E0,4.3892403E0,2.6910434E0,1.8632221E-1,1.4818871E0,0E0,0E0,0E0,0E0,0E0,0E0,0E0,0E0],"parents":[2147483647,0,0,1,1,2,2,3,3,4,4,5,5,6,6],"right_children":[2,4,6,8,10,12,14,-1,-1,-1,-1,-1,-1,-1,-1],"split_conditions":[2.19366E-3,3.8971622E1,2.6041286E-3,3.1450031E1,3.3137276E1,1.5071437E1,4.8738E1,1.6596416E-3,5.4065604E-2,5.895387E-2,-7.46489E-2,-2.5305554E-2,-1.0902317E-1,-3.3085167E-2,7.953019E-3],"split_indices":[0,3,0,3,1,3,1,0,0,0,0,0,0,0,0],"split_type":[0,0,0,0,0,0,0,0,0,0,0,0,0,0,0],"sum_hessian":[1.8647133E2,1.4348674E2,4.298459E1,1.3633728E2,7.1494465E0,4.9442005E0,3.8040386E1,1.18859924E2,1.7477362E1,1.118226E0,6.0312204E0,1.0577867E0,3.8864138E0,1.2109681E1,2.5930706E1],"tree_param":{"num_deleted":"0","num_feature":"4","num_nodes":"15","size_leaf_vector":"1"}},{"base_weights":[-1.0730922E-3,3.325719E-2,-2.6825413E-1,1.0621509E-2,8.291469E-1,-9.3323745E-2,-1.683575E-1,3.3117738E-2,-2.1175246E-3,1.517524E-2,1.1511016E-1,5.739963E-2,-2.8694898E-2],"categories":[],"categories_nodes":[],"categories_segments":[],"categories_sizes":[],"default_left":[0,0,0,0,0,0,0,0,0,0,0,0,0],"id":15,"left_children":[1,3,5,7,9,-1,11,-1,-1,-1,-1,-1,-1],"loss_changes":[1.7264937E0,2.9965973E0,1.2665495E0,1.6706833E0,8.286183E-1,0E0,1.9124427E0,0E0,0E0,0E0,0E0,0E0,0E0],"parents":[2147483647,0,0,1,1,2,2,3,3,4,4,6,6],"right_children":[2,4,6,8,10,-1,12,-1,-1,-1,-1,-1,-1],"split_conditions":[6.492666E1,6.4147644E1,6.521612E1,1.1155941E1,2.5376434E1,-9.3323745E-2,6.601533E1,3.3117738E-2,-2.1175246E-3,1.517524E-2,1.1511016E-1,5.739963E-2,-2.8694898E-2],"split_indices":[1,1,1,3,3,0,1,0,0,0,0,0,0],"split_type":[0,0,0,0,0,0,0,0,0,0,0,0,0],"sum_hessian":[1.8625441E2,1.658232E2,2.0431213E1,1.6222281E2,3.6003888E0,1.5788999E0,1.8852314E1,1.3789535E1,1.4843327E2,1.6339326E0,1.9664562E0,2.0678656E0,1.6784449E1],"tree_param":{"num_deleted":"0","num_feature":"4","num_nodes":"13","size_leaf_vector":"1"}},{"base_weights":[-4.938559E-4,1.8016812E-1,-4.729809E-2,-4.081678E-2,6.941392E-1,-3.500676E-1,2.3080898E-2,1.5802136E-2,-5.595232E-2,1.1587415E-1,2.9793227E-2,-6.8767443E-3,-6.898271E-2,1.1789137E-1,-1.3754908E-3],"categories":[],"categories_nodes":[],"categories_segments":[],"categories_sizes":[],"default_left":[0,0,0,0,0,0,0,0,0,0,0,0,0,0,0],"id":16,"left_children":[1,3,5,7,9,11,13,-1,-1,-1,-1,-1,-1,-1,-1],"loss_changes":[1.5906726E0,4.424809E0,3.1916153E0,2.9777422E0,1.8074346E0,2.6516044E0,5.2173524E0,0E0,0E0,0E0,0E0,0E0,0E0,0E0,0E0],"parents":[2147483647,0,0,1,1,2,2,3,3,4,4,5,5,6,6],"right_children":[2,4,6,8,10,12,14,-1,-1,-1,-1,-1,-1,-1,-1],"split_conditions":[4.1631382E1,3.856995E1,4.6320045E1,3.809032E-4,-1.2717083E0,4.4299843E1,4.672546E1,1.5802136E-2,-5.595232E-2,1.1587415E-1,2.9793227E-2,-6.8767443E-3,-6.898271E-2,1.1789137E-1,-1.3754908E-3],"split_indices":[1,1,1,0,2,1,1,0,0,0,0,0,0,0,0],"split_type":[0,0,0,0,0,0,0,0,0,0,0,0,0,0,0],"sum_hessian":[1.8610959E2,3.7708252E1,1.4840135E2,2.7014004E1,1.0694246E1,2.7240221E1,1.21161125E2,2.0030844E1,6.9831605E0,4.036434E0,6.6578116E0,1.5559939E1,1.1680283E1,2.7845032E0,1.1837662E2],"tree_param":{"num_deleted":"0","num_feature":"4","num_nodes":"15","size_leaf_vector":"1"}},{"base_weights":[2.2943932E-4,4.5477286E-1,-1.8275369E-2,-3.4875024E-2,7.594857E-1,-7.821537E-2,4.1077393E-3,8.7193824E-2,2.458588E-2,2.3750693E-2,-4.0477025E-3],"categories":[],"categories_nodes":[],"categories_segments":[],"categories_sizes":[],"default_left":[0,0,0,0,0,0,0,0,0,0,0],"id":17,"left_children":[1,3,5,-1,7,-1,9,-1,-1,-1,-1],"loss_changes":[1.5798529E0,2.063841E0,3.0892415E0,0E0,1.11495495E-1,0E0,1.8446945E0,0E0,0E0,0E0,0E0],"parents":[2147483647,0,0,1,1,2,2,4,4,6,6],"right_children":[2,4,6,-1,8,-1,10,-1,-1,-1,-1],"split_conditions":[3.0384638E1,2.5337269E1,-1.0302562E1,-3.4875024E-2,-1.6829296E-4,-7.821537E-2,4.1631382E1,8.7193824E-2,2.458588E-2,2.3750693E-2,-4.0477025E-3],"split_indices":[1,1,2,0,0,0,1,0,0,0,0],"split_type":[0,0,0,0,0,0,0,0,0,0,0],"sum_hessian":[1.8583835E2,6.3474183E0,1.7949092E2,1.7055057E0,4.6419125E0,4.143399E0,1.7534753E2,3.2358515E0,1.406061E0,2.7429304E1,1.4791823E2],"tree_param":{"num_deleted":"0","num_feature":"4","num_nodes":"11","size_leaf_vector":"1"}},{"base_weights":[2.712476E-4,2.5040159E-2,-3.2279068E-1,4.6685565E-2,-4.816698E-1,-1.0179887E-1,-9.7360834E-2,-1.8956944E-3,3.2401215E-2,6.2449586E-2,-7.732751E-2,-2.4457537E-2,4.680108E-2],"categories":[],"categories_nodes":[],"categories_segments":[],"categories_sizes":[],"default_left":[0,0,0,0,0,0,0,0,0,0,0,0,0],"id":18,"left_children":[1,3,5,7,9,-1,11,-1,-1,-1,-1,-1,-1],"loss_changes":[1.5012507E0,1.9335636E0,1.9946208E0,3.064764E0,2.8139536E0,0E0,1.0461704E0,0E0,0E0,0E0,0E0,0E0,0E0],"parents":[2147483647,0,0,1,1,2,2,3,3,4,4,6,6],"right_children":[2,4,6,8,10,-1,12,-1,-1,-1,-1,-1,-1],"split_conditions":[7.2349687E0,3.8971622E1,2.1261755E1,2.8757725E1,3.2365726E1,-1.0179887E-1,8.554959E-3,-1.8956944E-3,3.2401215E-2,6.2449586E-2,-7.732751E-2,-2.4457537E-2,4.680108E-2],"split_indices":[2,3,3,3,1,0,0,0,0,0,0,0,0],"split_type":[0,0,0,0,0,0,0,0,0,0,0,0,0],"sum_hessian":[1.8560187E2,1.7324203E2,1.2359843E1,1.6701541E2,6.226622E0,2.1656075E0,1.0194236E1,1.3580286E2,3.1212553E1,1.06085E0,5.165772E0,8.538375E0,1.6558605E0],"tree_param":{"num_deleted":"0","num_feature":"4","num_nodes":"13","size_leaf_vector":"1"}},{"base_weights":[-1.7334436E-4,4.9461696E-2,-1.6442418E-1,8.813665E-2,-3.209689E-1,-9.451858E-1,-4.4696033E-2,1.5508187E-3,7.66622E-2,-9.5067285E-2,-7.2099017E-3,-2.436293E-2,-1.050262E-1,-1.3665959E-2,3.265094E-2],"categories":[],"categories_nodes":[],"categories_segments":[],"categories_sizes":[],"default_left":[0,0,0,0,0,0,0,0,0,0,0,0,0,0,0],"id":19,"left_children":[1,3,5,7,9,11,13,-1,-1,-1,-1,-1,-1,-1,-1],"loss_changes":[1.5283158E0,2.0907576E0,4.024394E0,6.45024E0,2.0980382E0,1.6685534E-1,1.3680816E0,0E0,0E0,0E0,0E0,0E0,0E0,0E0,0E0],"parents":[2147483647,0,0,1,1,2,2,3,3,4,4,5,5,6,6],"right_children":[2,4,6,8,10,12,14,-1,-1,-1,-1,-1,-1,-1,-1],"split_conditions":[2.19366E-3,3.6585033E1,2.6041286E-3,3.1450031E1,3.7955116E1,1.5071437E1,8.554959E-3,1.5508187E-3,7.66622E-2,-9.5067285E-2,-7.2099017E-3,-2.436293E-2,-1.050262E-1,-1.3665959E-2,3.265094E-2],"split_indices":[0,3,0,3,3,3,0,0,0,0,0,0,0,0,0],"split_type":[0,0,0,0,0,0,0,0,0,0,0,0,0,0,0],"sum_hessian":[1.8546613E2,1.4296295E2,4.250318E1,1.3013792E2,1.2825032E1,4.734501E0,3.776868E1,1.1847827E2,1.165965E1,2.8340943E0,9.990937E0,1.049039E0,3.6854618E0,3.0775991E1,6.9926877E0],"tree_param":{"num_deleted":"0","num_feature":"4","num_nodes":"15","size_leaf_vector":"1"}},{"base_weights":[-9.782E-4,2.2626666E-2,-3.0869746E-1,6.0238005E-3,4.5380837E-1,-5.8611083E-1,4.1607533E-2,6.28901E-3,-2.445917E-2,-6.821E-2,1.0545447E-1,-1.6560528E-2,-1.0205968E-1,8.958371E-2,-3.9938446E-2],"categories":[],"categories_nodes":[],"categories_segments":[],"categories_sizes":[],"default_left":[0,0,0,0,0,0,0,0,0,0,0,0,0,0,0],"id":20,"left_children":[1,3,5,7,9,11,13,-1,-1,-1,-1,-1,-1,-1,-1],"loss_changes":[1.3596109E0,1.2420672E0,1.3202926E0,2.4160464E0,5.1095676E0,1.2027493E0,2.9295974E0,0E0,0E0,0E0,0E0,0E0,0E0,0E0,0E0],"parents":[2147483647,0,0,1,1,2,2,3,3,4,4,5,5,6,6],"right_children":[2,4,6,8,10,12,14,-1,-1,-1,-1,-1,-1,-1,-1],"split_conditions":[6.804602E1,8.0116745E-3,7.206703E1,2.19366E-3,3.4989026E-1,3.674021E0,7.407708E1,6.28901E-3,-2.445917E-2,-6.821E-2,1.0545447E-1,-1.6560528E-2,-1.0205968E-1,8.958371E-2,-3.9938446E-2],"split_indices":[1,0,1,0,2,2,1,0,0,0,0,0,0,0,0],"split_type":[0,0,0,0,0,0,0,0,0,0,0,0,0,0,0],"sum_hessian":[1.8521796E2,1.7288275E2,1.233521E1,1.67449E2,5.4337373E0,6.5081415E0,5.827069E0,1.3709119E2,3.035783E1,1.8327755E0,3.6009617E0,4.0091476E0,2.4989939E0,1.632806E0,4.1942625E0],"tree_param":{"num_deleted":"0","num_feature":"4","num_nodes":"15","size_leaf_vector":"1"}},{"base_weights":[-1.2378371E-3,1.0684134E-1,-6.714977E-2,-1.0868304E-1,5.420554E-1,-2.202663E-1,7.644609E-2,-5.193275E-2,3.5651753E-4,1.0721739E-1,5.4401597E-3,-1.3016738E-2,-8.835211E-2,3.0201161E-2,-2.2949329E-2],"categories":[],"categories_nodes":[],"categories_segments":[],"categories_sizes":[],"default_left":[0,0,0,0,0,0,0,0,0,0,0,0,0,0,0],"id":21,"left_children":[1,3,5,7,9,11,13,-1,-1,-1,-1,-1,-1,-1,-1],"loss_changes":[1.3321571E0,6.704186E0,2.5706291E0,2.224261E0,6.0506454E0,3.2595253E0,4.256874E0,0E0,0E0,0E0,0E0,0E0,0E0,0E0,0E0],"parents":[2147483647,0,0,1,1,2,2,3,3,4,4,5,5,6,6],"right_children":[2,4,6,8,10,12,14,-1,-1,-1,-1,-1,-1,-1,-1],"split_conditions":[-8.363131E-1,-2.1527262E0,2.096829E1,2.0029573E1,1.8926384E1,1.9389265E1,1.271533E-3,-5.193275E-2,3.5651753E-4,1.0721739E-1,5.4401597E-3,-1.3016738E-2,-8.835211E-2,3.0201161E-2,-2.2949329E-2],"split_indices":[2,2,3,3,3,3,0,0,0,0,0,0,0,0,0],"split_type":[0,0,0,0,0,0,0,0,0,0,0,0,0,0,0],"sum_hessian":[1.8499625E2,6.98457E1,1.1515055E2,4.721461E1,2.2631088E1,5.5469444E1,5.9681103E1,9.356943E0,3.785767E1,1.0269113E1,1.2361976E1,4.988865E1,5.580798E0,3.436041E1,2.5320692E1],"tree_param":{"num_deleted":"0","num_feature":"4","num_nodes":"15","size_leaf_vector":"1"}},{"base_weights":[-1.447892E-3,2.1598866E-2,-2.8974137E-1,4.1507997E-2,-4.4958934E-1,-9.4659954E-2,-9.64581E-2,7.240544E-4,5.0726086E-2,5.9909977E-2,-7.3433414E-2,2.3471663E-2,-4.0024485E-2],"categories":[],"categories_nodes":[],"categories_segments":[],"categories_sizes":[],"default_left":[0,0,0,0,0,0,0,0,0,0,0,0,0],"id":22,"left_children":[1,3,5,7,9,-1,11,-1,-1,-1,-1,-1,-1],"loss_changes":[1.2407959E0,1.641401E0,1.6637254E0,2.6598425E0,2.5592394E0,0E0,1.2805134E0,0E0,0E0,0E0,0E0,0E0,0E0],"parents":[2147483647,0,0,1,1,2,2,3,3,4,4,6,6],"right_children":[2,4,6,8,10,-1,12,-1,-1,-1,-1,-1,-1],"split_conditions":[7.122634E0,3.8971622E1,2.1261755E1,3.4298073E1,3.2365726E1,-9.4659954E-2,3.56712E1,7.240544E-4,5.0726086E-2,5.9909977E-2,-7.3433414E-2,2.3471663E-2,-4.0024485E-2],"split_indices":[2,3,3,3,1,0,3,0,0,0,0,0,0],"split_type":[0,0,0,0,0,0,0,0,0,0,0,0,0],"sum_hessian":[1.84806E2,1.7198245E2,1.2823544E1,1.6588521E2,6.0972457E0,2.0293798E0,1.0794163E1,1.5546269E2,1.0422518E1,1.0662724E0,5.030973E0,5.273066E0,5.521097E0],"tree_param":{"num_deleted":"0","num_feature":"4","num_nodes":"13","size_leaf_vector":"1"}},{"base_weights":[-1.7699973E-3,2.550588E-1,-2.4678081E-2,1.18119374E-1,-2.2133218E-1,-8.149369E-1,1.6024439E-2,4.5286763E-2,-8.338546E-2,-1.9576544E-2,-1.1229723E-1,3.9745353E-2,-1.3628007E-3],"categories":[],"categories_nodes":[],"categories_segments":[],"categories_sizes":[],"default_left":[0,0,0,0,0,0,0,0,0,0,0,0,0],"id":23,"left_children":[1,3,5,-1,7,9,11,-1,-1,-1,-1,-1,-1],"loss_changes":[1.0986693E0,7.0087137E0,5.5254583E0,0E0,4.8956943E0,1.3848777E0,1.85988E0,0E0,0E0,0E0,0E0,0E0,0E0],"parents":[2147483647,0,0,1,1,2,2,4,4,5,5,6,6],"right_children":[2,4,6,-1,8,10,12,-1,-1,-1,-1,-1,-1],"split_conditions":[1.1155941E1,3.4989026E-1,1.2656333E1,1.18119374E-1,2.373435E-4,4.6606293E-1,1.4240867E1,4.5286763E-2,-8.338546E-2,-1.9576544E-2,-1.1229723E-1,3.9745353E-2,-1.3628007E-3],"split_indices":[3,2,3,0,0,2,3,0,0,0,0,0,0],"split_type":[0,0,0,0,0,0,0,0,0,0,0,0,0],"sum_hessian":[1.8466893E2,1.4292934E1,1.70376E2,4.352306E0,9.940628E0,7.4137E0,1.629623E2,4.856147E0,5.0844812E0,3.0063224E0,4.4073777E0,1.0860206E1,1.521021E2],"tree_param":{"num_deleted":"0","num_feature":"4","num_nodes":"13","size_leaf_vector":"1"}},{"base_weights":[-1.7700918E-3,1.9079134E-2,-2.7757156E-1,-2.4272236E-1,4.6220608E-2,-7.34887E-1,-2.2590829E-2,4.622228E-2,-4.8647605E-2,-5.8685984E-3,1.7713917E-2,1.7655535E-2,-1.0615031E-1,8.7719284E-2,-3.373293E-2],"categories":[],"categories_nodes":[],"categories_segments":[],"categories_sizes":[],"default_left":[0,0,0,0,0,0,0,0,0,0,0,0,0,0,0],"id":24,"left_children":[1,3,5,7,9,11,13,-1,-1,-1,-1,-1,-1,-1,-1],"loss_changes":[1.0722822E0,1.2436942E0,1.5115856E0,3.0519767E0,2.1803563E0,1.5745566E0,2.9709303E0,0E0,0E0,0E0,0E0,0E0,0E0,0E0,0E0],"parents":[2147483647,0,0,1,1,2,2,3,3,4,4,5,5,6,6],"right_children":[2,4,6,8,10,12,14,-1,-1,-1,-1,-1,-1,-1,-1],"split_conditions":[6.804602E1,-6.859629E0,2.9730127E0,2.637493E1,2.3138083E1,6.9569886E-1,3.8081224E0,4.622228E-2,-4.8647605E-2,-5.8685984E-3,1.7713917E-2,1.7655535E-2,-1.0615031E-1,8.7719284E-2,-3.373293E-2],"split_indices":[1,2,2,3,3,2,2,0,0,0,0,0,0,0,0],"split_type":[0,0,0,0,0,0,0,0,0,0,0,0,0,0,0],"sum_hessian":[1.8455486E2,1.7244936E2,1.21054945E1,1.54527E1,1.5699666E2,3.6596599E0,8.445835E0,3.7400525E0,1.1712647E1,8.746314E1,6.9533516E1,1.086673E0,2.572987E0,1.7255961E0,6.7202387E0],"tree_param":{"num_deleted":"0","num_feature":"4","num_nodes":"15","size_leaf_vector":"1"}},{"base_weights":[-1.8175202E-3,3.8140398E-1,-1.7491758E-2,-3.178549E-2,6.471743E-1,-7.1380055E-1,2.0471406E-3,3.1199202E-2,8.540564E-2,-7.980417E-2,-2.1399722E-2,6.4375654E-2,-1.0602524E-3],"categories":[],"categories_nodes":[],"categories_segments":[],"categories_sizes":[],"default_left":[0,0,0,0,0,0,0,0,0,0,0,0,0],"id":25,"left_children":[1,3,5,-1,7,9,11,-1,-1,-1,-1,-1,-1],"loss_changes":[1.120399E0,1.5678424E0,2.4379253E0,0E0,1.2466049E-1,3.5149097E-2,1.4289434E0,0E0,0E0,0E0,0E0,0E0,0E0],"parents":[2147483647,0,0,1,1,2,2,4,4,5,5,6,6],"right_children":[2,4,6,-1,8,10,12,-1,-1,-1,-1,-1,-1],"split_conditions":[3.0384638E1,2.5337269E1,-1.0302562E1,-3.178549E-2,3.525203E1,3.416164E1,-8.202142E0,3.1199202E-2,8.540564E-2,-7.980417E-2,-2.1399722E-2,6.4375654E-2,-1.0602524E-3],"split_indices":[1,1,2,0,3,1,2,0,0,0,0,0,0],"split_type":[0,0,0,0,0,0,0,0,0,0,0,0,0],"sum_hessian":[1.8441406E2,6.329523E0,1.7808453E2,1.6891868E0,4.6403365E0,3.890931E0,1.741936E2,2.728231E0,1.9121056E0,2.8190696E0,1.0718614E0,2.4029374E0,1.7179066E2],"tree_param":{"num_deleted":"0","num_feature":"4","num_nodes":"13","size_leaf_vector":"1"}},{"base_weights":[-1.4155253E-3,1.9906534E-2,-2.7045417E-1,3.732917E-2,-4.036783E-1,-9.015131E-2,-9.027491E-2,5.433233E-4,4.6936657E-2,5.996869E-2,-6.8603836E-2,3.274721E-2,-3.0293608E-2],"categories":[],"categories_nodes":[],"categories_segments":[],"categories_sizes":[],"default_left":[0,0,0,0,0,0,0,0,0,0,0,0,0],"id":26,"left_children":[1,3,5,7,9,-1,11,-1,-1,-1,-1,-1,-1],"loss_changes":[1.0683967E0,1.2890867E0,1.4736625E0,2.2949905E0,2.3675866E0,0E0,1.1430578E0,0E0,0E0,0E0,0E0,0E0,0E0],"parents":[2147483647,0,0,1,1,2,2,3,3,4,4,6,6],"right_children":[2,4,6,8,10,-1,12,-1,-1,-1,-1,-1,-1],"split_conditions":[7.122634E0,3.8971622E1,2.1261755E1,3.4298073E1,3.2365726E1,-9.015131E-2,3.3530964E1,5.433233E-4,4.6936657E-2,5.996869E-2,-6.8603836E-2,3.274721E-2,-3.0293608E-2],"split_indices":[2,3,3,3,1,0,3,0,0,0,0,0,0],"split_type":[0,0,0,0,0,0,0,0,0,0,0,0,0],"sum_hessian":[1.8430824E2,1.7163194E2,1.2676299E1,1.6572723E2,5.9047203E0,1.9262806E0,1.0750019E1,1.5527626E2,1.04509735E1,1.049937E0,4.854783E0,3.4442773E0,7.3057413E0],"tree_param":{"num_deleted":"0","num_feature":"4","num_nodes":"13","size_leaf_vector":"1"}},{"base_weights":[-1.6022617E-3,9.1859706E-2,-5.8850337E-2,-1.0362647E-1,4.794592E-1,-1.0059059E-1,4.132318E-1,-4.8463408E-2,-1.0238855E-5,9.441954E-2,4.3914984E-3,3.2098286E-3,-3.1773847E-2,-5.8044296E-2,6.863564E-2],"categories":[],"categories_nodes":[],"categories_segments":[],"categories_sizes":[],"default_left":[0,0,0,0,0,0,0,0,0,0,0,0,0,0,0],"id":27,"left_children":[1,3,5,7,9,11,13,-1,-1,-1,-1,-1,-1,-1,-1],"loss_changes":[9.960758E-1,5.4083376E0,2.3161292E0,1.8866937E0,4.793819E0,3.0891352E0,2.9964309E0,0E0,0E0,0E0,0E0,0E0,0E0,0E0,0E0],"parents":[2147483647,0,0,1,1,2,2,3,3,4,4,5,5,6,6],"right_children":[2,4,6,8,10,12,14,-1,-1,-1,-1,-1,-1,-1,-1],"split_conditions":[-8.363131E-1,-2.1527262E0,7.166098E-3,2.0029573E1,1.8926384E1,7.9690793E-4,4.1501093E-1,-4.8463408E-2,-1.0238855E-5,9.441954E-2,4.3914984E-3,3.2098286E-3,-3.1773847E-2,-5.8044296E-2,6.863564E-2],"split_indices":[2,2,0,3,3,0,2,0,0,0,0,0,0,0,0],"split_type":[0,0,0,0,0,0,0,0,0,0,0,0,0,0,0],"sum_hessian":[1.8415402E2,6.9722305E1,1.1443172E2,4.6834118E1,2.2888187E1,1.0585888E2,8.572839E0,9.219932E0,3.761419E1,1.0508021E1,1.2380165E1,6.623684E1,3.9622036E1,1.6057279E0,6.967111E0],"tree_param":{"num_deleted":"0","num_feature":"4","num_nodes":"15","size_leaf_vector":"1"}},{"base_weights":[-1.3863284E-3,2.4629685E-1,-2.3445051E-2,1.07135594E-1,-1.8953347E-1,-7.560396E-1,1.3576265E-2,2.87911E-2,-9.261355E-2,-1.2020564E-1,-2.9889597E-2,3.6838E-2,-1.421039E-3],"categories":[],"categories_nodes":[],"categories_segments":[],"categories_sizes":[],"default_left":[0,0,0,0,0,0,0,0,0,0,0,0,0],"id":28,"left_children":[1,3,5,-1,7,9,11,-1,-1,-1,-1,-1,-1],"loss_changes":[1.0158651E0,5.6707935E0,4.6391535E0,0E0,4.0646667E0,1.3182592E0,1.6165985E0,0E0,0E0,0E0,0E0,0E0,0E0],"parents":[2147483647,0,0,1,1,2,2,4,4,5,5,6,6],"right_children":[2,4,6,-1,8,10,12,-1,-1,-1,-1,-1,-1],"split_conditions":[1.1155941E1,3.4989026E-1,1.2656333E1,1.07135594E-1,7.9690793E-4,5.014313E1,1.4240867E1,2.87911E-2,-9.261355E-2,-1.2020564E-1,-2.9889597E-2,3.6838E-2,-1.421039E-3],"split_indices":[3,2,3,0,0,1,3,0,0,0,0,0,0],"split_type":[0,0,0,0,0,0,0,0,0,0,0,0,0],"sum_hessian":[1.8387726E2,1.420565E1,1.696716E2,4.4061975E0,9.799453E0,7.2275634E0,1.6244405E2,6.3152337E0,3.484219E0,2.833519E0,4.3940444E0,1.0907705E1,1.5153633E2],"tree_param":{"num_deleted":"0","num_feature":"4","num_nodes":"13","size_leaf_vector":"1"}},{"base_weights":[-1.7168701E-3,1.8498322E-2,-2.580716E-1,-2.3125416E-1,4.4293083E-2,-8.695542E-2,-8.7420344E-2,4.0960785E-2,-4.5908015E-2,6.3470784E-3,-6.631064E-2,2.0764438E-2,-3.6372464E-2],"categories":[],"categories_nodes":[],"categories_segments":[],"categories_sizes":[],"default_left":[0,0,0,0,0,0,0,0,0,0,0,0,0],"id":29,"left_children":[1,3,5,7,9,-1,11,-1,-1,-1,-1,-1,-1],"loss_changes":[9.620911E-1,1.119353E0,1.339937E0,2.5645916E0,2.1704118E0,0E0,1.0310608E0,0E0,0E0,0E0,0E0,0E0,0E0],"parents":[2147483647,0,0,1,1,2,2,3,3,4,4,6,6],"right_children":[2,4,6,8,10,-1,12,-1,-1,-1,-1,-1,-1],"split_conditions":[7.122634E0,-6.859629E0,2.1261755E1,2.637493E1,3.8971622E1,-8.695542E-2,3.56712E1,4.0960785E-2,-4.5908015E-2,6.3470784E-3,-6.631064E-2,2.0764438E-2,-3.6372464E-2],"split_indices":[2,2,3,3,3,0,3,0,0,0,0,0,0],"split_type":[0,0,0,0,0,0,0,0,0,0,0,0,0],"sum_hessian":[1.8372966E2,1.7116043E2,1.2569241E1,1.5277172E1,1.5588326E2,1.8488574E0,1.0720384E1,3.7973988E0,1.14797735E1,1.5265503E2,3.2282238E0,5.304362E0,5.416022E0],"tree_param":{"num_deleted":"0","num_feature":"4","num_nodes":"13","size_leaf_vector":"1"}},{"base_weights":[-2.5190727E-3,3.5783216E-1,-1.7308975E-2,-2.9885307E-2,6.0598534E-1,-5.350615E-1,6.7313286E-3,7.1026705E-2,1.751518E-2,-8.203757E-2,2.19184E-2,2.659497E-2,-3.7112273E-3],"categories":[],"categories_nodes":[],"categories_segments":[],"categories_sizes":[],"default_left":[0,0,0,0,0,0,0,0,0,0,0,0,0],"id":30,"left_children":[1,3,5,-1,7,9,11,-1,-1,-1,-1,-1,-1],"loss_changes":[9.902588E-1,1.3748806E0,2.2231033E0,0E0,1.2929869E-1,1.8851786E0,1.9577577E0,0E0,0E0,0E0,0E0,0E0,0E0],"parents":[2147483647,0,0,1,1,2,2,4,4,5,5,6,6],"right_children":[2,4,6,-1,8,10,12,-1,-1,-1,-1,-1,-1],"split_conditions":[3.0384638E1,2.5337269E1,3.3711655E1,-2.9885307E-2,-1.6829296E-4,-2.9618328E0,4.1631382E1,7.1026705E-2,1.751518E-2,-8.203757E-2,2.19184E-2,2.659497E-2,-3.7112273E-3],"split_indices":[1,1,1,0,0,2,1,0,0,0,0,0,0],"split_type":[0,0,0,0,0,0,0,0,0,0,0,0,0],"sum_hessian":[1.8364288E2,6.325667E0,1.7731721E2,1.6787907E0,4.646876E0,6.9246736E0,1.7039253E2,3.2191126E0,1.4277635E0,4.9605365E0,1.9641373E0,2.3917604E1,1.4647493E2],"tree_param":{"num_deleted":"0","num_feature":"4","num_nodes":"13","size_leaf_vector":"1"}},{"base_weights":[-2.1825428E-3,1.6354272E-2,-2.504002E-1,5.2601327E-3,6.4118445E-2,-7.025999E-1,-1.5140851E-3,1.8045629E-3,-6.827369E-2,1.5178785E-2,-1.017602E-1,8.103088E-2,-3.0018985E-2],"categories":[],"categories_nodes":[],"categories_segments":[],"categories_sizes":[],"default_left":[0,0,0,0,0,0,0,0,0,0,0,0,0],"id":31,"left_children":[1,3,5,7,-1,9,11,-1,-1,-1,-1,-1,-1],"loss_changes":[8.525209E-1,1.19252E0,1.447953E0,1.5122567E0,0E0,1.3839786E0,2.4997942E0,0E0,0E0,0E0,0E0,0E0,0E0],"parents":[2147483647,0,0,1,1,2,2,3,3,5,5,6,6],"right_children":[2,4,6,8,-1,10,12,-1,-1,-1,-1,-1,-1],"split_conditions":[6.804602E1,6.691388E1,2.9730127E0,6.601533E1,6.4118445E-2,6.9569886E-1,3.8081224E0,1.8045629E-3,-6.827369E-2,1.5178785E-2,-1.017602E-1,8.103088E-2,-3.0018985E-2],"split_indices":[1,1,2,1,0,2,2,0,0,0,0,0,0],"split_type":[0,0,0,0,0,0,0,0,0,0,0,0,0],"sum_hessian":[1.833937E2,1.7151884E2,1.1874861E1,1.6951741E2,2.001439E0,3.5684276E0,8.306433E0,1.6738063E2,2.1367724E0,1.1008103E0,2.4676173E0,1.7733449E0,6.5330877E0],"tree_param":{"num_deleted":"0","num_feature":"4","num_nodes":"13","size_leaf_vector":"1"}},{"base_weights":[-2.2329863E-3,3.298453E-1,-1.5834475E-2,-2.8232697E-2,5.61545E-1,-4.6131656E-1,8.193195E-3,2.552549E-2,7.5777255E-2,3.297379E-2,-7.2209515E-2,2.649192E-2,-3.3090624E-3],"categories":[],"categories_nodes":[],"categories_segments":[],"categories_sizes":[],"default_left":[0,0,0,0,0,0,0,0,0,0,0,0,0],"id":32,"left_children":[1,3,5,-1,7,9,11,-1,-1,-1,-1,-1,-1],"loss_changes":[8.3766586E-1,1.193619E0,1.9091102E0,0E0,1.4485693E-1,2.1209054E0,1.8092242E0,0E0,0E0,0E0,0E0,0E0,0E0],"parents":[2147483647,0,0,1,1,2,2,4,4,5,5,6,6],"right_children":[2,4,6,-1,8,10,12,-1,-1,-1,-1,-1,-1],"split_conditions":[3.0384638E1,2.5337269E1,3.416164E1,-2.8232697E-2,3.525203E1,2.683671E1,4.1631382E1,2.552549E-2,7.5777255E-2,3.297379E-2,-7.2209515E-2,2.649192E-2,-3.3090624E-3],"split_indices":[1,1,1,0,3,3,1,0,0,0,0,0,0],"split_type":[0,0,0,0,0,0,0,0,0,0,0,0,0],"sum_hessian":[1.8330095E2,6.2975106E0,1.7700345E2,1.6690967E0,4.6284137E0,8.126969E0,1.6887648E2,2.705785E0,1.9226286E0,1.9493401E0,6.1776295E0,2.2644323E1,1.4623215E2],"tree_param":{"num_deleted":"0","num_feature":"4","num_nodes":"13","size_leaf_vector":"1"}},{"base_weights":[-1.7309587E-3,2.2351003E-1,-2.177777E-2,9.7311676E-1,-1.7768808E-1,-7.1158123E-1,1.265786E-2,3.4581713E-2,1.1198614E-1,3.893609E-2,-7.251658E-2,-1.3659447E-2,-1.0118886E-1,3.341716E-2,-1.2804646E-3],"categories":[],"categories_nodes":[],"categories_segments":[],"categories_sizes":[],"default_left":[0,0,0,0,0,0,0,0,0,0,0,0,0,0,0],"id":33,"left_children":[1,3,5,7,9,11,13,-1,-1,-1,-1,-1,-1,-1,-1],"loss_changes":[8.3601224E-1,4.7238517E0,4.045682E0,1.1257362E-1,3.6049085E0,1.2600117E0,1.3373792E0,0E0,0E0,0E0,0E0,0E0,0E0,0E0,0E0],"parents":[2147483647,0,0,1,1,2,2,3,3,4,4,5,5,6,6],"right_children":[2,4,6,8,10,12,14,-1,-1,-1,-1,-1,-1,-1,-1],"split_conditions":[1.1155941E1,3.4989026E-1,1.2656333E1,-1.144503E-3,2.373435E-4,4.6606293E-1,1.4240867E1,3.4581713E-2,1.1198614E-1,3.893609E-2,-7.251658E-2,-1.3659447E-2,-1.0118886E-1,3.341716E-2,-1.2804646E-3],"split_indices":[3,2,3,0,0,2,3,0,0,0,0,0,0,0,0],"split_type":[0,0,0,0,0,0,0,0,0,0,0,0,0,0,0],"sum_hessian":[1.8307037E2,1.4132436E1,1.6893794E2,4.4299326E0,9.702503E0,7.097572E0,1.6184038E2,1.4761828E0,2.95375E0,4.9079323E0,4.794571E0,2.9342768E0,4.163295E0,1.098678E1,1.5085359E2],"tree_param":{"num_deleted":"0","num_feature":"4","num_nodes":"15","size_leaf_vector":"1"}},{"base_weights":[-1.4749767E-3,4.767633E-2,-8.4655724E-2,4.9649462E-1,5.1088333E-3,-5.8982307E-1,-1.9458368E-2,1.8377682E-2,1.3833015E-1,-6.2476456E-2,5.005467E-3,2.3666536E-3,-9.698206E-2,-2.8472288E-2,1.0449382E-2],"categories":[],"categories_nodes":[],"categories_segments":[],"categories_sizes":[],"default_left":[0,0,0,0,0,0,0,0,0,0,0,0,0,0,0],"id":34,"left_children":[1,3,5,7,9,11,13,-1,-1,-1,-1,-1,-1,-1,-1],"loss_changes":[7.5573E-1,2.217637E0,2.2495384E0,2.5346408E0,3.0647693E0,1.8443775E0,2.0629444E0,0E0,0E0,0E0,0E0,0E0,0E0,0E0,0E0],"parents":[2147483647,0,0,1,1,2,2,3,3,4,4,5,5,6,6],"right_children":[2,4,6,8,10,12,14,-1,-1,-1,-1,-1,-1,-1,-1],"split_conditions":[9.5667125E-4,1.1155941E1,1.3856246E-3,5.6243896E1,1.2922036E1,4.921985E1,4.8834755E1,1.8377682E-2,1.3833015E-1,-6.2476456E-2,5.005467E-3,2.3666536E-3,-9.698206E-2,-2.8472288E-2,1.0449382E-2],"split_indices":[0,3,0,1,3,1,1,0,0,0,0,0,0,0,0],"split_type":[0,0,0,0,0,0,0,0,0,0,0,0,0,0,0],"sum_hessian":[1.8285823E2,1.1520859E2,6.764964E1,9.056457E0,1.0615213E2,6.8131013E0,6.0836544E1,7.587932E0,1.4685247E0,6.2109637E0,9.994117E1,2.9646006E0,3.8485005E0,1.8961294E1,4.187525E1],"tree_param":{"num_deleted":"0","num_feature":"4","num_nodes":"15","size_leaf_vector":"1"}},{"base_weights":[-1.4862327E-3,1.6572844E-2,-2.3250113E-1,-2.4025073E-2,1.6171046E-1,-8.3319105E-2,-7.035064E-2,2.304807E-2,-6.8226005E-3,-1.4154269E-2,3.493916E-2,-4.5799848E-2,1.26691405E-2],"categories":[],"categories_nodes":[],"categories_segments":[],"categories_sizes":[],"default_left":[0,0,0,0,0,0,0,0,0,0,0,0,0],"id":35,"left_children":[1,3,5,7,9,-1,11,-1,-1,-1,-1,-1,-1],"loss_changes":[7.701547E-1,1.0132138E0,1.2450445E0,1.5313038E0,2.1878164E0,0E0,9.464752E-1,0E0,0E0,0E0,0E0,0E0,0E0],"parents":[2147483647,0,0,1,1,2,2,3,3,4,4,6,6],"right_children":[2,4,6,8,10,-1,12,-1,-1,-1,-1,-1,-1],"split_conditions":[7.122634E0,2.8757725E1,2.1261755E1,4.0665287E1,3.947289E1,-8.3319105E-2,8.1468115E0,2.304807E-2,-6.8226005E-3,-1.4154269E-2,3.493916E-2,-4.5799848E-2,1.26691405E-2],"split_indices":[2,3,3,1,1,0,2,0,0,0,0,0,0],"split_type":[0,0,0,0,0,0,0,0,0,0,0,0,0],"sum_hessian":[1.8268095E2,1.7029666E2,1.2384303E1,1.3372542E2,3.657123E1,1.7527655E0,1.0631537E1,1.9164312E1,1.1456111E2,1.4074936E1,2.2496296E1,3.1365402E0,7.494997E0],"tree_param":{"num_deleted":"0","num_feature":"4","num_nodes":"13","size_leaf_vector":"1"}},{"base_weights":[-1.8149406E-3,3.1729922E-1,-1.4905221E-2,-2.596404E-2,5.3337944E-1,-6.105574E-1,7.834652E-4,2.3706319E-2,7.260517E-2,-8.041897E-2,-2.5350157E-2,6.050231E-2,-1.1248471E-3],"categories":[],"categories_nodes":[],"categories_segments":[],"categories_sizes":[],"default_left":[0,0,0,0,0,0,0,0,0,0,0,0,0],"id":36,"left_children":[1,3,5,-1,7,9,11,-1,-1,-1,-1,-1,-1],"loss_changes":[7.711875E-1,1.0454068E0,1.6564786E0,0E0,1.4873731E-1,1.1063683E-1,1.2693309E0,0E0,0E0,0E0,0E0,0E0,0E0],"parents":[2147483647,0,0,1,1,2,2,4,4,5,5,6,6],"right_children":[2,4,6,-1,8,10,12,-1,-1,-1,-1,-1,-1],"split_conditions":[3.0384638E1,2.5337269E1,-1.0302562E1,-2.596404E-2,3.525203E1,-1.3866624E-3,-8.202142E0,2.3706319E-2,7.260517E-2,-8.041897E-2,-2.5350157E-2,6.050231E-2,-1.1248471E-3],"split_indices":[1,1,2,0,3,0,2,0,0,0,0,0,0],"split_type":[0,0,0,0,0,0,0,0,0,0,0,0,0],"sum_hessian":[1.8248195E2,6.2748437E0,1.762071E2,1.6548252E0,4.6200185E0,3.5489028E0,1.726582E2,2.6992142E0,1.9208039E0,1.489087E0,2.059816E0,2.408713E0,1.702495E2],"tree_param":{"num_deleted":"0","num_feature":"4","num_nodes":"13","size_leaf_vector":"1"}},{"base_weights":[-1.525272E-3,-2.0892066E-1,1.8057236E-2,3.312627E-1,-4.096851E-1,7.640038E-1,7.8684516E-4,6.349834E-2,-1.8087998E-2,1.2835843E-2,-7.870793E-2,1.5980222E-3,1.2937899E-1,2.445159E-2,-4.060685E-3],"categories":[],"categories_nodes":[],"categories_segments":[],"categories_sizes":[],"default_left":[0,0,0,0,0,0,0,0,0,0,0,0,0,0,0],"id":37,"left_children":[1,3,5,7,9,11,13,-1,-1,-1,-1,-1,-1,-1,-1],"loss_changes":[7.485018E-1,1.8600504E0,2.1697786E0,8.709909E-1,2.5455604E0,1.4896774E0,1.6812477E0,0E0,0E0,0E0,0E0,0E0,0E0,0E0,0E0],"parents":[2147483647,0,0,1,1,2,2,3,3,4,4,5,5,6,6],"right_children":[2,4,6,8,10,12,14,-1,-1,-1,-1,-1,-1,-1,-1],"split_conditions":[-6.859629E0,2.637493E1,-6.381446E0,-7.681847E0,3.0384638E1,4.4517426E1,4.1631382E1,6.349834E-2,-1.8087998E-2,1.2835843E-2,-7.870793E-2,1.5980222E-3,1.2937899E-1,2.445159E-2,-4.060685E-3],"split_indices":[2,3,2,2,1,1,1,0,0,0,0,0,0,0,0],"split_type":[0,0,0,0,0,0,0,0,0,0,0,0,0,0,0],"sum_hessian":[1.8237114E2,1.4899893E1,1.6747125E2,3.8610957E0,1.1038797E1,2.8112066E0,1.6466005E2,2.273164E0,1.5879318E0,4.8228445E0,6.2159524E0,1.5926505E0,1.218556E0,2.3192698E1,1.4146735E2],"tree_param":{"num_deleted":"0","num_feature":"4","num_nodes":"15","size_leaf_vector":"1"}},{"base_weights":[-7.206163E-4,1.2841724E-2,-2.8148168E-1,3.1219446E-3,7.25886E-2,-9.452542E-2,5.044496E-2,1.5328613E-3,-5.5647135E-2,7.7061735E-2,-4.5457974E-2],"categories":[],"categories_nodes":[],"categories_segments":[],"categories_sizes":[],"default_left":[0,0,0,0,0,0,0,0,0,0,0],"id":38,"left_children":[1,3,5,7,-1,-1,9,-1,-1,-1,-1],"loss_changes":[7.005302E-1,1.2143849E0,1.9154421E0,1.1983846E0,0E0,0E0,2.7510011E0,0E0,0E0,0E0,0E0],"parents":[2147483647,0,0,1,1,2,2,3,3,6,6],"right_children":[2,4,6,8,-1,-1,10,-1,-1,-1,-1],"split_conditions":[8.55332E0,8.1468115E0,5.633567E1,7.2349687E0,7.25886E-2,-9.452542E-2,6.579468E1,1.5328613E-3,-5.5647135E-2,7.7061735E-2,-4.5457974E-2],"split_indices":[2,2,1,2,0,0,1,0,0,0,0],"split_type":[0,0,0,0,0,0,0,0,0,0,0],"sum_hessian":[1.8202423E2,1.745469E2,7.477337E0,1.7319046E2,1.3564471E0,1.8766711E0,5.6006656E0,1.7044507E2,2.7453895E0,2.091812E0,3.508854E0],"tree_param":{"num_deleted":"0","num_feature":"4","num_nodes":"11","size_leaf_vector":"1"}},{"base_weights":[-9.3652855E-4,-1.3959896E-2,2.8713167E-1,7.20995E-3,-4.3656534E-1,-4.9528906E-1,7.1932524E-1,-6.239768E-4,7.202628E-2,3.9226864E-2,-7.267023E-2,-8.689181E-2,1.5597793E-2,3.3410122E-3,8.912029E-2],"categories":[],"categories_nodes":[],"categories_segments":[],"categories_sizes":[],"default_left":[0,0,0,0,0,0,0,0,0,0,0,0,0,0,0],"id":39,"left_children":[1,3,5,7,9,11,13,-1,-1,-1,-1,-1,-1,-1,-1],"loss_changes":[6.9031113E-1,1.5775168E0,3.0476718E0,1.6210947E0,2.307703E0,9.6876585E-1,6.227355E-1,0E0,0E0,0E0,0E0,0E0,0E0,0E0,0E0],"parents":[2147483647,0,0,1,1,2,2,3,3,4,4,5,5,6,6],"right_children":[2,4,6,8,10,12,14,-1,-1,-1,-1,-1,-1,-1,-1],"split_conditions":[8.554959E-3,3.8971622E1,2.5958403E1,3.8045387E1,3.5277557E1,2.2683144E0,4.3633157E-1,-6.239768E-4,7.202628E-2,3.9226864E-2,-7.267023E-2,-8.689181E-2,1.5597793E-2,3.3410122E-3,8.912029E-2],"split_indices":[0,3,3,3,1,2,2,0,0,0,0,0,0,0,0],"split_type":[0,0,0,0,0,0,0,0,0,0,0,0,0,0,0],"sum_hessian":[1.8193515E2,1.7497614E2,6.959013E0,1.6756512E2,7.411009E0,2.4242637E0,4.534749E0,1.654359E2,2.1292293E0,1.8303206E0,5.580688E0,1.3281268E0,1.0961369E0,1.1479574E0,3.3867917E0],"tree_param":{"num_deleted":"0","num_feature":"4","num_nodes":"15","size_leaf_vector":"1"}},{"base_weights":[-5.810171E-4,3.2657456E-2,-1.127203E-1,-2.382197E-2,1.831655E-1,-9.96523E-2,-1.2198002E-2,1.1203229E-2,-3.6677714E-2,3.0942092E-2,-2.9966054E-2,1.9560972E-2,-2.439872E-2],"categories":[],"categories_nodes":[],"categories_segments":[],"categories_sizes":[],"default_left":[0,0,0,0,0,0,0,0,0,0,0,0,0],"id":40,"left_children":[1,3,5,7,9,-1,11,-1,-1,-1,-1,-1,-1],"loss_changes":[6.8494767E-1,1.2094266E0,3.7204084E0,4.8850284E0,2.4577525E0,0E0,1.9135169E0,0E0,0E0,0E0,0E0,0E0,0E0],"parents":[2147483647,0,0,1,1,2,2,3,3,4,4,6,6],"right_children":[2,4,6,8,10,-1,12,-1,-1,-1,-1,-1,-1],"split_conditions":[2.19366E-3,5.6151436E1,2.5070203E-3,5.062347E1,6.601533E1,-9.96523E-2,2.6457106E1,1.1203229E-2,-3.6677714E-2,3.0942092E-2,-2.9966054E-2,1.9560972E-2,-2.439872E-2],"split_indices":[0,1,0,1,1,0,3,0,0,0,0,0,0],"split_type":[0,0,0,0,0,0,0,0,0,0,0,0,0],"sum_hessian":[1.8177557E2,1.40762E2,4.1013565E1,1.0296517E2,3.7796833E1,3.2781627E0,3.77354E1,7.423279E1,2.873238E1,3.0246695E1,7.5501385E0,1.9979298E1,1.7756104E1],"tree_param":{"num_deleted":"0","num_feature":"4","num_nodes":"13","size_leaf_vector":"1"}},{"base_weights":[-1.3517623E-3,-9.01267E-2,4.62545E-2,3.862941E-2,-6.4341176E-1,1.0943575E-1,1.1935309E-2,-5.3455736E-3,5.2970495E-2,2.6727641E-2,-8.189243E-2,1.02201425E-1,-1.975456E-3],"categories":[],"categories_nodes":[],"categories_segments":[],"categories_sizes":[],"default_left":[0,0,0,0,0,0,0,0,0,0,0,0,0],"id":41,"left_children":[1,3,5,7,9,-1,11,-1,-1,-1,-1,-1,-1],"loss_changes":[7.757017E-1,4.5887074E0,4.285126E0,2.421101E0,2.1610126E0,0E0,3.7561798E0,0E0,0E0,0E0,0E0,0E0,0E0],"parents":[2147483647,0,0,1,1,2,2,3,3,4,4,6,6],"right_children":[2,4,6,8,10,-1,12,-1,-1,-1,-1,-1,-1],"split_conditions":[4.6320045E1,4.4299843E1,4.672546E1,1.8132613E0,1.2898443E1,1.0943575E-1,-6.381446E0,-5.3455736E-3,5.2970495E-2,2.6727641E-2,-8.189243E-2,1.02201425E-1,-1.975456E-3],"split_indices":[1,1,1,2,3,0,2,0,0,0,0,0,0],"split_type":[0,0,0,0,0,0,0,0,0,0,0,0,0],"sum_hessian":[1.8155765E2,6.306412E1,1.1849352E2,5.1913425E1,1.1150699E1,2.777626E0,1.157159E2,4.446636E1,7.447065E0,1.7172921E0,9.433407E0,2.5693772E0,1.1314652E2],"tree_param":{"num_deleted":"0","num_feature":"4","num_nodes":"13","size_leaf_vector":"1"}},{"base_weights":[-2.1213696E-4,-1.9694264E-1,1.9032946E-2,-3.230634E-1,6.63559E-2,8.595852E-2,2.786707E-3,1.4891021E-3,-1.1447661E-1,1.2725339E-3,-7.821942E-2],"categories":[],"categories_nodes":[],"categories_segments":[],"categories_sizes":[],"default_left":[0,0,0,0,0,0,0,0,0,0,0],"id":42,"left_children":[1,3,5,7,-1,-1,9,-1,-1,-1,-1],"loss_changes":[6.938376E-1,1.9865899E0,2.2773015E0,4.158869E0,0E0,0E0,1.2954875E0,0E0,0E0,0E0,0E0],"parents":[2147483647,0,0,1,1,2,2,3,3,6,6],"right_children":[2,4,6,8,-1,-1,10,-1,-1,-1,-1],"split_conditions":[-6.743364E0,4.8738E1,-6.381446E0,-8.202142E0,6.63559E-2,8.595852E-2,4.2921513E1,1.4891021E-3,-1.1447661E-1,1.2725339E-3,-7.821942E-2],"split_indices":[2,1,2,2,0,0,3,0,0,0,0],"split_type":[0,0,0,0,0,0,0,0,0,0,0],"sum_hessian":[1.812694E2,1.5329729E1,1.6593967E2,1.3914843E1,1.4148868E0,2.1621847E0,1.6377748E2,1.0555426E1,3.3594162E0,1.6270131E2,1.0761698E0],"tree_param":{"num_deleted":"0","num_feature":"4","num_nodes":"11","size_leaf_vector":"1"}},{"base_weights":[-4.52808E-4,7.670149E-2,-4.774504E-2,-9.296946E-2,4.0440273E-1,-9.49023E-2,-2.800865E-2,-4.4428173E-2,2.85478E-4,8.2338944E-2,9.331826E-4,-6.503789E-3,3.765531E-2],"categories":[],"categories_nodes":[],"categories_segments":[],"categories_sizes":[],"default_left":[0,0,0,0,0,0,0,0,0,0,0,0,0],"id":43,"left_children":[1,3,5,7,9,-1,11,-1,-1,-1,-1,-1,-1],"loss_changes":[6.6834754E-1,3.9080255E0,1.9933368E0,1.5726095E0,3.954001E0,0E0,1.7046003E0,0E0,0E0,0E0,0E0,0E0,0E0],"parents":[2147483647,0,0,1,1,2,2,3,3,4,4,6,6],"right_children":[2,4,6,8,10,-1,12,-1,-1,-1,-1,-1,-1],"split_conditions":[-8.363131E-1,-2.1527262E0,-7.353157E-1,2.0029573E1,1.8926384E1,-9.49023E-2,7.166098E-3,-4.4428173E-2,2.85478E-4,8.2338944E-2,9.331826E-4,-6.503789E-3,3.765531E-2],"split_indices":[2,2,2,3,3,0,0,0,0,0,0,0,0],"split_type":[0,0,0,0,0,0,0,0,0,0,0,0,0],"sum_hessian":[1.8116553E2,6.861029E1,1.1255523E2,4.5676876E1,2.2933413E1,1.4029615E0,1.11152275E2,9.009541E0,3.6667336E1,1.0603679E1,1.2329734E1,1.02600555E2,8.551716E0],"tree_param":{"num_deleted":"0","num_feature":"4","num_nodes":"13","size_leaf_vector":"1"}},{"base_weights":[-5.985994E-4,2.0371124E-1,-1.8813942E-2,8.921307E-1,-1.6899137E-1,-6.3343245E-1,1.1025976E-2,1.1638305E-1,4.5406252E-2,2.3035705E-2,-8.2528315E-2,-1.0785079E-1,-1.9878395E-2,3.127829E-2,-1.3110689E-3],"categories":[],"categories_nodes":[],"categories_segments":[],"categories_sizes":[],"default_left":[0,0,0,0,0,0,0,0,0,0,0,0,0,0,0],"id":44,"left_children":[1,3,5,7,9,11,13,-1,-1,-1,-1,-1,-1,-1,-1],"loss_changes":[6.810614E-1,3.994383E0,3.088009E0,1.1676121E-1,2.957651E0,1.2936769E0,1.178169E0,0E0,0E0,0E0,0E0,0E0,0E0,0E0,0E0],"parents":[2147483647,0,0,1,1,2,2,3,3,4,4,5,5,6,6],"right_children":[2,4,6,8,10,12,14,-1,-1,-1,-1,-1,-1,-1,-1],"split_conditions":[1.1155941E1,3.4989026E-1,1.2656333E1,-1.3505557E-1,7.9690793E-4,5.014313E1,1.4240867E1,1.1638305E-1,4.5406252E-2,2.3035705E-2,-8.2528315E-2,-1.0785079E-1,-1.9878395E-2,3.127829E-2,-1.3110689E-3],"split_indices":[3,2,3,2,0,1,3,0,0,0,0,0,0,0,0],"split_type":[0,0,0,0,0,0,0,0,0,0,0,0,0,0,0],"sum_hessian":[1.8097375E2,1.3980454E1,1.669933E2,4.420909E0,9.5595455E0,6.795588E0,1.6019771E2,1.706046E0,2.7148628E0,6.3466563E0,3.212889E0,2.6256335E0,4.1699543E0,1.0979021E1,1.4921869E2],"tree_param":{"num_deleted":"0","num_feature":"4","num_nodes":"15","size_leaf_vector":"1"}},{"base_weights":[-5.735327E-4,4.5125365E-2,-7.809597E-2,-1.2015287E-2,3.8415962E-1,-4.7935045E-1,-3.0331465E-3,3.0501108E-3,-6.1725315E-2,7.130072E-2,-3.3899798E-4,1.973326E-2,-8.340363E-2,4.1298386E-2,-1.4271517E-2],"categories":[],"categories_nodes":[],"categories_segments":[],"categories_sizes":[],"default_left":[0,0,0,0,0,0,0,0,0,0,0,0,0,0,0],"id":45,"left_children":[1,3,5,7,9,11,13,-1,-1,-1,-1,-1,-1,-1,-1],"loss_changes":[6.473888E-1,2.2319858E0,2.0397167E0,2.5756564E0,2.1196926E0,2.726311E0,3.4349089E0,0E0,0E0,0E0,0E0,0E0,0E0,0E0,0E0],"parents":[2147483647,0,0,1,1,2,2,3,3,4,4,5,5,6,6],"right_children":[2,4,6,8,10,12,14,-1,-1,-1,-1,-1,-1,-1,-1],"split_conditions":[9.5667125E-4,3.0649174E-4,1.3884969E1,1.04021434E-4,5.360839E1,2.4501537E-1,1.9208548E1,3.0501108E-3,-6.1725315E-2,7.130072E-2,-3.3899798E-4,1.973326E-2,-8.340363E-2,4.1298386E-2,-1.4271517E-2],"split_indices":[0,0,3,0,1,2,3,0,0,0,0,0,0,0,0],"split_type":[0,0,0,0,0,0,0,0,0,0,0,0,0,0,0],"sum_hessian":[1.8074457E2,1.13975044E2,6.676953E1,9.836176E1,1.5613279E1,9.67343E0,5.70961E1,9.279291E1,5.568857E0,7.9920225E0,7.621257E0,3.479242E0,6.194188E0,1.3860015E1,4.3236084E1],"tree_param":{"num_deleted":"0","num_feature":"4","num_nodes":"15","size_leaf_vector":"1"}},{"base_weights":[-7.6193566E-4,2.0897488E-1,-1.9158196E-2,8.307757E-1,-1.3597608E-1,-5.9903497E-1,8.478448E-3,1.09370075E-1,4.1762803E-2,3.116156E-2,-6.048895E-2,-1.0362258E-1,-1.8107869E-2,2.8830206E-2,-1.3966289E-3],"categories":[],"categories_nodes":[],"categories_segments":[],"categories_sizes":[],"default_left":[0,0,0,0,0,0,0,0,0,0,0,0,0,0,0],"id":46,"left_children":[1,3,5,7,9,11,13,-1,-1,-1,-1,-1,-1,-1,-1],"loss_changes":[7.046489E-1,3.271804E0,2.6952372E0,1.2933803E-1,2.356916E0,1.2102776E0,1.0165381E0,0E0,0E0,0E0,0E0,0E0,0E0,0E0,0E0],"parents":[2147483647,0,0,1,1,2,2,3,3,4,4,5,5,6,6],"right_children":[2,4,6,8,10,12,14,-1,-1,-1,-1,-1,-1,-1,-1],"split_conditions":[1.1155941E1,3.4989026E-1,1.2656333E1,-1.3505557E-1,2.373435E-4,5.014313E1,1.4240867E1,1.09370075E-1,4.1762803E-2,3.116156E-2,-6.048895E-2,-1.0362258E-1,-1.8107869E-2,2.8830206E-2,-1.3966289E-3],"split_indices":[3,2,3,2,0,1,3,0,0,0,0,0,0,0,0],"split_type":[0,0,0,0,0,0,0,0,0,0,0,0,0,0,0],"sum_hessian":[1.8059087E2,1.3727155E1,1.6686372E2,4.3955135E0,9.331641E0,6.650314E0,1.6021341E2,1.6794684E0,2.7160451E0,4.9459953E0,4.385646E0,2.527367E0,4.1229467E0,1.1017E1,1.4919641E2],"tree_param":{"num_deleted":"0","num_feature":"4","num_nodes":"15","size_leaf_vector":"1"}},{"base_weights":[-5.8131403E-4,-8.219027E-2,4.3015093E-2,3.926935E-2,-6.17642E-1,9.7646564E-2,1.205878E-2,-4.588476E-3,4.8959248E-2,-1.9322559E-3,-8.619212E-2,8.989126E-2,-1.6345866E-3],"categories":[],"categories_nodes":[],"categories_segments":[],"categories_sizes":[],"default_left":[0,0,0,0,0,0,0,0,0,0,0,0,0],"id":47,"left_children":[1,3,5,7,9,-1,11,-1,-1,-1,-1,-1,-1],"loss_changes":[6.487125E-1,4.153085E0,3.4226277E0,2.0428693E0,1.7076969E0,0E0,2.9380968E0,0E0,0E0,0E0,0E0,0E0,0E0],"parents":[2147483647,0,0,1,1,2,2,3,3,4,4,6,6],"right_children":[2,4,6,8,10,-1,12,-1,-1,-1,-1,-1,-1],"split_conditions":[4.6320045E1,4.4299843E1,4.672546E1,1.8132613E0,1.6587927E1,9.7646564E-2,-6.381446E0,-4.588476E-3,4.8959248E-2,-1.9322559E-3,-8.619212E-2,8.989126E-2,-1.6345866E-3],"split_indices":[1,1,1,2,3,0,2,0,0,0,0,0,0],"split_type":[0,0,0,0,0,0,0,0,0,0,0,0,0],"sum_hessian":[1.8033867E2,6.248554E1,1.17853134E2,5.1687603E1,1.0797936E1,2.8025405E0,1.1505059E2,4.422328E1,7.46432E0,3.4432926E0,7.354644E0,2.6194386E0,1.1243115E2],"tree_param":{"num_deleted":"0","num_feature":"4","num_nodes":"13","size_leaf_vector":"1"}},{"base_weights":[1.7694409E-4,1.9974077E-1,-1.721423E-2,7.824682E-1,-1.2534267E-1,-4.0951753E-1,2.041109E-2,2.4529278E-2,9.161507E-2,2.0406542E-2,-7.171739E-2,6.931504E-2,-5.786177E-2,1.00369595E-1,-1.1739262E-3],"categories":[],"categories_nodes":[],"categories_segments":[],"categories_sizes":[],"default_left":[0,0,0,0,0,0,0,0,0,0,0,0,0,0,0],"id":48,"left_children":[1,3,5,7,9,11,13,-1,-1,-1,-1,-1,-1,-1,-1],"loss_changes":[6.3175064E-1,2.8621683E0,2.4799328E0,1.6040683E-1,2.1403596E0,3.1423204E0,4.8720617E0,0E0,0E0,0E0,0E0,0E0,0E0,0E0,0E0],"parents":[2147483647,0,0,1,1,2,2,3,3,4,4,5,5,6,6],"right_children":[2,4,6,8,10,12,14,-1,-1,-1,-1,-1,-1,-1,-1],"split_conditions":[1.1155941E1,3.4989026E-1,1.3846005E1,-1.144503E-3,7.9690793E-4,-2.7450984E-3,1.4240867E1,2.4529278E-2,9.161507E-2,2.0406542E-2,-7.171739E-2,6.931504E-2,-5.786177E-2,1.00369595E-1,-1.1739262E-3],"split_indices":[3,2,3,0,0,0,3,0,0,0,0,0,0,0,0],"split_type":[0,0,0,0,0,0,0,0,0,0,0,0,0,0,0],"sum_hessian":[1.8003595E2,1.3591237E1,1.6644472E2,4.363135E0,9.228103E0,1.3701447E1,1.5274327E2,1.4343576E0,2.9287772E0,6.349322E0,2.8787808E0,1.4097437E0,1.2291702E1,3.8793263E0,1.4886395E2],"tree_param":{"num_deleted":"0","num_feature":"4","num_nodes":"15","size_leaf_vector":"1"}},{"base_weights":[1.0614318E-3,-5.6359366E-2,6.1923407E-2,-2.1071432E-2,-9.470854E-2,5.524724E-1,-3.661343E-3,3.5232708E-2,-9.398814E-3,1.5656173E-1,4.957279E-3,-2.5092185E-2,1.3061414E-2],"categories":[],"categories_nodes":[],"categories_segments":[],"categories_sizes":[],"default_left":[0,0,0,0,0,0,0,0,0,0,0,0,0],"id":49,"left_children":[1,3,5,7,-1,9,11,-1,-1,-1,-1,-1,-1],"loss_changes":[6.349425E-1,2.9187691E0,2.8393621E0,2.5095444E0,0E0,5.224846E0,2.6484954E0,0E0,0E0,0E0,0E0,0E0,0E0],"parents":[2147483647,0,0,1,1,2,2,3,3,5,5,6,6],"right_children":[2,4,6,8,-1,10,12,-1,-1,-1,-1,-1,-1],"split_conditions":[2.3138083E1,2.2489832E1,2.443558E1,-2.166636E-3,-9.470854E-2,-1.0852757E-3,-1.9708916E-3,3.5232708E-2,-9.398814E-3,1.5656173E-1,4.957279E-3,-2.5092185E-2,1.3061414E-2],"split_indices":[3,3,3,0,0,0,0,0,0,0,0,0,0],"split_type":[0,0,0,0,0,0,0,0,0,0,0,0,0],"sum_hessian":[1.7968639E2,9.2495056E1,8.719134E1,8.9954956E1,2.5400932E0,9.406971E0,7.778436E1,1.4070345E1,7.588461E1,2.4194834E0,6.987488E0,2.7069233E1,5.0715134E1],"tree_param":{"num_deleted":"0","num_feature":"4","num_nodes":"13","size_leaf_vector":"1"}},{"base_weights":[1.3544158E-3,-1.8302138E-1,1.9389937E-2,-2.9583398E-1,5.718386E-2,7.834797E-2,4.4934996E-3,1.7540362E-3,-1.0878694E-1,1.3953293E-3,-7.49404E-2],"categories":[],"categories_nodes":[],"categories_segments":[],"categories_sizes":[],"default_left":[0,0,0,0,0,0,0,0,0,0,0],"id":50,"left_children":[1,3,5,7,-1,-1,9,-1,-1,-1,-1],"loss_changes":[6.041424E-1,1.547786E0,1.879367E0,3.678391E0,0E0,0E0,1.1748232E0,0E0,0E0,0E0,0E0],"parents":[2147483647,0,0,1,1,2,2,3,3,6,6],"right_children":[2,4,6,8,-1,-1,10,-1,-1,-1,-1],"split_conditions":[-6.743364E0,4.8738E1,-6.381446E0,-8.202142E0,5.718386E-2,7.834797E-2,4.2921513E1,1.7540362E-3,-1.0878694E-1,1.3953293E-3,-7.49404E-2],"split_indices":[2,1,2,2,0,0,3,0,0,0,0],"split_type":[0,0,0,0,0,0,0,0,0,0,0],"sum_hessian":[1.7961263E2,1.5188979E1,1.6442365E2,1.3743177E1,1.4458013E0,2.157603E0,1.6226604E2,1.0547743E1,3.1954343E0,1.6122452E2,1.0415294E0],"tree_param":{"num_deleted":"0","num_feature":"4","num_nodes":"11","size_leaf_vector":"1"}},{"base_weights":[9.195858E-4,-2.660124E-2,1.1888889E-1,2.7385692E-4,-7.190379E-1,3.317251E-1,-1.5543805E-1,-3.0912566E-3,5.6014925E-2,-1.11365356E-1,-1.9692136E-2,-6.216029E-2,4.9633067E-2,-5.7923313E-2,3.857834E-2],"categories":[],"categories_nodes":[],"categories_segments":[],"categories_sizes":[],"default_left":[0,0,0,0,0,0,0,0,0,0,0,0,0,0,0],"id":51,"left_children":[1,3,5,7,9,11,13,-1,-1,-1,-1,-1,-1,-1,-1],"loss_changes":[5.8915365E-1,2.7388957E0,2.0556746E0,2.5083952E0,9.136691E-1,3.3917053E0,3.8192582E0,0E0,0E0,0E0,0E0,0E0,0E0,0E0,0E0],"parents":[2147483647,0,0,1,1,2,2,3,3,4,4,5,5,6,6],"right_children":[2,4,6,8,10,12,14,-1,-1,-1,-1,-1,-1,-1,-1],"split_conditions":[3.1450031E1,3.0155273E1,6.71168E-4,2.8757725E1,-1.6213614E-3,-1.191222E-2,5.1495726E-3,-3.0912566E-3,5.6014925E-2,-1.11365356E-1,-1.9692136E-2,-6.216029E-2,4.9633067E-2,-5.7923313E-2,3.857834E-2],"split_indices":[3,3,0,3,0,0,0,0,0,0,0,0,0,0,0],"split_type":[0,0,0,0,0,0,0,0,0,0,0,0,0,0,0],"sum_hessian":[1.7949306E2,1.4616826E2,3.33248E1,1.4166934E2,4.498916E0,1.864774E1,1.4677059E1,1.3508932E2,6.580017E0,1.9170502E0,2.581866E0,2.3369231E0,1.6310816E1,8.192116E0,6.484943E0],"tree_param":{"num_deleted":"0","num_feature":"4","num_nodes":"15","size_leaf_vector":"1"}},{"base_weights":[1.4569188E-4,1.2787784E-2,-2.650346E-1,3.5650767E-3,6.746634E-2,-9.133411E-2,5.7118725E-2,1.5355562E-3,-5.3847414E-2,3.0921588E-2,-3.114225E-2],"categories":[],"categories_nodes":[],"categories_segments":[],"categories_sizes":[],"default_left":[0,0,0,0,0,0,0,0,0,0,0],"id":52,"left_children":[1,3,5,7,-1,-1,9,-1,-1,-1,-1],"loss_changes":[6.0816294E-1,1.0545121E0,1.7762425E0,1.1060302E0,0E0,0E0,6.960901E-1,0E0,0E0,0E0,0E0],"parents":[2147483647,0,0,1,1,2,2,3,3,6,6],"right_children":[2,4,6,8,-1,-1,10,-1,-1,-1,-1],"split_conditions":[8.55332E0,8.1468115E0,9.531108E0,7.2349687E0,6.746634E-2,-9.133411E-2,6.743005E1,1.5355562E-3,-5.3847414E-2,3.0921588E-2,-3.114225E-2],"split_indices":[2,2,2,2,0,0,1,0,0,0,0],"split_type":[0,0,0,0,0,0,0,0,0,0,0],"sum_hessian":[1.7939842E2,1.7214351E2,7.2549195E0,1.7076936E2,1.3741481E0,1.799156E0,5.455764E0,1.6808484E2,2.6845253E0,3.335274E0,2.1204896E0],"tree_param":{"num_deleted":"0","num_feature":"4","num_nodes":"11","size_leaf_vector":"1"}},{"base_weights":[-3.2578234E-4,1.9239941E-1,-1.7012684E-2,7.330318E-1,-1.1205182E-1,-3.7098783E-1,1.6433809E-2,1.0079651E-1,3.409379E-2,-4.3470446E-2,4.3943934E-2,6.23975E-2,-5.289501E-2,9.2275545E-2,-1.3449503E-3],"categories":[],"categories_nodes":[],"categories_segments":[],"categories_sizes":[],"default_left":[0,0,0,0,0,0,0,0,0,0,0,0,0,0,0],"id":53,"left_children":[1,3,5,7,9,11,13,-1,-1,-1,-1,-1,-1,-1,-1],"loss_changes":[5.8323133E-1,2.4607542E0,1.9818833E0,2.3186922E-1,1.9904294E0,2.6010687E0,4.1680284E0,0E0,0E0,0E0,0E0,0E0,0E0,0E0,0E0],"parents":[2147483647,0,0,1,1,2,2,3,3,4,4,5,5,6,6],"right_children":[2,4,6,8,10,12,14,-1,-1,-1,-1,-1,-1,-1,-1],"split_conditions":[1.1155941E1,3.4989026E-1,1.3846005E1,-1.3505557E-1,5.6243896E1,-2.7450984E-3,1.4240867E1,1.0079651E-1,3.409379E-2,-4.3470446E-2,4.3943934E-2,6.23975E-2,-5.289501E-2,9.2275545E-2,-1.3449503E-3],"split_indices":[3,2,3,2,1,0,3,0,0,0,0,0,0,0,0],"split_type":[0,0,0,0,0,0,0,0,0,0,0,0,0,0,0],"sum_hessian":[1.7933598E2,1.3451225E1,1.6588477E2,4.338815E0,9.112411E0,1.3449745E1,1.5243501E2,1.6271478E0,2.7116675E0,5.8825564E0,3.2298536E0,1.4385494E0,1.2011196E1,3.9119546E0,1.4852306E2],"tree_param":{"num_deleted":"0","num_feature":"4","num_nodes":"15","size_leaf_vector":"1"}},{"base_weights":[9.74926E-4,-7.595395E-2,4.19345E-2,3.8858183E-2,-5.9417E-1,3.3320463E-1,-4.1940276E-2,-4.269163E-3,4.687894E-2,1.4620562E-2,-7.359556E-2,1.7792234E-2,1.4135171E-1,-3.0930078E-2,7.5759636E-3],"categories":[],"categories_nodes":[],"categories_segments":[],"categories_sizes":[],"default_left":[0,0,0,0,0,0,0,0,0,0,0,0,0,0,0],"id":54,"left_children":[1,3,5,7,9,11,13,-1,-1,-1,-1,-1,-1,-1,-1],"loss_changes":[5.704595E-1,3.765865E0,2.8997931E0,1.8584533E0,1.3117347E0,4.197684E0,2.937487E0,0E0,0E0,0E0,0E0,0E0,0E0,0E0,0E0],"parents":[2147483647,0,0,1,1,2,2,3,3,4,4,5,5,6,6],"right_children":[2,4,6,8,10,12,14,-1,-1,-1,-1,-1,-1,-1,-1],"split_conditions":[4.6320045E1,4.4299843E1,5.062347E1,1.8132613E0,1.2898443E1,5.025129E1,-9.3091006E-4,-4.269163E-3,4.687894E-2,1.4620562E-2,-7.359556E-2,1.7792234E-2,1.4135171E-1,-3.0930078E-2,7.5759636E-3],"split_indices":[1,1,1,2,3,1,0,0,0,0,0,0,0,0,0],"split_type":[0,0,0,0,0,0,0,0,0,0,0,0,0,0,0],"sum_hessian":[1.7903143E2,6.1906464E1,1.1712498E2,5.1435753E1,1.0470712E1,2.552214E1,9.160284E1,4.3992004E1,7.4437485E0,1.677898E0,8.792813E0,2.333299E1,2.1891494E0,2.7502295E1,6.410054E1],"tree_param":{"num_deleted":"0","num_feature":"4","num_nodes":"15","size_leaf_vector":"1"}},{"base_weights":[1.4588481E-3,1.8712688E-2,-1.774013E-1,-3.6935654E-2,1.11998565E-1,-8.3339736E-2,-3.4261618E-2,1.4524515E-3,-5.717675E-2,7.251363E-2,1.87191E-3,2.2272551E-2,-3.329171E-2],"categories":[],"categories_nodes":[],"categories_segments":[],"categories_sizes":[],"default_left":[0,0,0,0,0,0,0,0,0,0,0,0,0],"id":55,"left_children":[1,3,5,7,9,-1,11,-1,-1,-1,-1,-1,-1],"loss_changes":[5.579208E-1,8.596856E-1,1.4650414E0,2.8701022E0,3.5225224E0,0E0,1.1563436E0,0E0,0E0,0E0,0E0,0E0,0E0],"parents":[2147483647,0,0,1,1,2,2,3,3,4,4,6,6],"right_children":[2,4,6,8,10,-1,12,-1,-1,-1,-1,-1,-1],"split_conditions":[6.4626336E0,8.893761E-1,2.1261755E1,5.379156E-1,4.45661E1,-8.3339736E-2,9.5667125E-4,1.4524515E-3,-5.717675E-2,7.251363E-2,1.87191E-3,2.2272551E-2,-3.329171E-2],"split_indices":[2,2,3,2,1,0,0,0,0,0,0,0,0],"split_type":[0,0,0,0,0,0,0,0,0,0,0,0,0],"sum_hessian":[1.7871378E2,1.6380739E2,1.490639E1,1.0298014E2,6.082725E1,1.8062493E0,1.3100141E1,9.48288E1,8.151343E0,7.1375337E0,5.368972E1,7.1779213E0,5.9222198E0],"tree_param":{"num_deleted":"0","num_feature":"4","num_nodes":"13","size_leaf_vector":"1"}},{"base_weights":[8.472608E-4,-7.5289585E-2,4.119079E-2,2.7826115E-2,-5.527221E-1,8.8387114E-1,1.289613E-2,-2.3052936E-2,1.2308419E-2,-1.0286083E-1,-2.5599515E-2,1.09238856E-1,2.9081497E-2,7.76814E-2,-1.1902063E-3],"categories":[],"categories_nodes":[],"categories_segments":[],"categories_sizes":[],"default_left":[0,0,0,0,0,0,0,0,0,0,0,0,0,0,0],"id":56,"left_children":[1,3,5,7,9,11,13,-1,-1,-1,-1,-1,-1,-1,-1],"loss_changes":[5.5449504E-1,3.0937033E0,2.8017225E0,1.3173296E0,1.3117309E0,1.5446377E-1,2.1909146E0,0E0,0E0,0E0,0E0,0E0,0E0,0E0,0E0],"parents":[2147483647,0,0,1,1,2,2,3,3,4,4,5,5,6,6],"right_children":[2,4,6,8,10,12,14,-1,-1,-1,-1,-1,-1,-1,-1],"split_conditions":[4.6320045E1,4.4299843E1,4.672546E1,-6.4904275E0,-1.4175661E0,1.9208548E1,-6.381446E0,-2.3052936E-2,1.2308419E-2,-1.0286083E-1,-2.5599515E-2,1.09238856E-1,2.9081497E-2,7.76814E-2,-1.1902063E-3],"split_indices":[1,1,1,2,2,3,2,0,0,0,0,0,0,0,0],"split_type":[0,0,0,0,0,0,0,0,0,0,0,0,0,0,0],"sum_hessian":[1.7851187E2,6.152841E1,1.1698346E2,5.137432E1,1.015409E1,2.8180263E0,1.1416543E2,1.3456916E1,3.7917408E1,2.952462E0,7.201628E0,1.4620187E0,1.3560075E0,2.6360314E0,1.11529396E2],"tree_param":{"num_deleted":"0","num_feature":"4","num_nodes":"15","size_leaf_vector":"1"}},{"base_weights":[1.1368002E-3,2.8329414E-1,-1.0635159E-2,-2.527E-2,4.8714525E-1,-4.3632472E-1,8.42308E-3,1.9553978E-2,6.882745E-2,-1.21532865E-2,-1.03927866E-1,-3.6771193E-3,1.3803201E-2],"categories":[],"categories_nodes":[],"categories_segments":[],"categories_sizes":[],"default_left":[0,0,0,0,0,0,0,0,0,0,0,0,0],"id":57,"left_children":[1,3,5,-1,7,9,11,-1,-1,-1,-1,-1,-1],"loss_changes":[5.982429E-1,9.112494E-1,1.4071201E0,0E0,1.919434E-1,1.284295E0,9.807003E-1,0E0,0E0,0E0,0E0,0E0,0E0],"parents":[2147483647,0,0,1,1,2,2,4,4,5,5,6,6],"right_children":[2,4,6,-1,8,10,12,-1,-1,-1,-1,-1,-1],"split_conditions":[3.0384638E1,2.5337269E1,3.3711655E1,-2.527E-2,3.525203E1,3.3268673E1,2.7769005E1,1.9553978E-2,6.882745E-2,-1.21532865E-2,-1.03927866E-1,-3.6771193E-3,1.3803201E-2],"split_indices":[1,1,1,0,3,1,3,0,0,0,0,0,0],"split_type":[0,0,0,0,0,0,0,0,0,0,0,0,0],"sum_hessian":[1.7820276E2,6.213309E0,1.7198946E2,1.6459401E0,4.567369E0,6.4318466E0,1.655576E2,2.669389E0,1.8979799E0,5.015108E0,1.4167387E0,1.2328482E2,4.2272785E1],"tree_param":{"num_deleted":"0","num_feature":"4","num_nodes":"13","size_leaf_vector":"1"}},{"base_weights":[7.714014E-4,2.5472961E-2,-1.2826388E-1,-3.101972E-2,1.5634546E-1,-6.862997E-1,4.362928E-2,1.420493E-3,-3.9151285E-2,-1.1902905E-2,3.6165435E-2,-1.1650292E-1,1.7119547E-2,8.865598E-2,-4.186474E-3],"categories":[],"categories_nodes":[],"categories_segments":[],"categories_sizes":[],"default_left":[0,0,0,0,0,0,0,0,0,0,0,0,0,0,0],"id":58,"left_children":[1,3,5,7,9,11,13,-1,-1,-1,-1,-1,-1,-1,-1],"loss_changes":[5.742583E-1,1.1226668E0,2.8068182E0,1.7408826E0,2.6297073E0,3.0225513E0,1.6998149E0,0E0,0E0,0E0,0E0,0E0,0E0,0E0,0E0],"parents":[2147483647,0,0,1,1,2,2,3,3,4,4,5,5,6,6],"right_children":[2,4,6,8,10,12,14,-1,-1,-1,-1,-1,-1,-1,-1],"split_conditions":[4.138162E0,1.0282884E0,2.096829E1,5.379156E-1,1.8493923E1,6.069457E-4,4.1876076E1,1.420493E-3,-3.9151285E-2,-1.1902905E-2,3.6165435E-2,-1.1650292E-1,1.7119547E-2,8.865598E-2,-4.186474E-3],"split_indices":[2,2,3,2,3,0,1,0,0,0,0,0,0,0,0],"split_type":[0,0,0,0,0,0,0,0,0,0,0,0,0,0,0],"sum_hessian":[1.781416E2,1.5019246E2,2.7949146E1,1.0544069E2,4.4751762E1,5.877093E0,2.2072052E1,9.4540924E1,1.0899769E1,1.9293812E1,2.545795E1,3.541354E0,2.335739E0,1.1696833E0,2.0902369E1],"tree_param":{"num_deleted":"0","num_feature":"4","num_nodes":"15","size_leaf_vector":"1"}},{"base_weights":[4.5308704E-4,2.0020774E-1,-1.678419E-2,6.819818E-1,-7.3285595E-2,-4.844291E-1,4.2833104E-3,9.600974E-2,3.0251354E-2,2.3828752E-2,-6.671028E-2,-9.43938E-2,-7.6759956E-3,2.5232667E-2,-1.5625836E-3],"categories":[],"categories_nodes":[],"categories_segments":[],"categories_sizes":[],"default_left":[0,0,0,0,0,0,0,0,0,0,0,0,0,0,0],"id":59,"left_children":[1,3,5,7,9,11,13,-1,-1,-1,-1,-1,-1,-1,-1],"loss_changes":[6.1958426E-1,1.933389E0,1.6343035E0,2.6606035E-1,2.0130072E0,1.2670529E0,7.9171723E-1,0E0,0E0,0E0,0E0,0E0,0E0,0E0,0E0],"parents":[2147483647,0,0,1,1,2,2,3,3,4,4,5,5,6,6],"right_children":[2,4,6,8,10,12,14,-1,-1,-1,-1,-1,-1,-1,-1],"split_conditions":[1.1155941E1,3.4989026E-1,1.2656333E1,-1.3505557E-1,7.9690793E-4,5.014313E1,1.4240867E1,9.600974E-2,3.0251354E-2,2.3828752E-2,-6.671028E-2,-9.43938E-2,-7.6759956E-3,2.5232667E-2,-1.5625836E-3],"split_indices":[3,2,3,2,0,1,3,0,0,0,0,0,0,0,0],"split_type":[0,0,0,0,0,0,0,0,0,0,0,0,0,0,0],"sum_hessian":[1.7796703E2,1.3294027E1,1.64673E2,4.273108E0,9.020919E0,6.150625E0,1.5852238E2,1.5828854E0,2.6902227E0,6.30922E0,2.7116992E0,2.2730641E0,3.877561E0,1.0910992E1,1.4761139E2],"tree_param":{"num_deleted":"0","num_feature":"4","num_nodes":"15","size_leaf_vector":"1"}},{"base_weights":[3.9733705E-4,4.3224722E-2,-7.247274E-2,-1.1377443E-2,3.664778E-1,-5.2803653E-1,-1.5358898E-2,2.591561E-3,-5.5147786E-2,6.846448E-2,-5.295884E-4,-7.795953E-2,2.6237791E-2,2.4316542E-2,-1.4315096E-2],"categories":[],"categories_nodes":[],"categories_segments":[],"categories_sizes":[],"default_left":[0,0,0,0,0,0,0,0,0,0,0,0,0,0,0],"id":60,"left_children":[1,3,5,7,9,11,13,-1,-1,-1,-1,-1,-1,-1,-1],"loss_changes":[5.6086564E-1,2.001931E0,1.7228601E0,1.9841694E0,1.9418681E0,1.6722281E0,2.0218675E0,0E0,0E0,0E0,0E0,0E0,0E0,0E0,0E0],"parents":[2147483647,0,0,1,1,2,2,3,3,4,4,5,5,6,6],"right_children":[2,4,6,8,10,12,14,-1,-1,-1,-1,-1,-1,-1,-1],"split_conditions":[9.5667125E-4,3.0649174E-4,1.3856246E-3,1.04021434E-4,5.360839E1,2.611475E0,1.9208548E1,2.591561E-3,-5.5147786E-2,6.846448E-2,-5.295884E-4,-7.795953E-2,2.6237791E-2,2.4316542E-2,-1.4315096E-2],"split_indices":[0,0,0,0,1,2,3,0,0,0,0,0,0,0,0],"split_type":[0,0,0,0,0,0,0,0,0,0,0,0,0,0,0],"sum_hessian":[1.7771275E2,1.12185585E2,6.552717E1,9.679953E1,1.5386052E1,6.3813705E0,5.9145798E1,9.143791E1,5.3616214E0,7.83728E0,7.5487723E0,4.8511295E0,1.5302411E0,1.9266565E1,3.987923E1],"tree_param":{"num_deleted":"0","num_feature":"4","num_nodes":"15","size_leaf_vector":"1"}},{"base_weights":[1.3462713E-4,-6.0099135E-3,5.0356813E-2,9.485342E-3,-3.6634508E-1,3.1890788E-5,6.636826E-2,-4.4833E-3,-8.4155075E-2],"categories":[],"categories_nodes":[],"categories_segments":[],"categories_sizes":[],"default_left":[0,0,0,0,0,0,0,0,0],"id":61,"left_children":[1,3,-1,5,7,-1,-1,-1,-1],"loss_changes":[5.554971E-1,9.9417007E-1,0E0,1.0257707E0,1.0838141E0,0E0,0E0,0E0,0E0],"parents":[2147483647,0,0,1,1,3,3,4,4],"right_children":[2,4,-1,6,8,-1,-1,-1,-1],"split_conditions":[1.8738456E-2,8.55332E0,5.0356813E-2,8.1468115E0,6.743005E1,3.1890788E-5,6.636826E-2,-4.4833E-3,-8.4155075E-2],"split_indices":[0,2,0,2,1,0,0,0,0],"split_type":[0,0,0,0,0,0,0,0,0],"sum_hessian":[1.7759846E2,1.7643312E2,1.1653514E0,1.7009242E2,6.340696E0,1.6872873E2,1.3636936E0,4.434661E0,1.9060348E0],"tree_param":{"num_deleted":"0","num_feature":"4","num_nodes":"9","size_leaf_vector":"1"}},{"base_weights":[2.5293784E-4,1.853515E-1,-1.556601E-2,6.3348544E-1,-6.8801366E-2,-3.3030748E-1,1.3666282E-2,9.1132656E-2,2.705462E-2,-3.866649E-2,4.6402838E-2,6.1762627E-2,-4.8641354E-2,8.4367E-2,-1.3846E-3],"categories":[],"categories_nodes":[],"categories_segments":[],"categories_sizes":[],"default_left":[0,0,0,0,0,0,0,0,0,0,0,0,0,0,0],"id":62,"left_children":[1,3,5,7,9,11,13,-1,-1,-1,-1,-1,-1,-1,-1],"loss_changes":[5.2562803E-1,1.6533303E0,1.5262481E0,2.7910447E-1,1.8596832E0,2.3862715E0,3.4894776E0,0E0,0E0,0E0,0E0,0E0,0E0,0E0,0E0],"parents":[2147483647,0,0,1,1,2,2,3,3,4,4,5,5,6,6],"right_children":[2,4,6,8,10,12,14,-1,-1,-1,-1,-1,-1,-1,-1],"split_conditions":[1.1155941E1,3.4989026E-1,1.3846005E1,-1.3505557E-1,5.6243896E1,-2.7450984E-3,1.4240867E1,9.1132656E-2,2.705462E-2,-3.866649E-2,4.6402838E-2,6.1762627E-2,-4.8641354E-2,8.4367E-2,-1.3846E-3],"split_indices":[3,2,3,2,1,0,3,0,0,0,0,0,0,0,0],"split_type":[0,0,0,0,0,0,0,0,0,0,0,0,0,0,0],"sum_hessian":[1.7752847E2,1.3133654E1,1.6439482E2,4.212842E0,8.920812E0,1.3095655E1,1.5129916E2,1.53035E0,2.6824918E0,5.759348E0,3.1614637E0,1.4336355E0,1.1662021E1,3.9024665E0,1.473967E2],"tree_param":{"num_deleted":"0","num_feature":"4","num_nodes":"15","size_leaf_vector":"1"}},{"base_weights":[1.4426013E-3,2.6611462E-1,-9.630674E-3,-2.392639E-2,4.5810175E-1,-7.3739335E-2,3.1757532E-4,1.8202538E-2,6.4923435E-2,-1.0602256E-2,4.3483744E-3],"categories":[],"categories_nodes":[],"categories_segments":[],"categories_sizes":[],"default_left":[0,0,0,0,0,0,0,0,0,0,0],"id":63,"left_children":[1,3,5,-1,7,-1,9,-1,-1,-1,-1],"loss_changes":[5.2487665E-1,8.07387E-1,1.245686E0,0E0,1.7493808E-1,0E0,7.881939E-1,0E0,0E0,0E0,0E0],"parents":[2147483647,0,0,1,1,2,2,4,4,6,6],"right_children":[2,4,6,-1,8,-1,10,-1,-1,-1,-1],"split_conditions":[3.0384638E1,2.5337269E1,-1.2387644E1,-2.392639E-2,3.525203E1,-7.3739335E-2,-1.543089E-3,1.8202538E-2,6.4923435E-2,-1.0602256E-2,4.3483744E-3],"split_indices":[1,1,2,0,3,0,0,0,0,0,0],"split_type":[0,0,0,0,0,0,0,0,0,0,0],"sum_hessian":[1.7721626E2,6.1916666E0,1.7102458E2,1.6367934E0,4.5548735E0,1.3202329E0,1.6970436E2,2.6620696E0,1.8928038E0,4.857742E1,1.2112694E2],"tree_param":{"num_deleted":"0","num_feature":"4","num_nodes":"11","size_leaf_vector":"1"}},{"base_weights":[1.1673154E-3,4.368392E-2,-7.117903E-2,-5.6526395E-3,3.3378735E-1,-4.9601117E-1,-1.865283E-2,2.8299585E-3,-5.059554E-2,6.2477447E-2,-8.57272E-4,-7.384284E-2,2.436811E-2,2.1524228E-2,-1.3501013E-2],"categories":[],"categories_nodes":[],"categories_segments":[],"categories_sizes":[],"default_left":[0,0,0,0,0,0,0,0,0,0,0,0,0,0,0],"id":64,"left_children":[1,3,5,7,9,11,13,-1,-1,-1,-1,-1,-1,-1,-1],"loss_changes":[5.5122185E-1,1.6171529E0,1.4710945E0,1.6693971E0,1.6411394E0,1.481863E0,1.6641232E0,0E0,0E0,0E0,0E0,0E0,0E0,0E0,0E0],"parents":[2147483647,0,0,1,1,2,2,3,3,4,4,5,5,6,6],"right_children":[2,4,6,8,10,12,14,-1,-1,-1,-1,-1,-1,-1,-1],"split_conditions":[9.5667125E-4,3.0649174E-4,1.3856246E-3,1.04021434E-4,5.360839E1,2.611475E0,1.9208548E1,2.8299585E-3,-5.059554E-2,6.2477447E-2,-8.57272E-4,-7.384284E-2,2.436811E-2,2.1524228E-2,-1.3501013E-2],"split_indices":[0,0,0,0,1,2,3,0,0,0,0,0,0,0,0],"split_type":[0,0,0,0,0,0,0,0,0,0,0,0,0,0,0],"sum_hessian":[1.7719458E2,1.11855415E2,6.5339165E1,9.643558E1,1.5419841E1,6.2605658E0,5.9078598E1,9.119051E1,5.2450595E0,7.889391E0,7.53045E0,4.7165375E0,1.5440283E0,1.9344166E1,3.9734432E1],"tree_param":{"num_deleted":"0","num_feature":"4","num_nodes":"15","size_leaf_vector":"1"}},{"base_weights":[8.3181646E-4,-1.0654634E-2,2.5000116E-1,7.185069E-3,-3.7706286E-1,-4.8758563E-1,6.604655E-1,-5.2645017E-4,6.525651E-2,4.1075584E-2,-6.6545025E-2,-8.55177E-2,1.5168676E-2,1.0165543E-2,7.728062E-2],"categories":[],"categories_nodes":[],"categories_segments":[],"categories_sizes":[],"default_left":[0,0,0,0,0,0,0,0,0,0,0,0,0,0,0],"id":65,"left_children":[1,3,5,7,9,11,13,-1,-1,-1,-1,-1,-1,-1,-1],"loss_changes":[5.1227653E-1,1.1215808E0,2.7099736E0,1.3227677E0,2.0831218E0,9.2758226E-1,2.662201E-1,0E0,0E0,0E0,0E0,0E0,0E0,0E0,0E0],"parents":[2147483647,0,0,1,1,2,2,3,3,4,4,5,5,6,6],"right_children":[2,4,6,8,10,12,14,-1,-1,-1,-1,-1,-1,-1,-1],"split_conditions":[8.554959E-3,3.8971622E1,2.5958403E1,3.8045387E1,3.5277557E1,2.2683144E0,4.3633157E-1,-5.2645017E-4,6.525651E-2,4.1075584E-2,-6.6545025E-2,-8.55177E-2,1.5168676E-2,1.0165543E-2,7.728062E-2],"split_indices":[0,3,3,3,1,2,2,0,0,0,0,0,0,0,0],"split_type":[0,0,0,0,0,0,0,0,0,0,0,0,0,0,0],"sum_hessian":[1.7705734E2,1.7016994E2,6.8874187E0,1.6320422E2,6.9657054E0,2.3952925E0,4.4921265E0,1.6108862E2,2.115604E0,1.7528735E0,5.212832E0,1.3063731E0,1.0889193E0,1.070765E0,3.4213612E0],"tree_param":{"num_deleted":"0","num_feature":"4","num_nodes":"15","size_leaf_vector":"1"}},{"base_weights":[1.0176173E-3,-7.157266E-2,3.938005E-2,2.5564414E-2,-5.2907646E-1,8.272192E-1,1.3022234E-2,-2.1699866E-2,1.14182765E-2,-9.87944E-2,-2.4737595E-2,1.0198102E-1,2.7740298E-2,5.5443414E-2,-1.7353062E-3],"categories":[],"categories_nodes":[],"categories_segments":[],"categories_sizes":[],"default_left":[0,0,0,0,0,0,0,0,0,0,0,0,0,0,0],"id":66,"left_children":[1,3,5,7,9,11,13,-1,-1,-1,-1,-1,-1,-1,-1],"loss_changes":[4.9818936E-1,2.7626398E0,2.4193823E0,1.1421247E0,1.1619935E0,1.1657047E-1,1.8886023E0,0E0,0E0,0E0,0E0,0E0,0E0,0E0,0E0],"parents":[2147483647,0,0,1,1,2,2,3,3,4,4,5,5,6,6],"right_children":[2,4,6,8,10,12,14,-1,-1,-1,-1,-1,-1,-1,-1],"split_conditions":[4.6320045E1,4.4299843E1,4.672546E1,-6.4904275E0,-1.4175661E0,1.9208548E1,-4.3370733E0,-2.1699866E-2,1.14182765E-2,-9.87944E-2,-2.4737595E-2,1.0198102E-1,2.7740298E-2,5.5443414E-2,-1.7353062E-3],"split_indices":[1,1,1,2,2,3,2,0,0,0,0,0,0,0,0],"split_type":[0,0,0,0,0,0,0,0,0,0,0,0,0,0,0],"sum_hessian":[1.7688765E2,6.086044E1,1.16027214E2,5.0980415E1,9.880024E0,2.7725022E0,1.1325471E2,1.3253822E1,3.7726593E1,2.8045561E0,7.075468E0,1.4202082E0,1.352294E0,5.0999503E0,1.0815476E2],"tree_param":{"num_deleted":"0","num_feature":"4","num_nodes":"15","size_leaf_vector":"1"}},{"base_weights":[1.1500133E-3,2.5444296E-1,-9.432955E-3,-2.2646455E-2,4.3648586E-1,-4.044152E-1,8.21071E-3,1.7375296E-2,6.182468E-2,-6.635064E-2,2.1234322E-2,3.2134008E-2,-9.224663E-4],"categories":[],"categories_nodes":[],"categories_segments":[],"categories_sizes":[],"default_left":[0,0,0,0,0,0,0,0,0,0,0,0,0],"id":67,"left_children":[1,3,5,-1,7,9,11,-1,-1,-1,-1,-1,-1],"loss_changes":[4.7843158E-1,7.254947E-1,1.1979809E0,0E0,1.5685141E-1,1.315398E0,9.0420425E-1,0E0,0E0,0E0,0E0,0E0,0E0],"parents":[2147483647,0,0,1,1,2,2,4,4,5,5,6,6],"right_children":[2,4,6,-1,8,10,12,-1,-1,-1,-1,-1,-1],"split_conditions":[3.0384638E1,2.5337269E1,3.3711655E1,-2.2646455E-2,3.525203E1,-2.9618328E0,3.615024E1,1.7375296E-2,6.182468E-2,-6.635064E-2,2.1234322E-2,3.2134008E-2,-9.224663E-4],"split_indices":[1,1,1,0,3,2,1,0,0,0,0,0,0],"split_type":[0,0,0,0,0,0,0,0,0,0,0,0,0],"sum_hessian":[1.7658449E2,6.157924E0,1.7042656E2,1.6239293E0,4.533995E0,6.350008E0,1.6407655E2,2.6538434E0,1.8801516E0,4.4181933E0,1.9318147E0,7.7347364E0,1.5634181E2],"tree_param":{"num_deleted":"0","num_feature":"4","num_nodes":"13","size_leaf_vector":"1"}},{"base_weights":[1.2547214E-3,4.074039E-2,-6.602438E-2,4.0189165E-1,6.196727E-3,-5.325005E-1,-1.9491613E-2,-1.0000483E-2,9.5551886E-2,-1.3211029E-2,1.3969525E-2,2.2653071E-2,-9.758881E-2,7.756988E-2,-7.109437E-3],"categories":[],"categories_nodes":[],"categories_segments":[],"categories_sizes":[],"default_left":[0,0,0,0,0,0,0,0,0,0,0,0,0,0,0],"id":68,"left_children":[1,3,5,7,9,11,13,-1,-1,-1,-1,-1,-1,-1,-1],"loss_changes":[4.7404477E-1,1.4001087E0,1.4222914E0,2.818396E0,1.931842E0,2.2230968E0,2.5604136E0,0E0,0E0,0E0,0E0,0E0,0E0,0E0,0E0],"parents":[2147483647,0,0,1,1,2,2,3,3,4,4,5,5,6,6],"right_children":[2,4,6,8,10,12,14,-1,-1,-1,-1,-1,-1,-1,-1],"split_conditions":[9.5667125E-4,1.1155941E1,3.856995E1,-6.603887E-4,2.3138083E1,3.3137276E1,4.1254223E1,-1.0000483E-2,9.5551886E-2,-1.3211029E-2,1.3969525E-2,2.2653071E-2,-9.758881E-2,7.756988E-2,-7.109437E-3],"split_indices":[0,3,1,0,3,1,1,0,0,0,0,0,0,0,0],"split_type":[0,0,0,0,0,0,0,0,0,0,0,0,0,0,0],"sum_hessian":[1.7643054E2,1.114284E2,6.500215E1,8.799196E0,1.026292E2,4.9487677E0,6.0053383E1,5.044981E0,3.754215E0,5.0411907E1,5.2217297E1,2.0051908E0,2.943577E0,2.8044918E0,5.7248894E1],"tree_param":{"num_deleted":"0","num_feature":"4","num_nodes":"15","size_leaf_vector":"1"}},{"base_weights":[1.5464702E-3,-7.1221225E-2,3.978635E-2,6.5621026E-3,-5.5659705E-1,3.0125836E-1,-3.5292014E-2,-6.334331E-3,3.4609657E-2,-9.614323E-3,-7.437279E-2,1.10226385E-1,1.1030982E-2,-2.7938409E-2,7.14438E-3],"categories":[],"categories_nodes":[],"categories_segments":[],"categories_sizes":[],"default_left":[0,0,0,0,0,0,0,0,0,0,0,0,0,0,0],"id":69,"left_children":[1,3,5,7,9,11,13,-1,-1,-1,-1,-1,-1,-1,-1],"loss_changes":[4.959882E-1,2.322107E0,2.303852E0,1.3016304E0,6.60337E-1,3.8803103E0,2.4078107E0,0E0,0E0,0E0,0E0,0E0,0E0,0E0,0E0],"parents":[2147483647,0,0,1,1,2,2,3,3,4,4,5,5,6,6],"right_children":[2,4,6,8,10,12,14,-1,-1,-1,-1,-1,-1,-1,-1],"split_conditions":[4.6320045E1,4.4718224E1,5.062347E1,9.5668876E-1,1.6587927E1,-1.4794265E0,-9.3091006E-4,-6.334331E-3,3.4609657E-2,-9.614323E-3,-7.437279E-2,1.10226385E-1,1.1030982E-2,-2.7938409E-2,7.14438E-3],"split_indices":[1,1,1,2,3,2,0,0,0,0,0,0,0,0,0],"split_type":[0,0,0,0,0,0,0,0,0,0,0,0,0,0,0],"sum_hessian":[1.7622618E2,6.040927E1,1.1581691E2,5.2915794E1,7.493478E0,2.5164625E1,9.065228E1,4.4555813E1,8.35998E0,2.6028025E0,4.890675E0,3.925417E0,2.1239208E1,2.708792E1,6.3564365E1],"tree_param":{"num_deleted":"0","num_feature":"4","num_nodes":"15","size_leaf_vector":"1"}},{"base_weights":[1.5750034E-3,4.194194E-2,-6.711881E-2,2.4759172E-2,7.434135E-2,-4.1448107E-1,-6.6875196E-3,-4.1560656E-3,2.170141E-2,-6.48924E-2,2.685386E-2,7.6726705E-2,-6.692705E-3],"categories":[],"categories_nodes":[],"categories_segments":[],"categories_sizes":[],"default_left":[0,0,0,0,0,0,0,0,0,0,0,0,0],"id":70,"left_children":[1,3,5,7,-1,9,11,-1,-1,-1,-1,-1,-1],"loss_changes":[4.9358323E-1,1.3326589E0,1.3804026E0,1.4172404E0,0E0,1.7352297E0,2.7155461E0,0E0,0E0,0E0,0E0,0E0,0E0],"parents":[2147483647,0,0,1,1,2,2,3,3,5,5,6,6],"right_children":[2,4,6,8,-1,10,12,-1,-1,-1,-1,-1,-1],"split_conditions":[9.5667125E-4,8.801799E-4,1.3884969E1,5.6243896E1,7.434135E-2,2.9505943E-3,1.5071437E1,-4.1560656E-3,2.170141E-2,-6.48924E-2,2.685386E-2,7.6726705E-2,-6.692705E-3],"split_indices":[0,0,3,1,0,0,3,0,0,0,0,0,0],"split_type":[0,0,0,0,0,0,0,0,0,0,0,0,0],"sum_hessian":[1.7598358E2,1.1109161E2,6.489196E1,1.09446E2,1.6456183E0,8.748189E0,5.6143776E1,8.195783E1,2.7488163E1,6.5498924E0,2.1982963E0,3.2067447E0,5.293703E1],"tree_param":{"num_deleted":"0","num_feature":"4","num_nodes":"13","size_leaf_vector":"1"}},{"base_weights":[2.0696716E-3,1.840081E-2,-1.6908313E-1,-4.046606E-3,2.4036571E-1,-7.746386E-2,-4.2995956E-2,1.7729292E-3,-5.539707E-2,3.6960375E-3,1.0129421E-1,2.0755284E-2,-3.0402053E-2],"categories":[],"categories_nodes":[],"categories_segments":[],"categories_sizes":[],"default_left":[0,0,0,0,0,0,0,0,0,0,0,0,0],"id":71,"left_children":[1,3,5,7,9,-1,11,-1,-1,-1,-1,-1,-1],"loss_changes":[4.9761927E-1,8.1018364E-1,1.1508448E0,1.7878442E0,2.3091662E0,0E0,9.7182405E-1,0E0,0E0,0E0,0E0,0E0,0E0],"parents":[2147483647,0,0,1,1,2,2,3,3,4,4,6,6],"right_children":[2,4,6,8,10,-1,12,-1,-1,-1,-1,-1,-1],"split_conditions":[6.4626336E0,5.1495726E-3,2.1261755E1,4.0401127E-3,3.5799267E1,-7.746386E-2,3.56712E1,1.7729292E-3,-5.539707E-2,3.6960375E-3,1.0129421E-1,2.0755284E-2,-3.0402053E-2],"split_indices":[2,0,3,0,3,0,3,0,0,0,0,0,0],"split_type":[0,0,0,0,0,0,0,0,0,0,0,0,0],"sum_hessian":[1.7591832E2,1.6140938E2,1.4508946E1,1.4747675E2,1.3932625E1,1.6139586E0,1.2894988E1,1.427903E2,4.6864505E0,1.1858372E1,2.0742536E0,6.684047E0,6.210941E0],"tree_param":{"num_deleted":"0","num_feature":"4","num_nodes":"13","size_leaf_vector":"1"}},{"base_weights":[1.6179222E-3,-9.607182E-2,2.8462129E-2,-7.9179695E-3,-3.8450903E-1,3.6782435E-1,-2.0424614E-2,-9.072921E-3,5.854068E-2,-8.027277E-2,5.8103662E-2,4.6338076E-3,7.5162396E-2,6.830133E-3,-1.4040746E-2],"categories":[],"categories_nodes":[],"categories_segments":[],"categories_sizes":[],"default_left":[0,0,0,0,0,0,0,0,0,0,0,0,0,0,0],"id":72,"left_children":[1,3,5,7,9,11,13,-1,-1,-1,-1,-1,-1,-1,-1],"loss_changes":[4.6640489E-1,9.718594E-1,2.3213596E0,1.5461676E0,4.0821624E0,2.1385064E0,1.3174611E0,0E0,0E0,0E0,0E0,0E0,0E0,0E0,0E0],"parents":[2147483647,0,0,1,1,2,2,3,3,4,4,5,5,6,6],"right_children":[2,4,6,8,10,12,14,-1,-1,-1,-1,-1,-1,-1,-1],"split_conditions":[-2.7153842E0,-3.6964438E0,-1.502885E0,5.684912E1,2.599758E1,4.5960586E-4,6.71168E-4,-9.072921E-3,5.854068E-2,-8.027277E-2,5.8103662E-2,4.6338076E-3,7.5162396E-2,6.830133E-3,-1.4040746E-2],"split_indices":[2,2,2,1,3,0,0,0,0,0,0,0,0,0,0],"split_type":[0,0,0,0,0,0,0,0,0,0,0,0,0,0,0],"sum_hessian":[1.7581126E2,3.7341515E1,1.3846974E2,2.9387415E1,7.9541E0,1.6614075E1,1.2185567E2,2.6531462E1,2.8559532E0,5.667775E0,2.2863252E0,9.650857E0,6.963218E0,7.030021E1,5.155546E1],"tree_param":{"num_deleted":"0","num_feature":"4","num_nodes":"15","size_leaf_vector":"1"}},{"base_weights":[1.9476428E-3,-8.903511E-3,2.371301E-1,1.4706514E-2,-2.504001E-1,-4.485301E-1,6.1013293E-1,-2.2930137E-3,3.3292014E-2,-3.1424786E-3,-6.594092E-2,-8.109957E-2,1.5927533E-2,6.9381855E-3,7.240868E-2],"categories":[],"categories_nodes":[],"categories_segments":[],"categories_sizes":[],"default_left":[0,0,0,0,0,0,0,0,0,0,0,0,0,0,0],"id":73,"left_children":[1,3,5,7,9,11,13,-1,-1,-1,-1,-1,-1,-1,-1],"loss_changes":[4.527428E-1,9.7158444E-1,2.2747066E0,1.8709593E0,1.3382754E0,8.634658E-1,2.8812647E-1,0E0,0E0,0E0,0E0,0E0,0E0,0E0,0E0],"parents":[2147483647,0,0,1,1,2,2,3,3,4,4,5,5,6,6],"right_children":[2,4,6,8,10,12,14,-1,-1,-1,-1,-1,-1,-1,-1],"split_conditions":[8.554959E-3,3.6585033E1,2.5958403E1,3.1450031E1,6.71168E-4,2.2683144E0,4.7834423E1,-2.2930137E-3,3.3292014E-2,-3.1424786E-3,-6.594092E-2,-8.109957E-2,1.5927533E-2,6.9381855E-3,7.240868E-2],"split_indices":[0,3,3,3,0,2,1,0,0,0,0,0,0,0,0],"split_type":[0,0,0,0,0,0,0,0,0,0,0,0,0,0,0],"sum_hessian":[1.7557965E2,1.6875554E2,6.8241196E0,1.5458186E2,1.4173665E1,2.3330262E0,4.4910936E0,1.3906226E2,1.5519618E1,9.932718E0,4.2409472E0,1.2520581E0,1.0809681E0,1.0617198E0,3.4293737E0],"tree_param":{"num_deleted":"0","num_feature":"4","num_nodes":"15","size_leaf_vector":"1"}},{"base_weights":[1.5852379E-3,2.4036907E-2,-1.16700456E-1,-3.204228E-2,1.4198643E-1,-6.3444805E-1,3.9447125E-2,1.0422649E-3,-4.8753433E-2,-1.1607098E-2,3.3920236E-2,-1.1121734E-1,1.708208E-2,3.9115187E-2,-1.3853929E-2],"categories":[],"categories_nodes":[],"categories_segments":[],"categories_sizes":[],"default_left":[0,0,0,0,0,0,0,0,0,0,0,0,0,0,0],"id":74,"left_children":[1,3,5,7,9,11,13,-1,-1,-1,-1,-1,-1,-1,-1],"loss_changes":[4.7127596E-1,9.907032E-1,2.3139024E0,1.9753513E0,2.493781E0,2.7361608E0,1.4747555E0,0E0,0E0,0E0,0E0,0E0,0E0,0E0,0E0],"parents":[2147483647,0,0,1,1,2,2,3,3,4,4,5,5,6,6],"right_children":[2,4,6,8,10,12,14,-1,-1,-1,-1,-1,-1,-1,-1],"split_conditions":[4.138162E0,8.893761E-1,2.096829E1,5.379156E-1,1.8493923E1,6.069457E-4,2.7260653E1,1.0422649E-3,-4.8753433E-2,-1.1607098E-2,3.3920236E-2,-1.1121734E-1,1.708208E-2,3.9115187E-2,-1.3853929E-2],"split_indices":[2,2,3,2,3,0,3,0,0,0,0,0,0,0,0],"split_type":[0,0,0,0,0,0,0,0,0,0,0,0,0,0,0],"sum_hessian":[1.7540126E2,1.4808939E2,2.7311882E1,1.0086255E2,4.7226833E1,5.618654E0,2.1693228E1,9.315495E1,7.7075963E0,2.0636017E1,2.6590816E1,3.2873278E0,2.3313262E0,6.8869076E0,1.4806319E1],"tree_param":{"num_deleted":"0","num_feature":"4","num_nodes":"15","size_leaf_vector":"1"}},{"base_weights":[7.965796E-4,1.86733E-1,-1.5060976E-2,8.891248E-2,3.086848E-2,-4.4342205E-1,3.8268722E-3,3.140984E-2,-5.9575092E-2,-8.972782E-2,-5.7116193E-3,2.4579631E-2,-1.5575774E-3],"categories":[],"categories_nodes":[],"categories_segments":[],"categories_sizes":[],"default_left":[0,0,0,0,0,0,0,0,0,0,0,0,0],"id":75,"left_children":[1,3,5,-1,7,9,11,-1,-1,-1,-1,-1,-1],"loss_changes":[5.225795E-1,1.4972963E0,1.32337E0,0E0,2.3938882E0,1.1597743E0,7.430202E-1,0E0,0E0,0E0,0E0,0E0,0E0],"parents":[2147483647,0,0,1,1,2,2,4,4,5,5,6,6],"right_children":[2,4,6,-1,8,10,12,-1,-1,-1,-1,-1,-1],"split_conditions":[1.1155941E1,-1.3505557E-1,1.2656333E1,8.891248E-2,7.9690793E-4,5.014313E1,1.4240867E1,3.140984E-2,-5.9575092E-2,-8.972782E-2,-5.7116193E-3,2.4579631E-2,-1.5575774E-3],"split_indices":[3,2,3,0,0,1,3,0,0,0,0,0,0],"split_type":[0,0,0,0,0,0,0,0,0,0,0,0,0],"sum_hessian":[1.7528204E2,1.2927389E1,1.6235466E2,1.4933314E0,1.1434057E1,5.9072156E0,1.5644743E2,8.2182E0,3.215858E0,2.1079502E0,3.7992654E0,1.0747517E1,1.4569992E2],"tree_param":{"num_deleted":"0","num_feature":"4","num_nodes":"13","size_leaf_vector":"1"}},{"base_weights":[6.1862305E-4,1.7397659E-1,-1.4038771E-2,8.535071E-2,2.5445404E-2,-4.2015702E-1,3.586748E-3,2.8571373E-2,-5.631817E-2,-8.653651E-2,-5.270933E-3,-9.298624E-3,4.7485526E-3],"categories":[],"categories_nodes":[],"categories_segments":[],"categories_sizes":[],"default_left":[0,0,0,0,0,0,0,0,0,0,0,0,0],"id":76,"left_children":[1,3,5,-1,7,9,11,-1,-1,-1,-1,-1,-1],"loss_changes":[4.497569E-1,1.3709863E0,1.17E0,0E0,2.0535803E0,1.0665536E0,6.7188686E-1,0E0,0E0,0E0,0E0,0E0,0E0],"parents":[2147483647,0,0,1,1,2,2,4,4,5,5,6,6],"right_children":[2,4,6,-1,8,10,12,-1,-1,-1,-1,-1,-1],"split_conditions":[1.1155941E1,-1.3505557E-1,1.2656333E1,8.535071E-2,7.9690793E-4,5.014313E1,-1.6213614E-3,2.8571373E-2,-5.631817E-2,-8.653651E-2,-5.270933E-3,-9.298624E-3,4.7485526E-3],"split_indices":[3,2,3,0,0,1,0,0,0,0,0,0,0],"split_type":[0,0,0,0,0,0,0,0,0,0,0,0,0],"sum_hessian":[1.7504042E2,1.2798514E1,1.6224191E2,1.4443402E0,1.1354175E1,5.798472E0,1.5644344E2,8.229857E0,3.1243172E0,2.0091138E0,3.7893581E0,4.8540634E1,1.079028E2],"tree_param":{"num_deleted":"0","num_feature":"4","num_nodes":"13","size_leaf_vector":"1"}},{"base_weights":[3.0726544E-4,1.268906E-1,-2.1415392E-2,-8.9513704E-2,6.674381E-1,-6.83775E-1,1.2925735E-2,1.211774E-2,-5.5558063E-2,9.285647E-2,-7.7205836E-3,2.7599286E-3,-8.702191E-2,1.03847146E-1,-4.433336E-4],"categories":[],"categories_nodes":[],"categories_segments":[],"categories_sizes":[],"default_left":[0,0,0,0,0,0,0,0,0,0,0,0,0,0,0],"id":77,"left_children":[1,3,5,7,9,11,13,-1,-1,-1,-1,-1,-1,-1,-1],"loss_changes":[4.8629758E-1,3.089871E0,3.4426277E0,1.9703478E0,1.534672E0,1.0133941E0,2.5770965E0,0E0,0E0,0E0,0E0,0E0,0E0,0E0,0E0],"parents":[2147483647,0,0,1,1,2,2,3,3,4,4,5,5,6,6],"right_children":[2,4,6,8,10,12,14,-1,-1,-1,-1,-1,-1,-1,-1],"split_conditions":[-3.6412973E-3,-4.652938E-3,-2.9622645E-3,1.683692E0,4.0941973E0,-2.496341E0,-2.8675946E-3,1.211774E-2,-5.5558063E-2,9.285647E-2,-7.7205836E-3,2.7599286E-3,-8.702191E-2,1.03847146E-1,-4.433336E-4],"split_indices":[0,0,0,2,2,2,0,0,0,0,0,0,0,0,0],"split_type":[0,0,0,0,0,0,0,0,0,0,0,0,0,0,0],"sum_hessian":[1.7486482E2,2.490365E1,1.4996118E2,1.8379822E1,6.5238285E0,6.459591E0,1.4350159E2,1.316736E1,5.212462E0,4.6471915E0,1.8766369E0,1.5183442E0,4.941247E0,1.4094689E0,1.4209212E2],"tree_param":{"num_deleted":"0","num_feature":"4","num_nodes":"15","size_leaf_vector":"1"}},{"base_weights":[5.704091E-4,2.8663188E-2,-9.0283185E-2,-2.616544E-2,1.7347445E-1,-4.8908794E-1,6.941581E-2,1.0176409E-2,-3.4093548E-2,5.3304054E-2,-6.8670313E-4,-9.440785E-2,-1.341437E-2,3.3799265E-2,-1.8438024E-2],"categories":[],"categories_nodes":[],"categories_segments":[],"categories_sizes":[],"default_left":[0,0,0,0,0,0,0,0,0,0,0,0,0,0,0],"id":78,"left_children":[1,3,5,7,9,11,13,-1,-1,-1,-1,-1,-1,-1,-1],"loss_changes":[4.511611E-1,1.0764183E0,2.692939E0,4.0129447E0,2.4163587E0,1.8213661E0,2.154095E0,0E0,0E0,0E0,0E0,0E0,0E0,0E0,0E0],"parents":[2147483647,0,0,1,1,2,2,3,3,4,4,5,5,6,6],"right_children":[2,4,6,8,10,12,14,-1,-1,-1,-1,-1,-1,-1,-1],"split_conditions":[2.089525E-3,5.6151436E1,3.2065427E-3,5.062347E1,5.8855408E1,5.140429E1,2.6457106E1,1.0176409E-2,-3.4093548E-2,5.3304054E-2,-6.8670313E-4,-9.440785E-2,-1.341437E-2,3.3799265E-2,-1.8438024E-2],"split_indices":[0,1,0,1,1,1,3,0,0,0,0,0,0,0,0],"split_type":[0,0,0,0,0,0,0,0,0,0,0,0,0,0,0],"sum_hessian":[1.747505E2,1.3400073E2,4.0749763E1,9.779339E1,3.6207348E1,1.1062249E1,2.9687515E1,7.00146E1,2.7778788E1,1.1440825E1,2.4766523E1,4.120514E0,6.9417353E0,1.4262566E1,1.542495E1],"tree_param":{"num_deleted":"0","num_feature":"4","num_nodes":"15","size_leaf_vector":"1"}},{"base_weights":[3.7949358E-5,-9.4419606E-2,2.6004335E-2,-1.5736323E-2,-3.5544205E-1,3.3023804E-1,-1.8340407E-2,3.0276343E-2,-1.5618985E-2,-7.538714E-2,5.3210534E-2,4.1118823E-3,6.6988684E-2,6.4100297E-3,-1.30206E-2],"categories":[],"categories_nodes":[],"categories_segments":[],"categories_sizes":[],"default_left":[0,0,0,0,0,0,0,0,0,0,0,0,0,0,0],"id":79,"left_children":[1,3,5,7,9,11,13,-1,-1,-1,-1,-1,-1,-1,-1],"loss_changes":[4.330441E-1,7.762935E-1,1.874387E0,1.4026752E0,3.5029736E0,1.7076486E0,1.1317608E0,0E0,0E0,0E0,0E0,0E0,0E0,0E0,0E0],"parents":[2147483647,0,0,1,1,2,2,3,3,4,4,5,5,6,6],"right_children":[2,4,6,8,10,12,14,-1,-1,-1,-1,-1,-1,-1,-1],"split_conditions":[-2.7153842E0,-3.6964438E0,-1.502885E0,2.458839E1,2.599758E1,4.5960586E-4,6.71168E-4,3.0276343E-2,-1.5618985E-2,-7.538714E-2,5.3210534E-2,4.1118823E-3,6.6988684E-2,6.4100297E-3,-1.30206E-2],"split_indices":[2,2,2,3,3,0,0,0,0,0,0,0,0,0,0],"split_type":[0,0,0,0,0,0,0,0,0,0,0,0,0,0,0],"sum_hessian":[1.7455553E2,3.707006E1,1.3748547E2,2.9298525E1,7.7715364E0,1.6670177E1,1.2081529E2,8.612578E0,2.0685947E1,5.467659E0,2.3038774E0,9.610497E0,7.0596795E0,6.9801346E1,5.101395E1],"tree_param":{"num_deleted":"0","num_feature":"4","num_nodes":"15","size_leaf_vector":"1"}},{"base_weights":[2.905272E-4,-6.927567E-2,3.6780458E-2,1.3685629E-2,-4.7426045E-1,2.8522825E-1,-3.4188278E-2,-3.136801E-3,5.155119E-2,-9.372028E-2,-1.9991333E-2,1.2624594E-2,1.1188152E-1,-2.4987362E-2,7.5426013E-3],"categories":[],"categories_nodes":[],"categories_segments":[],"categories_sizes":[],"default_left":[0,0,0,0,0,0,0,0,0,0,0,0,0,0,0],"id":80,"left_children":[1,3,5,7,9,11,13,-1,-1,-1,-1,-1,-1,-1,-1],"loss_changes":[4.4764563E-1,2.0450575E0,2.0491786E0,1.1767184E0,1.1264155E0,3.2787097E0,2.1669786E0,0E0,0E0,0E0,0E0,0E0,0E0,0E0,0E0],"parents":[2147483647,0,0,1,1,2,2,3,3,4,4,5,5,6,6],"right_children":[2,4,6,8,10,12,14,-1,-1,-1,-1,-1,-1,-1,-1],"split_conditions":[4.6320045E1,4.4299843E1,5.062347E1,4.383142E1,-1.4175661E0,5.014313E1,-6.350892E-4,-3.136801E-3,5.155119E-2,-9.372028E-2,-1.9991333E-2,1.2624594E-2,1.1188152E-1,-2.4987362E-2,7.5426013E-3],"split_indices":[1,1,1,1,2,1,0,0,0,0,0,0,0,0,0],"split_type":[0,0,0,0,0,0,0,0,0,0,0,0,0,0,0],"sum_hessian":[1.743412E2,5.9675125E1,1.14666084E2,5.0331005E1,9.34412E0,2.4806004E1,8.986008E1,4.704484E1,3.2861633E0,2.577925E0,6.7661953E0,2.1799782E1,3.006221E0,2.9848448E1,6.001163E1],"tree_param":{"num_deleted":"0","num_feature":"4","num_nodes":"15","size_leaf_vector":"1"}},{"base_weights":[4.3740115E-4,-2.3649894E-2,1.0405662E-1,3.941593E-3,-7.2826314E-1,-6.1618936E-1,1.7630589E-1,9.924794E-2,-1.2131423E-3,-2.8858024E-3,-9.113449E-2,-8.512516E-2,-5.955864E-3,4.5127433E-2,-1.445251E-2],"categories":[],"categories_nodes":[],"categories_segments":[],"categories_sizes":[],"default_left":[0,0,0,0,0,0,0,0,0,0,0,0,0,0,0],"id":81,"left_children":[1,3,5,7,9,11,13,-1,-1,-1,-1,-1,-1,-1,-1],"loss_changes":[4.3966553E-1,2.7818947E0,1.8375514E0,2.2134666E0,6.641257E-1,3.7472892E-1,2.797617E0,0E0,0E0,0E0,0E0,0E0,0E0,0E0,0E0],"parents":[2147483647,0,0,1,1,2,2,3,3,4,4,5,5,6,6],"right_children":[2,4,6,8,10,12,14,-1,-1,-1,-1,-1,-1,-1,-1],"split_conditions":[3.1450031E1,3.0155273E1,-1.191222E-2,-1.2595664E-2,-3.796038E0,-4.197824E0,6.71168E-4,9.924794E-2,-1.2131423E-3,-2.8858024E-3,-9.113449E-2,-8.512516E-2,-5.955864E-3,4.5127433E-2,-1.445251E-2],"split_indices":[3,3,0,0,2,2,0,0,0,0,0,0,0,0,0],"split_type":[0,0,0,0,0,0,0,0,0,0,0,0,0,0,0],"sum_hessian":[1.7416869E2,1.4194415E2,3.2224537E1,1.3755223E2,4.3919115E0,2.2514446E0,2.9973091E1,1.2288071E0,1.3632343E2,1.1513132E0,3.2405984E0,1.210826E0,1.0406185E0,1.592122E1,1.4051871E1],"tree_param":{"num_deleted":"0","num_feature":"4","num_nodes":"15","size_leaf_vector":"1"}},{"base_weights":[4.0920124E-5,-5.592364E-3,4.5127086E-2,7.238841E-3,-3.1394166E-1,-1.5321292E-4,6.253249E-2,-8.354666E-2,-4.4409986E-4],"categories":[],"categories_nodes":[],"categories_segments":[],"categories_sizes":[],"default_left":[0,0,0,0,0,0,0,0,0],"id":82,"left_children":[1,3,-1,5,7,-1,-1,-1,-1],"loss_changes":[4.475234E-1,6.9028485E-1,0E0,9.113146E-1,1.1212764E0,0E0,0E0,0E0,0E0],"parents":[2147483647,0,0,1,1,3,3,4,4],"right_children":[2,4,-1,6,8,-1,-1,-1,-1],"split_conditions":[1.8738456E-2,8.55332E0,4.5127086E-2,8.1468115E0,5.633567E1,-1.5321292E-4,6.253249E-2,-8.354666E-2,-4.4409986E-4],"split_indices":[0,2,0,2,1,0,0,0,0],"split_type":[0,0,0,0,0,0,0,0,0],"sum_hessian":[1.7406535E2,1.7289449E2,1.170858E0,1.6692485E2,5.969647E0,1.655728E2,1.352045E0,1.5903766E0,4.3792706E0],"tree_param":{"num_deleted":"0","num_feature":"4","num_nodes":"9","size_leaf_vector":"1"}},{"base_weights":[1.5319363E-4,1.6841963E-1,-1.3950049E-2,5.7086784E-1,-5.8634233E-2,-4.116536E-1,3.23186E-3,9.310048E-3,7.1598105E-2,-3.7310164E-2,4.7522966E-2,5.002308E-3,-7.1887404E-2,2.233064E-2,-1.4506379E-3],"categories":[],"categories_nodes":[],"categories_segments":[],"categories_sizes":[],"default_left":[0,0,0,0,0,0,0,0,0,0,0,0,0,0,0],"id":83,"left_children":[1,3,5,7,9,11,13,-1,-1,-1,-1,-1,-1,-1,-1],"loss_changes":[4.1766927E-1,1.2771823E0,1.1110637E0,2.801571E-1,1.790383E0,9.9100053E-1,6.148268E-1,0E0,0E0,0E0,0E0,0E0,0E0,0E0,0E0],"parents":[2147483647,0,0,1,1,2,2,3,3,4,4,5,5,6,6],"right_children":[2,4,6,8,10,12,14,-1,-1,-1,-1,-1,-1,-1,-1],"split_conditions":[1.1155941E1,3.4989026E-1,1.2656333E1,-1.144503E-3,5.6243896E1,4.6606293E-1,1.4240867E1,9.310048E-3,7.1598105E-2,-3.7310164E-2,4.7522966E-2,5.002308E-3,-7.1887404E-2,2.233064E-2,-1.4506379E-3],"split_indices":[3,2,3,0,1,2,3,0,0,0,0,0,0,0,0],"split_type":[0,0,0,0,0,0,0,0,0,0,0,0,0,0,0],"sum_hessian":[1.7401135E2,1.2610692E1,1.6140067E2,4.0023575E0,8.608335E0,5.733389E0,1.5566727E2,1.3148726E0,2.6874847E0,5.60682E0,3.0015142E0,2.6253338E0,3.1080549E0,1.0746669E1,1.449206E2],"tree_param":{"num_deleted":"0","num_feature":"4","num_nodes":"15","size_leaf_vector":"1"}},{"base_weights":[3.6526163E-4,-4.978168E-3,4.259111E-2,1.28808515E-2,