{"learner":{"attributes":{"scikit_learn":"{\"_estimator_type\": \"classifier\"}"},"feature_names":["log_returns","RSI_14","MACDh_12_26_9","ATRr_14","RSI_Lag1","Return_Lag1","OBV_Slope","BBP"],"feature_types":["float","float","float","float","float","float","float","float"],"gradient_booster":{"model":{"gbtree_model_param":{"num_parallel_tree":"1","num_trees":"100"},"iteration_indptr":[0,1,2,3,4,5,6,7,8,9,10,11,12,13,14,15,16,17,18,19,20,21,22,23,24,25,26,27,28,29,30,31,32,33,34,35,36,37,38,39,40,41,42,43,44,45,46,47,48,49,50,51,52,53,54,55,56,57,58,59,60,61,62,63,64,65,66,67,68,69,70,71,72,73,74,75,76,77,78,79,80,81,82,83,84,85,86,87,88,89,90,91,92,93,94,95,96,97,98,99,100],"tree_info":[0,0,0,0,0,0,0,0,0,0,0,0,0,0,0,0,0,0,0,0,0,0,0,0,0,0,0,0,0,0,0,0,0,0,0,0,0,0,0,0,0,0,0,0,0,0,0,0,0,0,0,0,0,0,0,0,0,0,0,0,0,0,0,0,0,0,0,0,0,0,0,0,0,0,0,0,0,0,0,0,0,0,0,0,0,0,0,0,0,0,0,0,0,0,0,0,0,0,0,0],"trees":[{"base_weights":[8.348563E-8,1.581009E-1,-5.247773E-1,5.6947917E-2,9.4796497E-1,3.8566056E-1,-6.8162495E-1,-6.4997408E-3,5.4383542E-2,1.4921246E-1,-4.1955607E-3,8.189393E-2,-7.789669E-2,-3.8253024E-2,-8.764708E-2],"categories":[],"categories_nodes":[],"categories_segments":[],"categories_sizes":[],"default_left":[0,0,0,0,0,0,0,0,0,0,0,0,0,0,0],"id":0,"left_children":[1,3,5,7,9,11,13,-1,-1,-1,-1,-1,-1,-1,-1],"loss_changes":[1.39439335E1,1.0265047E1,5.819298E0,6.8963103E0,7.926362E0,3.8456814E0,1.6201401E0,0E0,0E0,0E0,0E0,0E0,0E0,0E0,0E0],"parents":[2147483647,0,0,1,1,2,2,3,3,4,4,5,5,6,6],"right_children":[2,4,6,8,10,12,14,-1,-1,-1,-1,-1,-1,-1,-1],"split_conditions":[6.4807497E-3,1.0158512E2,-1.0674906E-2,6.2288383E4,4.718837E1,6.1512974E1,5.0222363E1,-6.4997408E-3,5.4383542E-2,1.4921246E-1,-4.1955607E-3,8.189393E-2,-7.789669E-2,-3.8253024E-2,-8.764708E-2],"split_indices":[5,3,0,6,4,4,1,0,0,0,0,0,0,0,0],"split_type":[0,0,0,0,0,0,0,0,0,0,0,0,0,0,0],"sum_hessian":[1.6606453E2,1.28154E2,3.791051E1,1.1455568E2,1.3598336E1,5.3569202E0,3.2553593E1,9.2303856E1,2.2251822E1,8.447451E0,5.1508846E0,4.120708E0,1.2362124E0,1.40104065E1,1.8543184E1],"tree_param":{"num_deleted":"0","num_feature":"8","num_nodes":"15","size_leaf_vector":"1"}},{"base_weights":[-1.4175284E-4,1.4255753E-1,-4.8686334E-1,5.575012E-1,-2.5872607E-2,3.4137687E-1,-6.35759E-1,-8.947699E-3,1.08095124E-1,-1.1155938E-2,1.03388384E-1,7.3219016E-2,-7.504467E-2,-3.524463E-2,-8.24262E-2],"categories":[],"categories_nodes":[],"categories_segments":[],"categories_sizes":[],"default_left":[0,0,0,0,0,0,0,0,0,0,0,0,0,0,0],"id":1,"left_children":[1,3,5,7,9,11,13,-1,-1,-1,-1,-1,-1,-1,-1],"loss_changes":[1.1666888E1,9.092706E0,4.913496E0,1.2812583E1,8.592019E0,3.30327E0,1.4520731E0,0E0,0E0,0E0,0E0,0E0,0E0,0E0,0E0],"parents":[2147483647,0,0,1,1,2,2,3,3,4,4,5,5,6,6],"right_children":[2,4,6,8,10,12,14,-1,-1,-1,-1,-1,-1,-1,-1],"split_conditions":[6.4807497E-3,4.1843708E1,-1.0674906E-2,8.05424E1,9.5003074E-1,6.1512974E1,5.0222363E1,-8.947699E-3,1.08095124E-1,-1.1155938E-2,1.03388384E-1,7.3219016E-2,-7.504467E-2,-3.524463E-2,-8.24262E-2],"split_indices":[5,4,0,3,7,4,1,0,0,0,0,0,0,0,0],"split_type":[0,0,0,0,0,0,0,0,0,0,0,0,0,0,0],"sum_hessian":[1.659788E2,1.2889569E2,3.7083126E1,3.654749E1,9.23482E1,5.4537296E0,3.1629396E1,1.6715899E1,1.983159E1,8.626774E1,6.08046E0,4.258726E0,1.1950037E0,1.3783316E1,1.784608E1],"tree_param":{"num_deleted":"0","num_feature":"8","num_nodes":"15","size_leaf_vector":"1"}},{"base_weights":[-2.7880273E-4,1.2873435E-1,-4.5199358E-1,1.2320983E0,7.444342E-2,3.025026E-1,-5.9297884E-1,1.6044722E-1,-3.2324896E-3,1.1930026E-3,7.974138E-2,6.574799E-2,-7.238231E-2,-7.395556E-2,-2.6576499E-2],"categories":[],"categories_nodes":[],"categories_segments":[],"categories_sizes":[],"default_left":[0,0,0,0,0,0,0,0,0,0,0,0,0,0,0],"id":2,"left_children":[1,3,5,7,9,11,13,-1,-1,-1,-1,-1,-1,-1,-1],"loss_changes":[9.775843E0,7.7245407E0,4.1434927E0,2.9027853E0,5.659236E0,2.8547106E0,1.3256121E0,0E0,0E0,0E0,0E0,0E0,0E0,0E0,0E0],"parents":[2147483647,0,0,1,1,2,2,3,3,4,4,5,5,6,6],"right_children":[2,4,6,8,10,12,14,-1,-1,-1,-1,-1,-1,-1,-1],"split_conditions":[6.4807497E-3,-3.1150682E1,-1.0674906E-2,1.4141791E2,1.043651E2,6.1512974E1,1.5113246E1,1.6044722E-1,-3.2324896E-3,1.1930026E-3,7.974138E-2,6.574799E-2,-7.238231E-2,-7.395556E-2,-2.6576499E-2],"split_indices":[5,2,0,3,3,4,2,0,0,0,0,0,0,0,0],"split_type":[0,0,0,0,0,0,0,0,0,0,0,0,0,0,0],"sum_hessian":[1.65749E2,1.2948274E2,3.626624E1,5.0549874E0,1.2442776E2,5.529415E0,3.0736826E1,3.697217E0,1.3577702E0,1.1546067E2,8.967088E0,4.3754535E0,1.1539618E0,2.0357462E1,1.0379364E1],"tree_param":{"num_deleted":"0","num_feature":"8","num_nodes":"15","size_leaf_vector":"1"}},{"base_weights":[1.7978095E-4,5.0246894E-1,-1.0489256E-1,2.042973E-1,1.0219516E0,-1.7597713E-1,5.031323E-1,4.7028404E-2,-1.6950307E-2,-2.3380393E-2,1.1879791E-1,1.8285008E-2,-3.0946463E-2,1.0118889E-1,-2.5564814E-2],"categories":[],"categories_nodes":[],"categories_segments":[],"categories_sizes":[],"default_left":[0,0,0,0,0,0,0,0,0,0,0,0,0,0,0],"id":3,"left_children":[1,3,5,7,9,11,13,-1,-1,-1,-1,-1,-1,-1,-1],"loss_changes":[8.838726E0,4.27893E0,6.0747933E0,2.034141E0,2.4284334E0,6.031792E0,5.955267E0,0E0,0E0,0E0,0E0,0E0,0E0,0E0,0E0],"parents":[2147483647,0,0,1,1,2,2,3,3,4,4,5,5,6,6],"right_children":[2,4,6,8,10,12,14,-1,-1,-1,-1,-1,-1,-1,-1],"split_conditions":[-9.035281E-3,-1.341205E-2,1.0663557E5,4.0929973E4,-1.032003E-2,4.309424E1,6.012296E-3,4.7028404E-2,-1.6950307E-2,-2.3380393E-2,1.1879791E-1,1.8285008E-2,-3.0946463E-2,1.0118889E-1,-2.5564814E-2],"split_indices":[5,5,6,6,0,1,5,0,0,0,0,0,0,0,0],"split_type":[0,0,0,0,0,0,0,0,0,0,0,0,0,0,0],"sum_hessian":[1.6547537E2,2.7972612E1,1.3750276E2,1.865711E1,9.315502E0,1.237461E2,1.3756659E1,1.0749749E1,7.90736E0,1.0401404E0,8.275362E0,3.3452576E1,9.0293526E1,8.035406E0,5.7212524E0],"tree_param":{"num_deleted":"0","num_feature":"8","num_nodes":"15","size_leaf_vector":"1"}},{"base_weights":[9.166349E-4,1.1217295E-1,-4.0296727E-1,1.0520903E0,6.416109E-2,2.8235582E-1,-5.367342E-1,-7.417789E-3,1.3838346E-1,1.300897E-3,8.842548E-2,-7.343914E-2,6.0657587E-2,-2.5997132E-2,-7.287179E-2],"categories":[],"categories_nodes":[],"categories_segments":[],"categories_sizes":[],"default_left":[0,0,0,0,0,0,0,0,0,0,0,0,0,0,0],"id":4,"left_children":[1,3,5,7,9,11,13,-1,-1,-1,-1,-1,-1,-1,-1],"loss_changes":[7.5135856E0,5.8483024E0,3.4622154E0,2.4587498E0,5.2651596E0,2.6056786E0,1.4343576E0,0E0,0E0,0E0,0E0,0E0,0E0,0E0,0E0],"parents":[2147483647,0,0,1,1,2,2,3,3,4,4,5,5,6,6],"right_children":[2,4,6,8,10,12,14,-1,-1,-1,-1,-1,-1,-1,-1],"split_conditions":[6.4807497E-3,-3.1150682E1,-1.0674906E-2,-1.4442369E5,9.5003074E-1,9.002713E-3,5.0222363E1,-7.417789E-3,1.3838346E-1,1.300897E-3,8.842548E-2,-7.343914E-2,6.0657587E-2,-2.5997132E-2,-7.287179E-2],"split_indices":[5,2,0,6,7,5,1,0,0,0,0,0,0,0,0],"split_type":[0,0,0,0,0,0,0,0,0,0,0,0,0,0,0],"sum_hessian":[1.652055E2,1.3009187E2,3.5113632E1,5.30592E0,1.2478595E2,5.5530586E0,2.9560575E1,1.3839217E0,3.9219983E0,1.184158E2,6.370147E0,1.0367452E0,4.5163136E0,1.3071246E1,1.6489328E1],"tree_param":{"num_deleted":"0","num_feature":"8","num_nodes":"15","size_leaf_vector":"1"}},{"base_weights":[1.2023044E-3,4.368679E-1,-9.252926E-2,1.7448883E-1,8.831295E-1,-1.5752691E-1,4.5261973E-1,6.514312E-3,1.0526704E-1,1.1413218E-1,5.5496185E-3,-1.0306137E-2,-1.0674598E-1,9.74535E-2,-1.3037698E-2],"categories":[],"categories_nodes":[],"categories_segments":[],"categories_sizes":[],"default_left":[0,0,0,0,0,0,0,0,0,0,0,0,0,0,0],"id":5,"left_children":[1,3,5,7,9,11,13,-1,-1,-1,-1,-1,-1,-1,-1],"loss_changes":[6.8134103E0,3.3048291E0,4.9369783E0,1.837468E0,2.221304E0,6.0072994E0,4.656639E0,0E0,0E0,0E0,0E0,0E0,0E0,0E0,0E0],"parents":[2147483647,0,0,1,1,2,2,3,3,4,4,5,5,6,6],"right_children":[2,4,6,8,10,12,14,-1,-1,-1,-1,-1,-1,-1,-1],"split_conditions":[-9.035281E-3,-1.341205E-2,1.0663557E5,1.7112223E5,5.014564E1,9.1707695E4,1.601018E-2,6.514312E-3,1.0526704E-1,1.1413218E-1,5.5496185E-3,-1.0306137E-2,-1.0674598E-1,9.74535E-2,-1.3037698E-2],"split_indices":[5,5,6,6,4,6,0,0,0,0,0,0,0,0,0],"split_type":[0,0,0,0,0,0,0,0,0,0,0,0,0,0,0],"sum_hessian":[1.648598E2,2.8540825E1,1.3631898E2,1.8849361E1,9.6914625E0,1.22432495E2,1.3886482E1,1.7717472E1,1.13189E0,7.098091E0,2.5933716E0,1.1656837E2,5.8641305E0,6.9727144E0,6.9137683E0],"tree_param":{"num_deleted":"0","num_feature":"8","num_nodes":"15","size_leaf_vector":"1"}},{"base_weights":[2.0107857E-3,1.16147056E-1,-3.2020018E-1,-4.054093E-1,2.0133434E-1,1.8979472E-1,-5.303852E-1,5.3030837E-2,-6.2137783E-2,9.801277E-2,1.5362272E-2,1.0408024E-1,-4.1256726E-2,-6.5391295E-2,1.4827602E-2],"categories":[],"categories_nodes":[],"categories_segments":[],"categories_sizes":[],"default_left":[0,0,0,0,0,0,0,0,0,0,0,0,0,0,0],"id":6,"left_children":[1,3,5,7,9,11,13,-1,-1,-1,-1,-1,-1,-1,-1],"loss_changes":[6.1275325E0,5.5475035E0,4.7726054E0,3.8870893E0,3.8036594E0,7.3274317E0,2.706503E0,0E0,0E0,0E0,0E0,0E0,0E0,0E0,0E0],"parents":[2147483647,0,0,1,1,2,2,3,3,4,4,5,5,6,6],"right_children":[2,4,6,8,10,12,14,-1,-1,-1,-1,-1,-1,-1,-1],"split_conditions":[5.190697E-3,5.223039E1,-6.0294527E4,-5.079773E-3,-3.1150682E1,5.055749E1,1.0071207E0,5.3030837E-2,-6.2137783E-2,9.801277E-2,1.5362272E-2,1.0408024E-1,-4.1256726E-2,-6.5391295E-2,1.4827602E-2],"split_indices":[5,3,6,0,2,4,7,0,0,0,0,0,0,0,0],"split_type":[0,0,0,0,0,0,0,0,0,0,0,0,0,0,0],"sum_hessian":[1.6460664E2,1.2202238E2,4.2584263E1,1.6604265E1,1.0541811E2,1.2456561E1,3.01277E1,2.8407552E0,1.3763511E1,4.957323E0,1.00460785E2,4.861061E0,7.5955005E0,2.5519236E1,4.6084642E0],"tree_param":{"num_deleted":"0","num_feature":"8","num_nodes":"15","size_leaf_vector":"1"}},{"base_weights":[2.1326689E-3,9.234834E-2,-3.4112805E-1,3.854857E-1,-3.2241292E-2,2.7121773E-1,-4.676213E-1,-1.2890969E-2,7.813645E-2,-3.506818E-2,1.6749904E-2,5.8073606E-2,-6.7712955E-2,-6.255932E-2,-1.2999638E-2],"categories":[],"categories_nodes":[],"categories_segments":[],"categories_sizes":[],"default_left":[0,0,0,0,0,0,0,0,0,0,0,0,0,0,0],"id":7,"left_children":[1,3,5,7,9,11,13,-1,-1,-1,-1,-1,-1,-1,-1],"loss_changes":[5.149432E0,4.820862E0,2.807541E0,8.112928E0,5.9939957E0,2.3182456E0,1.4680986E0,0E0,0E0,0E0,0E0,0E0,0E0,0E0,0E0],"parents":[2147483647,0,0,1,1,2,2,3,3,4,4,5,5,6,6],"right_children":[2,4,6,8,10,12,14,-1,-1,-1,-1,-1,-1,-1,-1],"split_conditions":[6.4807497E-3,4.1843708E1,-1.0674906E-2,8.05424E1,4.6205437E-1,6.1512974E1,1.5113246E1,-1.2890969E-2,7.813645E-2,-3.506818E-2,1.6749904E-2,5.8073606E-2,-6.7712955E-2,-6.255932E-2,-1.2999638E-2],"split_indices":[5,4,0,3,7,4,2,0,0,0,0,0,0,0,0],"split_type":[0,0,0,0,0,0,0,0,0,0,0,0,0,0,0],"sum_hessian":[1.6426778E2,1.30659E2,3.3608784E1,3.8345284E1,9.231371E1,5.5581255E0,2.805066E1,1.6969671E1,2.1375612E1,3.529237E1,5.702134E1,4.4827085E0,1.0754172E0,1.8528437E1,9.522223E0],"tree_param":{"num_deleted":"0","num_feature":"8","num_nodes":"15","size_leaf_vector":"1"}},{"base_weights":[1.3634204E-3,2.4267635E-1,-1.1332527E-1,-1.2866308E-1,4.250025E-1,-4.6501172E-1,4.3394953E-2,1.4621148E-2,-6.32497E-2,1.4275251E-1,2.9448358E-2,2.9057195E-2,-5.8137964E-2,7.753193E-2,-5.6292946E-3],"categories":[],"categories_nodes":[],"categories_segments":[],"categories_sizes":[],"default_left":[0,0,0,0,0,0,0,0,0,0,0,0,0,0,0],"id":8,"left_children":[1,3,5,7,9,11,13,-1,-1,-1,-1,-1,-1,-1,-1],"loss_changes":[4.589694E0,3.6717486E0,6.2163477E0,2.6352496E0,4.2984576E0,3.2234354E0,5.7844605E0,0E0,0E0,0E0,0E0,0E0,0E0,0E0,0E0],"parents":[2147483647,0,0,1,1,2,2,3,3,4,4,5,5,6,6],"right_children":[2,4,6,8,10,12,14,-1,-1,-1,-1,-1,-1,-1,-1],"split_conditions":[4.309424E1,3.3849613E1,4.6205437E-1,3.0683262E1,-2.5558086E-2,4.1843708E1,-8.341064E-3,1.4621148E-2,-6.32497E-2,1.4275251E-1,2.9448358E-2,2.9057195E-2,-5.8137964E-2,7.753193E-2,-5.6292946E-3],"split_indices":[1,4,7,4,5,4,5,0,0,0,0,0,0,0,0],"split_type":[0,0,0,0,0,0,0,0,0,0,0,0,0,0,0],"sum_hessian":[1.6384373E2,5.242402E1,1.11419716E2,1.7360537E1,3.5063484E1,3.3739586E1,7.768013E1,1.16917305E1,5.668806E0,2.8943691E0,3.2169113E1,4.3029943E0,2.9436594E1,8.49932E0,6.918081E1],"tree_param":{"num_deleted":"0","num_feature":"8","num_nodes":"15","size_leaf_vector":"1"}},{"base_weights":[1.931116E-3,9.0197444E-2,-2.8419197E-1,2.5744598E-2,5.704551E-1,-3.917683E-2,-5.2128214E-1,-8.440978E-3,4.2476933E-2,7.81543E-2,-5.8321502E-2,-3.1999838E-2,1.1412962E-1,-2.8079322E-2,-1.05844475E-1],"categories":[],"categories_nodes":[],"categories_segments":[],"categories_sizes":[],"default_left":[0,0,0,0,0,0,0,0,0,0,0,0,0,0,0],"id":9,"left_children":[1,3,5,7,9,11,13,-1,-1,-1,-1,-1,-1,-1,-1],"loss_changes":[4.1808696E0,3.9009953E0,2.246907E0,4.9841995E0,4.0894227E0,7.0867186E0,2.2547765E0,0E0,0E0,0E0,0E0,0E0,0E0,0E0,0E0],"parents":[2147483647,0,0,1,1,2,2,3,3,4,4,5,5,6,6],"right_children":[2,4,6,8,10,12,14,-1,-1,-1,-1,-1,-1,-1,-1],"split_conditions":[5.631858E-3,1.0158512E2,5.0222363E1,5.5453403E1,5.430562E1,4.878055E1,8.006535E1,-8.440978E-3,4.2476933E-2,7.81543E-2,-5.8321502E-2,-3.1999838E-2,1.1412962E-1,-2.8079322E-2,-1.05844475E-1],"split_indices":[5,3,1,4,4,1,3,0,0,0,0,0,0,0,0],"split_type":[0,0,0,0,0,0,0,0,0,0,0,0,0,0,0],"sum_hessian":[1.6353099E2,1.2550013E2,3.803087E1,1.1157927E2,1.3920861E1,1.9275896E1,1.8754974E1,8.805841E1,2.3520857E1,1.2040381E1,1.8804793E0,1.616043E1,3.1154654E0,1.4006822E1,4.748152E0],"tree_param":{"num_deleted":"0","num_feature":"8","num_nodes":"15","size_leaf_vector":"1"}},{"base_weights":[1.4503732E-3,2.1998455E-1,-1.03669845E-1,2.88402E-1,-6.23735E-1,-2.7016762E-1,1.6958308E-1,-7.0441733E-3,5.764706E-2,-9.428981E-2,1.793575E-2,2.1885247E-3,-5.0819594E-2,4.575112E-2,-3.5058085E-2],"categories":[],"categories_nodes":[],"categories_segments":[],"categories_sizes":[],"default_left":[0,0,0,0,0,0,0,0,0,0,0,0,0,0,0],"id":10,"left_children":[1,3,5,7,9,11,13,-1,-1,-1,-1,-1,-1,-1,-1],"loss_changes":[3.7952263E0,3.2771947E0,5.1213255E0,5.2417855E0,1.2817429E0,4.8569074E0,6.578459E0,0E0,0E0,0E0,0E0,0E0,0E0,0E0,0E0],"parents":[2147483647,0,0,1,1,2,2,3,3,4,4,5,5,6,6],"right_children":[2,4,6,8,10,12,14,-1,-1,-1,-1,-1,-1,-1,-1],"split_conditions":[4.309424E1,1.2320875E-2,4.530346E4,8.097164E1,-5.2506275E0,-4.0199703E4,8.135872E1,-7.0441733E-3,5.764706E-2,-9.428981E-2,1.793575E-2,2.1885247E-3,-5.0819594E-2,4.575112E-2,-3.5058085E-2],"split_indices":[1,5,6,3,2,6,3,0,0,0,0,0,0,0,0],"split_type":[0,0,0,0,0,0,0,0,0,0,0,0,0,0,0],"sum_hessian":[1.6321564E2,5.2656162E1,1.1055947E2,4.9315346E1,3.340816E0,6.870662E1,4.1852848E1,2.2296423E1,2.7018923E1,2.2661314E0,1.0746846E0,3.1259863E1,3.744676E1,2.7017954E1,1.4834893E1],"tree_param":{"num_deleted":"0","num_feature":"8","num_nodes":"15","size_leaf_vector":"1"}},{"base_weights":[5.8398454E-4,8.7046444E-2,-2.451013E-1,-4.49177E-1,1.471031E-1,2.9034153E-1,-3.9696306E-1,3.768567E-2,-7.1207814E-2,1.021927E-2,8.6958945E-2,5.9525676E-2,-7.874554E-2,-1.05765104E-1,-2.5956148E-2],"categories":[],"categories_nodes":[],"categories_segments":[],"categories_sizes":[],"default_left":[0,0,0,0,0,0,0,0,0,0,0,0,0,0,0],"id":11,"left_children":[1,3,5,7,9,11,13,-1,-1,-1,-1,-1,-1,-1,-1],"loss_changes":[3.5036676E0,3.994815E0,3.6064997E0,2.990305E0,3.4953167E0,3.7762449E0,2.8003054E0,0E0,0E0,0E0,0E0,0E0,0E0,0E0,0E0],"parents":[2147483647,0,0,1,1,2,2,3,3,4,4,5,5,6,6],"right_children":[2,4,6,8,10,12,14,-1,-1,-1,-1,-1,-1,-1,-1],"split_conditions":[5.0613373E-3,4.886696E1,-7.240259E-3,3.5523182E1,9.5003074E-1,6.1512974E1,-3.4826566E-3,3.768567E-2,-7.1207814E-2,1.021927E-2,8.6958945E-2,5.9525676E-2,-7.874554E-2,-1.05765104E-1,-2.5956148E-2],"split_indices":[5,3,0,3,7,4,0,0,0,0,0,0,0,0,0],"split_type":[0,0,0,0,0,0,0,0,0,0,0,0,0,0,0],"sum_hessian":[1.6293192E2,1.2099619E2,4.1935722E1,1.153402E1,1.0946217E2,9.064325E0,3.2871395E1,2.6800058E0,8.854014E0,1.0413076E2,5.331415E0,7.4144444E0,1.6498814E0,4.5061765E0,2.836522E1],"tree_param":{"num_deleted":"0","num_feature":"8","num_nodes":"15","size_leaf_vector":"1"}},{"base_weights":[-2.8230966E-4,2.0484658E-1,-9.586297E-2,-2.8750184E-1,4.3511137E-1,-3.2382643E-1,4.8047516E-2,-1.8780926E-4,-9.5798224E-2,2.4772003E-2,9.667615E-2,1.2136791E-1,-3.8973745E-2,6.2387563E-2,-6.4568645E-3],"categories":[],"categories_nodes":[],"categories_segments":[],"categories_sizes":[],"default_left":[0,0,0,0,0,0,0,0,0,0,0,0,0,0,0],"id":12,"left_children":[1,3,5,7,9,11,13,-1,-1,-1,-1,-1,-1,-1,-1],"loss_changes":[3.227557E0,6.0571294E0,3.699448E0,3.306562E0,3.3519282E0,4.8898363E0,4.560626E0,0E0,0E0,0E0,0E0,0E0,0E0,0E0,0E0],"parents":[2147483647,0,0,1,1,2,2,3,3,4,4,5,5,6,6],"right_children":[2,4,6,8,10,12,14,-1,-1,-1,-1,-1,-1,-1,-1],"split_conditions":[4.2843163E1,7.207716E1,5.083215E-1,6.7250595E1,-7.25176E-1,-1.944747E5,5.0222363E1,-1.8780926E-4,-9.5798224E-2,2.4772003E-2,9.667615E-2,1.2136791E-1,-3.8973745E-2,6.2387563E-2,-6.4568645E-3],"split_indices":[4,3,7,3,2,6,1,0,0,0,0,0,0,0,0],"split_type":[0,0,0,0,0,0,0,0,0,0,0,0,0,0,0],"sum_hessian":[1.6261633E2,5.1324314E1,1.1129202E2,1.6275574E1,3.5048737E1,4.258479E1,6.870724E1,1.2116684E1,4.1588902E0,2.6998493E1,8.050245E0,1.0346898E0,4.15501E1,1.0496545E1,5.8210693E1],"tree_param":{"num_deleted":"0","num_feature":"8","num_nodes":"15","size_leaf_vector":"1"}},{"base_weights":[4.5502227E-4,6.872645E-2,-2.7316096E-1,1.6381407E-2,5.0948095E-1,-4.5390192E-1,9.835265E-2,8.414184E-3,-5.0000913E-2,-7.402181E-2,7.8515016E-2,5.9600074E-2,-5.620087E-2,7.6760165E-2,-4.0322356E-2],"categories":[],"categories_nodes":[],"categories_segments":[],"categories_sizes":[],"default_left":[0,0,0,0,0,0,0,0,0,0,0,0,0,0,0],"id":13,"left_children":[1,3,5,7,9,11,13,-1,-1,-1,-1,-1,-1,-1,-1],"loss_changes":[3.0690773E0,3.0251298E0,2.247666E0,4.190525E0,5.3781614E0,2.860272E0,4.1897845E0,0E0,0E0,0E0,0E0,0E0,0E0,0E0,0E0],"parents":[2147483647,0,0,1,1,2,2,3,3,4,4,5,5,6,6],"right_children":[2,4,6,8,10,12,14,-1,-1,-1,-1,-1,-1,-1,-1],"split_conditions":[6.4807497E-3,1.043651E2,1.4467938E1,9.084934E1,-1.5912496E-2,9.034903E-4,8.2727814E-1,8.414184E-3,-5.0000913E-2,-7.402181E-2,7.8515016E-2,5.9600074E-2,-5.620087E-2,7.6760165E-2,-4.0322356E-2],"split_indices":[5,3,2,3,0,7,7,0,0,0,0,0,0,0,0],"split_type":[0,0,0,0,0,0,0,0,0,0,0,0,0,0,0],"sum_hessian":[1.6229118E2,1.3048257E2,3.1808603E1,1.1755825E2,1.2924327E1,2.1249151E1,1.0559452E1,1.04661674E2,1.2896579E1,2.031175E0,1.0893152E1,1.5624079E0,1.9686743E1,4.2964096E0,6.263043E0],"tree_param":{"num_deleted":"0","num_feature":"8","num_nodes":"15","size_leaf_vector":"1"}},{"base_weights":[1.7804663E-4,2.0918162E-1,-8.897016E-2,3.1175634E-1,-9.8884515E-2,-4.3932077E-1,1.9223718E-2,-6.5710107E-3,6.254569E-2,3.9541745E-3,-7.110258E-2,1.6134708E-1,-2.5629664E-3],"categories":[],"categories_nodes":[],"categories_segments":[],"categories_sizes":[],"default_left":[0,0,0,0,0,0,0,0,0,0,0,0,0],"id":14,"left_children":[1,3,5,7,-1,9,11,-1,-1,-1,-1,-1,-1],"loss_changes":[3.0552511E0,6.3333254E0,4.3656483E0,5.4788566E0,0E0,3.5624099E0,6.3900757E0,0E0,0E0,0E0,0E0,0E0,0E0],"parents":[2147483647,0,0,1,1,2,2,3,3,5,5,6,6],"right_children":[2,4,6,8,-1,10,12,-1,-1,-1,-1,-1,-1],"split_conditions":[-5.542394E4,6.897546E1,-8.8503584E-4,-1.0968957E5,-9.8884515E-2,-5.079773E-3,-3.8220395E4,-6.5710107E-3,6.254569E-2,3.9541745E-3,-7.110258E-2,1.6134708E-1,-2.5629664E-3],"split_indices":[6,4,0,6,0,0,6,0,0,0,0,0,0],"split_type":[0,0,0,0,0,0,0,0,0,0,0,0,0],"sum_hessian":[1.6197726E2,4.802906E1,1.1394821E2,4.4922577E1,3.1064835E0,2.616403E1,8.778418E1,2.0747847E1,2.417473E1,9.780683E0,1.6383348E1,1.445183E0,8.6339E1],"tree_param":{"num_deleted":"0","num_feature":"8","num_nodes":"13","size_leaf_vector":"1"}},{"base_weights":[1.3105715E-4,3.7058282E-1,-4.5710765E-2,6.4548716E-2,8.9052147E-1,-3.9304683E-1,4.3284073E-3,2.947628E-2,-8.920986E-2,-1.0427005E-2,1.4100482E-1,-6.984559E-2,1.3625726E-2,3.7303273E-2,-6.287824E-3],"categories":[],"categories_nodes":[],"categories_segments":[],"categories_sizes":[],"default_left":[0,0,0,0,0,0,0,0,0,0,0,0,0,0,0],"id":15,"left_children":[1,3,5,7,9,11,13,-1,-1,-1,-1,-1,-1,-1,-1],"loss_changes":[2.7816706E0,2.8126068E0,2.5351474E0,3.0009983E0,3.5605989E0,3.0641396E0,3.2050858E0,0E0,0E0,0E0,0E0,0E0,0E0,0E0,0E0],"parents":[2147483647,0,0,1,1,2,2,3,3,4,4,5,5,6,6],"right_children":[2,4,6,8,10,12,14,-1,-1,-1,-1,-1,-1,-1,-1],"split_conditions":[5.8407236E-2,-9.2574336E4,5.223039E1,-6.942665E-3,-2.200399E-2,1.7085422E0,6.062136E1,2.947628E-2,-8.920986E-2,-1.0427005E-2,1.4100482E-1,-6.984559E-2,1.3625726E-2,3.7303273E-2,-6.287824E-3],"split_indices":[7,6,3,0,7,2,3,0,0,0,0,0,0,0,0],"split_type":[0,0,0,0,0,0,0,0,0,0,0,0,0,0,0],"sum_hessian":[1.6180185E2,1.7037378E1,1.4476447E2,1.1432433E1,5.604944E0,1.7366173E1,1.273983E2,9.772574E0,1.6598591E0,2.1971438E0,3.4078002E0,1.0809504E1,6.5566697E0,1.8940075E1,1.0845822E2],"tree_param":{"num_deleted":"0","num_feature":"8","num_nodes":"15","size_leaf_vector":"1"}},{"base_weights":[2.0797527E-4,6.1345484E-2,-2.4989277E-1,2.4032278E-2,6.5312684E-1,-9.265322E-2,-1.4976852E-1,2.4025865E-2,-1.0796067E-2,-5.470273E-2,1.04583085E-1,7.235808E-2,-2.6375432E-2],"categories":[],"categories_nodes":[],"categories_segments":[],"categories_sizes":[],"default_left":[0,0,0,0,0,0,0,0,0,0,0,0,0],"id":16,"left_children":[1,3,5,7,9,-1,11,-1,-1,-1,-1,-1,-1],"loss_changes":[2.5011542E0,2.8866858E0,2.038099E0,3.5844374E0,4.2284365E0,0E0,3.095981E0,0E0,0E0,0E0,0E0,0E0,0E0],"parents":[2147483647,0,0,1,1,2,2,3,3,4,4,6,6],"right_children":[2,4,6,8,10,-1,12,-1,-1,-1,-1,-1,-1],"split_conditions":[6.4807497E-3,9.5003074E-1,7.0862705E-3,-3.8855293E4,5.7815804E1,-9.265322E-2,7.9501225E-3,2.4025865E-2,-1.0796067E-2,-5.470273E-2,1.04583085E-1,7.235808E-2,-2.6375432E-2],"split_indices":[5,7,5,6,3,0,5,0,0,0,0,0,0],"split_type":[0,0,0,0,0,0,0,0,0,0,0,0,0],"sum_hessian":[1.6157272E2,1.3044095E2,3.1131773E1,1.2368306E2,6.757898E0,2.9489508E0,2.8182823E1,4.6571297E1,7.711176E1,1.569211E0,5.1886873E0,2.6362348E0,2.5546589E1],"tree_param":{"num_deleted":"0","num_feature":"8","num_nodes":"13","size_leaf_vector":"1"}},{"base_weights":[1.0786764E-4,1.713503E-1,-8.0925606E-2,-2.807986E-1,3.8033772E-1,3.0270146E-2,-3.7873548E-1,-1.4821603E-3,-9.1045134E-2,5.7095792E-2,-5.35232E-3,-1.2494722E-2,4.0956307E-2,-4.4031862E-2,6.31532E-2],"categories":[],"categories_nodes":[],"categories_segments":[],"categories_sizes":[],"default_left":[0,0,0,0,0,0,0,0,0,0,0,0,0,0,0],"id":17,"left_children":[1,3,5,7,9,11,13,-1,-1,-1,-1,-1,-1,-1,-1],"loss_changes":[2.2661614E0,5.0636234E0,3.6824396E0,2.859852E0,3.0326467E0,4.857718E0,2.157723E0,0E0,0E0,0E0,0E0,0E0,0E0,0E0,0E0],"parents":[2147483647,0,0,1,1,2,2,3,3,4,4,5,5,6,6],"right_children":[2,4,6,8,10,12,14,-1,-1,-1,-1,-1,-1,-1,-1],"split_conditions":[4.2843163E1,7.207716E1,8.05424E1,-4.938355E0,7.787778E-3,4.786393E4,1.3371834E2,-1.4821603E-3,-9.1045134E-2,5.7095792E-2,-5.35232E-3,-1.2494722E-2,4.0956307E-2,-4.4031862E-2,6.31532E-2],"split_indices":[4,3,3,2,0,6,3,0,0,0,0,0,0,0,0],"split_type":[0,0,0,0,0,0,0,0,0,0,0,0,0,0,0],"sum_hessian":[1.6131154E2,5.145683E1,1.0985471E2,1.6157059E1,3.529977E1,8.06428E1,2.9211916E1,1.2078441E1,4.078618E0,2.4305128E1,1.0994641E1,5.7700645E1,2.2942154E1,2.8065289E1,1.1466266E0],"tree_param":{"num_deleted":"0","num_feature":"8","num_nodes":"15","size_leaf_vector":"1"}},{"base_weights":[-1.0706247E-4,-4.0127274E-2,3.35785E-1,1.6223252E-2,-4.5403224E-1,6.591025E-1,-2.9866242E-1,1.12799205E-1,-1.7569083E-4,4.371139E-2,-7.2163336E-2,-4.7044262E-2,8.9175776E-2,-5.391195E-2,3.7658267E-2],"categories":[],"categories_nodes":[],"categories_segments":[],"categories_sizes":[],"default_left":[0,0,0,0,0,0,0,0,0,0,0,0,0,0,0],"id":18,"left_children":[1,3,5,7,9,11,13,-1,-1,-1,-1,-1,-1,-1,-1],"loss_changes":[2.19101E0,3.404166E0,3.7563071E0,2.5836775E0,4.485377E0,3.5222E0,1.2658634E0,0E0,0E0,0E0,0E0,0E0,0E0,0E0,0E0],"parents":[2147483647,0,0,1,1,2,2,3,3,4,4,5,5,6,6],"right_children":[2,4,6,8,10,12,14,-1,-1,-1,-1,-1,-1,-1,-1],"split_conditions":[1.05396095E2,9.084934E1,4.9140812E1,-2.2984458E5,-1.1605195E-2,2.5492304E1,1.7112223E5,1.12799205E-1,-1.7569083E-4,4.371139E-2,-7.2163336E-2,-4.7044262E-2,8.9175776E-2,-5.391195E-2,3.7658267E-2],"split_indices":[3,3,1,6,0,1,6,0,0,0,0,0,0,0,0],"split_type":[0,0,0,0,0,0,0,0,0,0,0,0,0,0,0],"sum_hessian":[1.6098926E2,1.4463689E2,1.6352377E1,1.2815077E2,1.6486107E1,1.0806481E1,5.5458965E0,1.0570132E0,1.2709376E2,3.6610122E0,1.2825095E1,1.6711177E0,9.135364E0,4.2382393E0,1.3076569E0],"tree_param":{"num_deleted":"0","num_feature":"8","num_nodes":"15","size_leaf_vector":"1"}},{"base_weights":[4.2945903E-4,6.792219E-2,-1.9896398E-1,2.8770586E-2,6.6263294E-1,2.0043847E-1,-3.7135413E-1,2.567463E-2,-8.038058E-3,9.5327616E-2,-4.1378368E-2,5.1571887E-2,-8.613884E-2,-8.265551E-2,-1.1774721E-2],"categories":[],"categories_nodes":[],"categories_segments":[],"categories_sizes":[],"default_left":[0,0,0,0,0,0,0,0,0,0,0,0,0,0,0],"id":19,"left_children":[1,3,5,7,9,11,13,-1,-1,-1,-1,-1,-1,-1,-1],"loss_changes":[2.1901975E0,2.8119276E0,2.9082732E0,2.8852956E0,2.729766E0,4.815753E0,3.262001E0,0E0,0E0,0E0,0E0,0E0,0E0,0E0,0E0],"parents":[2147483647,0,0,1,1,2,2,3,3,4,4,5,5,6,6],"right_children":[2,4,6,8,10,12,14,-1,-1,-1,-1,-1,-1,-1,-1],"split_conditions":[5.0613373E-3,6.783159E1,-6.0294527E4,4.1843708E1,7.345932E1,5.5484726E1,4.289722E-1,2.567463E-2,-8.038058E-3,9.5327616E-2,-4.1378368E-2,5.1571887E-2,-8.613884E-2,-8.265551E-2,-1.1774721E-2],"split_indices":[5,1,6,4,4,1,7,0,0,0,0,0,0,0,0],"split_type":[0,0,0,0,0,0,0,0,0,0,0,0,0,0,0],"sum_hessian":[1.6074371E2,1.2058592E2,4.01578E1,1.14121346E2,6.4645743E0,1.205815E1,2.8099648E1,3.651113E1,7.7610214E1,5.180253E0,1.2843214E0,9.694071E0,2.3640792E0,9.245547E0,1.88541E1],"tree_param":{"num_deleted":"0","num_feature":"8","num_nodes":"15","size_leaf_vector":"1"}},{"base_weights":[-2.0293091E-4,2.027985E-2,-5.6970507E-1,2.1922985E-1,-6.523092E-2,-9.254119E-2,6.418419E-3,-1.3549729E-2,4.9609397E-2,-1.1415656E-2,5.985103E-2],"categories":[],"categories_nodes":[],"categories_segments":[],"categories_sizes":[],"default_left":[0,0,0,0,0,0,0,0,0,0,0],"id":20,"left_children":[1,3,5,7,9,-1,-1,-1,-1,-1,-1],"loss_changes":[1.8940177E0,2.6808248E0,1.3304172E0,4.717175E0,3.65325E0,0E0,0E0,0E0,0E0,0E0,0E0],"parents":[2147483647,0,0,1,1,2,2,3,3,4,4],"right_children":[2,4,6,8,10,-1,-1,-1,-1,-1,-1],"split_conditions":[7.233368E1,-5.542394E4,-1.0698048E-4,-1.1159323E5,6.783159E1,-9.254119E-2,6.418419E-3,-1.3549729E-2,4.9609397E-2,-1.1415656E-2,5.985103E-2],"split_indices":[4,6,0,6,1,0,0,0,0,0,0],"split_type":[0,0,0,0,0,0,0,0,0,0,0],"sum_hessian":[1.6037732E2,1.5574033E2,4.636985E0,4.6346485E1,1.09393845E2,2.6756494E0,1.9613355E0,2.0540255E1,2.580623E1,1.0265496E2,6.7388825E0],"tree_param":{"num_deleted":"0","num_feature":"8","num_nodes":"11","size_leaf_vector":"1"}},{"base_weights":[-3.4811394E-4,5.2844096E-2,-2.2278188E-1,9.624499E-3,4.1635495E-1,-3.9935243E-1,1.2927173E-1,6.9951224E-3,-4.617909E-2,-7.421806E-2,6.724178E-2,-1.6308963E-2,-8.857963E-2,1.1752273E-1,-1.4217476E-2],"categories":[],"categories_nodes":[],"categories_segments":[],"categories_sizes":[],"default_left":[0,0,0,0,0,0,0,0,0,0,0,0,0,0,0],"id":21,"left_children":[1,3,5,7,9,11,13,-1,-1,-1,-1,-1,-1,-1,-1],"loss_changes":[1.9194019E0,2.0528936E0,1.9977374E0,3.3890784E0,4.619139E0,2.2798831E0,3.3505733E0,0E0,0E0,0E0,0E0,0E0,0E0,0E0,0E0],"parents":[2147483647,0,0,1,1,2,2,3,3,4,4,5,5,6,6],"right_children":[2,4,6,8,10,12,14,-1,-1,-1,-1,-1,-1,-1,-1],"split_conditions":[6.4807497E-3,1.043651E2,1.4467938E1,9.084934E1,-1.5912496E-2,6.3295996E-1,1.5929152E1,6.9951224E-3,-4.617909E-2,-7.421806E-2,6.724178E-2,-1.6308963E-2,-8.857963E-2,1.1752273E-1,-1.4217476E-2],"split_indices":[5,3,2,3,0,7,2,0,0,0,0,0,0,0,0],"split_type":[0,0,0,0,0,0,0,0,0,0,0,0,0,0,0],"sum_hessian":[1.6022975E2,1.2992279E2,3.030696E1,1.1703447E2,1.2888329E1,2.0094381E1,1.0212577E1,1.0451178E2,1.252269E1,1.9893314E0,1.0898997E1,1.4424002E1,5.6703796E0,1.4182361E0,8.794341E0],"tree_param":{"num_deleted":"0","num_feature":"8","num_nodes":"15","size_leaf_vector":"1"}},{"base_weights":[-7.8976835E-4,-3.9493304E-2,2.8973764E-1,9.011113E-3,-8.7981254E-1,6.2572867E-1,-1.761643E-1,3.2926535E-3,-9.126733E-2,2.0609356E-2,-1.0792816E-1,-4.387325E-2,9.073768E-2,-5.2124854E-2,7.444013E-2],"categories":[],"categories_nodes":[],"categories_segments":[],"categories_sizes":[],"default_left":[0,0,0,0,0,0,0,0,0,0,0,0,0,0,0],"id":22,"left_children":[1,3,5,7,9,11,13,-1,-1,-1,-1,-1,-1,-1,-1],"loss_changes":[1.8209007E0,5.8317227E0,3.090313E0,3.0294912E0,1.9135671E0,3.780006E0,3.1698475E0,0E0,0E0,0E0,0E0,0E0,0E0,0E0,0E0],"parents":[2147483647,0,0,1,1,2,2,3,3,4,4,5,5,6,6],"right_children":[2,4,6,8,10,12,14,-1,-1,-1,-1,-1,-1,-1,-1],"split_conditions":[1.0663557E5,9.1707695E4,1.601018E-2,7.345932E1,2.8888416E-3,-2.391947E-2,6.4734886E1,3.2926535E-3,-9.126733E-2,2.0609356E-2,-1.0792816E-1,-4.387325E-2,9.073768E-2,-5.2124854E-2,7.444013E-2],"split_indices":[6,6,0,4,0,5,1,0,0,0,0,0,0,0,0],"split_type":[0,0,0,0,0,0,0,0,0,0,0,0,0,0,0],"sum_hessian":[1.5992029E2,1.4188297E2,1.8037329E1,1.3507549E2,6.8074718E0,1.0280423E1,7.7569046E0,1.3259915E2,2.4763424E0,1.0512534E0,5.7562184E0,2.0342908E0,8.246133E0,5.9574585E0,1.799446E0],"tree_param":{"num_deleted":"0","num_feature":"8","num_nodes":"15","size_leaf_vector":"1"}},{"base_weights":[-1.57663E-3,2.144695E-1,-5.207342E-2,8.9654885E-2,9.200064E-1,-1.01055264E-1,3.4116605E-1,2.2292985E-2,-3.4209218E-2,1.15160584E-1,2.352965E-2,-5.00462E-3,-1.0027005E-1,7.4403115E-2,-1.4441015E-2],"categories":[],"categories_nodes":[],"categories_segments":[],"categories_sizes":[],"default_left":[0,0,0,0,0,0,0,0,0,0,0,0,0,0,0],"id":23,"left_children":[1,3,5,7,9,11,13,-1,-1,-1,-1,-1,-1,-1,-1],"loss_changes":[1.7655768E0,2.6176076E0,2.5606594E0,1.6391101E0,4.4278073E-1,5.349106E0,2.9938931E0,0E0,0E0,0E0,0E0,0E0,0E0,0E0,0E0],"parents":[2147483647,0,0,1,1,2,2,3,3,4,4,5,5,6,6],"right_children":[2,4,6,8,10,12,14,-1,-1,-1,-1,-1,-1,-1,-1],"split_conditions":[-9.035281E-3,-9.921073E-3,1.0663557E5,7.787778E-3,7.374246E1,9.1707695E4,1.601018E-2,2.2292985E-2,-3.4209218E-2,1.15160584E-1,2.352965E-2,-5.00462E-3,-1.0027005E-1,7.4403115E-2,-1.4441015E-2],"split_indices":[5,5,6,0,3,6,0,0,0,0,0,0,0,0,0],"split_type":[0,0,0,0,0,0,0,0,0,0,0,0,0,0,0],"sum_hessian":[1.5981276E2,2.9661484E1,1.3015128E2,2.6160563E1,3.5009212E0,1.1639603E2,1.3755251E1,2.0359495E1,5.801067E0,2.1065152E0,1.3944058E0,1.1116269E2,5.233337E0,7.227003E0,6.5282483E0],"tree_param":{"num_deleted":"0","num_feature":"8","num_nodes":"15","size_leaf_vector":"1"}},{"base_weights":[-1.0599266E-3,1.292308E-1,-7.597182E-2,1.881609E-1,-8.689027E-2,-4.317377E-1,1.7695418E-2,5.1148976E-3,6.5049194E-2,2.098999E-2,-6.354653E-2,1.5430807E-2,-2.3234272E-2],"categories":[],"categories_nodes":[],"categories_segments":[],"categories_sizes":[],"default_left":[0,0,0,0,0,0,0,0,0,0,0,0,0],"id":24,"left_children":[1,3,5,7,-1,9,11,-1,-1,-1,-1,-1,-1],"loss_changes":[1.5767049E0,3.6324751E0,3.4253166E0,3.5463624E0,0E0,2.932627E0,2.8418286E0,0E0,0E0,0E0,0E0,0E0,0E0],"parents":[2147483647,0,0,1,1,2,2,3,3,5,5,6,6],"right_children":[2,4,6,8,-1,10,12,-1,-1,-1,-1,-1,-1],"split_conditions":[-4.2551996E4,6.92951E1,1.01181295E-5,-3.4826566E-3,-8.689027E-2,-5.079773E-3,2.2418692E-3,5.1148976E-3,6.5049194E-2,2.098999E-2,-6.354653E-2,1.5430807E-2,-2.3234272E-2],"split_indices":[6,4,0,0,0,0,5,0,0,0,0,0,0],"split_type":[0,0,0,0,0,0,0,0,0,0,0,0,0],"sum_hessian":[1.5953635E2,5.7976116E1,1.0156023E2,5.551026E1,2.4658551E0,2.0414152E1,8.114607E1,4.367716E1,1.1833105E1,4.9123793E0,1.5501774E1,5.272288E1,2.8423195E1],"tree_param":{"num_deleted":"0","num_feature":"8","num_nodes":"13","size_leaf_vector":"1"}},{"base_weights":[-1.6111308E-3,-3.10698E-2,3.4563765E-1,-5.591506E-3,-1.0012896E-1,1.3414997E-1,6.445583E-2,1.3555015E-2,-1.0387511E-2,4.4235047E-2,-3.290848E-2],"categories":[],"categories_nodes":[],"categories_segments":[],"categories_sizes":[],"default_left":[0,0,0,0,0,0,0,0,0,0,0],"id":25,"left_children":[1,3,5,7,-1,-1,9,-1,-1,-1,-1],"loss_changes":[1.6499022E0,3.6683636E0,3.4454687E0,2.036998E0,0E0,0E0,1.7645775E0,0E0,0E0,0E0,0E0],"parents":[2147483647,0,0,1,1,2,2,3,3,6,6],"right_children":[2,4,6,8,-1,-1,10,-1,-1,-1,-1],"split_conditions":[9.5003074E-1,9.0887773E-1,-7.778573E-4,-3.8855293E4,-1.0012896E-1,1.3414997E-1,1.0567377E0,1.3555015E-2,-1.0387511E-2,4.4235047E-2,-3.290848E-2],"split_indices":[7,7,5,6,0,0,7,0,0,0,0],"split_type":[0,0,0,0,0,0,0,0,0,0,0],"sum_hessian":[1.5923904E2,1.4762581E2,1.1613234E1,1.4482834E2,2.7974772E0,1.7267319E0,9.886501E0,5.9296097E1,8.553224E1,4.980236E0,4.9062653E0],"tree_param":{"num_deleted":"0","num_feature":"8","num_nodes":"11","size_leaf_vector":"1"}},{"base_weights":[-1.2371654E-3,2.9063571E-2,-2.975641E-1,-1.9382773E-2,4.5905188E-1,1.4752707E-1,-7.4328953E-1,9.054043E-2,-4.2132232E-3,7.217219E-2,-2.1247407E-2,8.893397E-2,-3.270267E-2,-1.0730044E-1,1.402457E-2],"categories":[],"categories_nodes":[],"categories_segments":[],"categories_sizes":[],"default_left":[0,0,0,0,0,0,0,0,0,0,0,0,0,0,0],"id":26,"left_children":[1,3,5,7,9,11,13,-1,-1,-1,-1,-1,-1,-1,-1],"loss_changes":[1.4454786E0,3.0521202E0,3.072393E0,2.8205824E0,2.7698157E0,3.2150512E0,2.372429E0,0E0,0E0,0E0,0E0,0E0,0E0,0E0,0E0],"parents":[2147483647,0,0,1,1,2,2,3,3,4,4,5,5,6,6],"right_children":[2,4,6,8,10,12,14,-1,-1,-1,-1,-1,-1,-1,-1],"split_conditions":[1.2516414E-2,1.05396095E2,8.031585E1,-3.1150682E1,4.9140812E1,5.0148827E1,2.5108846E-2,9.054043E-2,-4.2132232E-3,7.217219E-2,-2.1247407E-2,8.893397E-2,-3.270267E-2,-1.0730044E-1,1.402457E-2],"split_indices":[5,3,3,2,1,1,5,0,0,0,0,0,0,0,0],"split_type":[0,0,0,0,0,0,0,0,0,0,0,0,0,0,0],"sum_hessian":[1.5902252E2,1.450885E2,1.393402E1,1.3125505E2,1.383345E1,7.306718E0,6.627302E0,2.2197847E0,1.2903528E2,9.890136E0,3.9433143E0,2.5096424E0,4.7970757E0,4.6700892E0,1.957213E0],"tree_param":{"num_deleted":"0","num_feature":"8","num_nodes":"15","size_leaf_vector":"1"}},{"base_weights":[-6.335572E-4,-2.9181385E-2,3.360053E-1,-5.6719603E-3,-9.6079975E-2,1.258968E-1,7.211136E-2,8.4196584E-4,-7.913146E-2,-7.1194425E-2,2.589269E-2],"categories":[],"categories_nodes":[],"categories_segments":[],"categories_sizes":[],"default_left":[0,0,0,0,0,0,0,0,0,0,0],"id":27,"left_children":[1,3,5,7,-1,-1,9,-1,-1,-1,-1],"loss_changes":[1.5431436E0,3.2359934E0,2.966569E0,1.6159616E0,0E0,0E0,1.769524E0,0E0,0E0,0E0,0E0],"parents":[2147483647,0,0,1,1,2,2,3,3,6,6],"right_children":[2,4,6,8,-1,-1,10,-1,-1,-1,-1],"split_conditions":[9.5003074E-1,9.0887773E-1,-7.778573E-4,7.345932E1,-9.6079975E-2,1.258968E-1,-3.8855293E4,8.4196584E-4,-7.913146E-2,-7.1194425E-2,2.589269E-2],"split_indices":[7,7,5,4,0,0,6,0,0,0,0],"split_type":[0,0,0,0,0,0,0,0,0,0,0],"sum_hessian":[1.5855142E2,1.4699886E2,1.155256E1,1.4436197E2,2.6368916E0,1.7302651E0,9.822295E0,1.427901E2,1.5718606E0,1.3491273E0,8.473167E0],"tree_param":{"num_deleted":"0","num_feature":"8","num_nodes":"11","size_leaf_vector":"1"}},{"base_weights":[-1.233478E-3,-2.6181316E-1,3.2328174E-2,-4.311333E-1,4.3612108E-1,3.6896947E-1,-2.5125362E-2,5.913545E-2,-6.0644604E-2,1.097489E-1,-4.2026974E-2,1.4429929E-2,1.6707753E-1,1.4742765E-2,-1.2869067E-2],"categories":[],"categories_nodes":[],"categories_segments":[],"categories_sizes":[],"default_left":[0,0,0,0,0,0,0,0,0,0,0,0,0,0,0],"id":28,"left_children":[1,3,5,7,9,11,13,-1,-1,-1,-1,-1,-1,-1,-1],"loss_changes":[1.4025673E0,2.3504353E0,2.7578511E0,3.0884657E0,2.7662551E0,5.836988E0,2.2050445E0,0E0,0E0,0E0,0E0,0E0,0E0,0E0,0E0],"parents":[2147483647,0,0,1,1,2,2,3,3,4,4,5,5,6,6],"right_children":[2,4,6,8,10,12,14,-1,-1,-1,-1,-1,-1,-1,-1],"split_conditions":[5.223039E1,3.5089688E0,6.062136E1,1.4726096E-1,6.9915396E-1,5.982578E1,4.2843163E1,5.913545E-2,-6.0644604E-2,1.097489E-1,-4.2026974E-2,1.4429929E-2,1.6707753E-1,1.4742765E-2,-1.2869067E-2],"split_indices":[3,2,3,7,7,3,4,0,0,0,0,0,0,0,0],"split_type":[0,0,0,0,0,0,0,0,0,0,0,0,0,0,0],"sum_hessian":[1.5840837E2,1.729847E1,1.411099E2,1.42288065E1,3.069662E0,1.9781397E1,1.213285E2,1.7352215E0,1.2493586E1,1.5731963E0,1.4964659E0,1.7817274E1,1.9641224E0,4.5348534E1,7.5979965E1],"tree_param":{"num_deleted":"0","num_feature":"8","num_nodes":"15","size_leaf_vector":"1"}},{"base_weights":[2.5807117E-4,-2.6457185E-2,3.1506065E-1,-4.711261E-3,-9.2311144E-2,-5.8789313E-2,5.313472E-1,1.1759915E-2,-9.074687E-3,7.925173E-2,-4.5087524E-2],"categories":[],"categories_nodes":[],"categories_segments":[],"categories_sizes":[],"default_left":[0,0,0,0,0,0,0,0,0,0,0],"id":29,"left_children":[1,3,5,7,-1,-1,9,-1,-1,-1,-1],"loss_changes":[1.345981E0,2.8723555E0,2.757382E0,1.5369971E0,0E0,0E0,3.083029E0,0E0,0E0,0E0,0E0],"parents":[2147483647,0,0,1,1,2,2,3,3,6,6],"right_children":[2,4,6,8,-1,-1,10,-1,-1,-1,-1],"split_conditions":[9.5003074E-1,9.0887773E-1,5.8177242E1,-3.8855293E4,-9.2311144E-2,-5.8789313E-2,1.8592698E-2,1.1759915E-2,-9.074687E-3,7.925173E-2,-4.5087524E-2],"split_indices":[7,7,3,6,0,0,5,0,0,0,0],"split_type":[0,0,0,0,0,0,0,0,0,0,0],"sum_hessian":[1.5805353E2,1.4653409E2,1.1519443E1,1.440459E2,2.4881897E0,1.894047E0,9.625396E0,5.933165E1,8.471425E1,7.756187E0,1.8692089E0],"tree_param":{"num_deleted":"0","num_feature":"8","num_nodes":"11","size_leaf_vector":"1"}},{"base_weights":[-5.951634E-4,-3.2926515E-2,2.4013117E-1,7.989933E-3,-7.904634E-1,5.097954E-1,-1.5149811E-1,-3.2065425E-3,4.25894E-2,1.9898124E-2,-9.891235E-2,-4.169784E-2,7.502415E-2,-4.744966E-2,6.804469E-2],"categories":[],"categories_nodes":[],"categories_segments":[],"categories_sizes":[],"default_left":[0,0,0,0,0,0,0,0,0,0,0,0,0,0,0],"id":30,"left_children":[1,3,5,7,9,11,13,-1,-1,-1,-1,-1,-1,-1,-1],"loss_changes":[1.2444731E0,4.375085E0,2.0766938E0,2.2686856E0,1.6185212E0,2.8624284E0,2.6046457E0,0E0,0E0,0E0,0E0,0E0,0E0,0E0,0E0],"parents":[2147483647,0,0,1,1,2,2,3,3,4,4,5,5,6,6],"right_children":[2,4,6,8,10,12,14,-1,-1,-1,-1,-1,-1,-1,-1],"split_conditions":[1.0663557E5,9.1707695E4,1.601018E-2,1.043651E2,2.8888416E-3,-2.391947E-2,6.4734886E1,-3.2065425E-3,4.25894E-2,1.9898124E-2,-9.891235E-2,-4.169784E-2,7.502415E-2,-4.744966E-2,6.804469E-2],"split_indices":[6,6,0,3,0,5,1,0,0,0,0,0,0,0,0],"split_type":[0,0,0,0,0,0,0,0,0,0,0,0,0,0,0],"sum_hessian":[1.5788028E2,1.399475E2,1.793278E1,1.3371469E2,6.2328095E0,1.0441407E1,7.491371E0,1.2286186E2,1.0852819E1,1.0419028E0,5.1909065E0,1.9996775E0,8.44173E0,5.7057834E0,1.7855879E0],"tree_param":{"num_deleted":"0","num_feature":"8","num_nodes":"15","size_leaf_vector":"1"}},{"base_weights":[-5.8832165E-4,-4.0054694E-1,1.9359026E-2,-1.11193076E-1,-1.7135523E-2,6.2412924E-1,-4.635323E-3,5.6594055E-2,-6.264847E-2,8.633582E-2,-2.4895985E-2,-5.2343823E-2,3.5740267E-3],"categories":[],"categories_nodes":[],"categories_segments":[],"categories_sizes":[],"default_left":[0,0,0,0,0,0,0,0,0,0,0,0,0],"id":31,"left_children":[1,3,5,-1,7,9,11,-1,-1,-1,-1,-1,-1],"loss_changes":[1.2730917E0,2.048504E0,2.2088761E0,0E0,2.4654644E0,1.4281838E0,3.1023552E0,0E0,0E0,0E0,0E0,0E0,0E0],"parents":[2147483647,0,0,1,1,2,2,4,4,5,5,6,6],"right_children":[2,4,6,-1,8,10,12,-1,-1,-1,-1,-1,-1],"split_conditions":[2.6930866E1,-9.808152E-3,-1.944747E5,-1.11193076E-1,-9.808152E-3,-2.935667E-2,-1.2984957E5,5.6594055E-2,-6.264847E-2,8.633582E-2,-2.4895985E-2,-5.2343823E-2,3.5740267E-3],"split_indices":[4,0,6,0,5,7,6,0,0,0,0,0,0],"split_type":[0,0,0,0,0,0,0,0,0,0,0,0,0],"sum_hessian":[1.5760107E2,6.58034E0,1.5102074E2,1.6390812E0,4.941259E0,4.8086514E0,1.4621208E2,2.561469E0,2.3797896E0,3.783191E0,1.0254602E0,9.693393E0,1.3651869E2],"tree_param":{"num_deleted":"0","num_feature":"8","num_nodes":"13","size_leaf_vector":"1"}},{"base_weights":[-1.2527006E-3,-5.062901E-2,1.5320182E-1,7.5451E-2,-2.6698038E-1,3.8041055E-1,-3.1793994E-1,1.2499831E-2,-9.913397E-2,-4.5509282E-2,8.994055E-3,1.1252542E-2,1.6503888E-1,1.6665936E-2,-9.882205E-2],"categories":[],"categories_nodes":[],"categories_segments":[],"categories_sizes":[],"default_left":[0,0,0,0,0,0,0,0,0,0,0,0,0,0,0],"id":32,"left_children":[1,3,5,7,9,11,13,-1,-1,-1,-1,-1,-1,-1,-1],"loss_changes":[1.2171793E0,3.318545E0,4.2598324E0,4.20328E0,3.0449588E0,8.8433895E0,4.427627E0,0E0,0E0,0E0,0E0,0E0,0E0,0E0,0E0],"parents":[2147483647,0,0,1,1,2,2,3,3,4,4,5,5,6,6],"right_children":[2,4,6,8,10,12,14,-1,-1,-1,-1,-1,-1,-1,-1],"split_conditions":[5.5453403E1,4.6350838E1,6.877965E1,5.0078274E1,6.6829985E-1,7.787778E-3,6.4384514E1,1.2499831E-2,-9.913397E-2,-4.5509282E-2,8.994055E-3,1.1252542E-2,1.6503888E-1,1.6665936E-2,-9.882205E-2],"split_indices":[4,4,3,1,7,0,1,0,0,0,0,0,0,0,0],"split_type":[0,0,0,0,0,0,0,0,0,0,0,0,0,0,0],"sum_hessian":[1.5758385E2,1.1991985E2,3.7663998E1,7.617796E1,4.3741894E1,2.5539915E1,1.2124081E1,7.364054E1,2.5374215E0,2.8464724E1,1.5277169E1,2.1990017E1,3.5498989E0,7.4727745E0,4.6513066E0],"tree_param":{"num_deleted":"0","num_feature":"8","num_nodes":"15","size_leaf_vector":"1"}},{"base_weights":[-1.6226681E-3,-2.4684691E-1,2.9879099E-2,-1.2563397E-3,-7.3138E-1,3.1942263E-1,-4.5726422E-2,-2.8846059E-2,7.32949E-2,-4.5512146E-3,-1.0573498E-1,4.2918485E-2,-7.056208E-2,-2.7237875E-2,7.7051567E-3],"categories":[],"categories_nodes":[],"categories_segments":[],"categories_sizes":[],"default_left":[0,0,0,0,0,0,0,0,0,0,0,0,0,0,0],"id":33,"left_children":[1,3,5,7,9,11,13,-1,-1,-1,-1,-1,-1,-1,-1],"loss_changes":[1.230677E0,2.1570673E0,3.106096E0,2.9604073E0,1.3152807E0,3.6068027E0,3.161527E0,0E0,0E0,0E0,0E0,0E0,0E0,0E0,0E0],"parents":[2147483647,0,0,1,1,2,2,3,3,4,4,5,5,6,6],"right_children":[2,4,6,8,10,12,14,-1,-1,-1,-1,-1,-1,-1,-1],"split_conditions":[3.349731E1,3.0683262E1,4.1843708E1,2.8861755E1,-1.699415E1,8.485263E0,4.6205437E-1,-2.8846059E-2,7.32949E-2,-4.5512146E-3,-1.0573498E-1,4.2918485E-2,-7.056208E-2,-2.7237875E-2,7.7051567E-3],"split_indices":[4,4,4,4,2,2,7,0,0,0,0,0,0,0,0],"split_type":[0,0,0,0,0,0,0,0,0,0,0,0,0,0,0],"sum_hessian":[1.5735623E2,1.7134832E1,1.4022139E2,1.2036568E1,5.0982656E0,2.8365662E1,1.1185573E2,9.088476E0,2.9480915E0,2.009574E0,3.0886915E0,2.6147116E1,2.2185469E0,3.887419E1,7.2981544E1],"tree_param":{"num_deleted":"0","num_feature":"8","num_nodes":"15","size_leaf_vector":"1"}},{"base_weights":[-2.3392846E-3,2.4480337E-2,-2.6972708E-1,-5.9404696E-4,7.2805744E-1,-9.686413E-2,1.0767006E-2,3.3312787E-3,-6.3136175E-2,1.3238293E-1,1.5612121E-2,6.910386E-2,-4.8970357E-2],"categories":[],"categories_nodes":[],"categories_segments":[],"categories_sizes":[],"default_left":[0,0,0,0,0,0,0,0,0,0,0,0,0],"id":34,"left_children":[1,3,5,7,9,-1,11,-1,-1,-1,-1,-1,-1],"loss_changes":[1.1407942E0,2.5524466E0,2.8531742E0,3.029777E0,1.4898083E0,0E0,4.198106E0,0E0,0E0,0E0,0E0,0E0,0E0],"parents":[2147483647,0,0,1,1,2,2,3,3,4,4,6,6],"right_children":[2,4,6,8,10,-1,12,-1,-1,-1,-1,-1,-1],"split_conditions":[1.2516414E-2,1.0663683E-2,-4.2081437E0,7.9501225E-3,-7.394645E4,-9.686413E-2,5.0222363E1,3.3312787E-3,-6.3136175E-2,1.3238293E-1,1.5612121E-2,6.910386E-2,-4.8970357E-2],"split_indices":[5,5,2,5,6,0,1,0,0,0,0,0,0],"split_type":[0,0,0,0,0,0,0,0,0,0,0,0,0],"sum_hessian":[1.5715831E2,1.4365756E2,1.3500743E1,1.3967879E2,3.978777E0,3.163881E0,1.0336862E1,1.3345227E2,6.226522E0,1.3048755E0,2.6739016E0,4.219996E0,6.116866E0],"tree_param":{"num_deleted":"0","num_feature":"8","num_nodes":"13","size_leaf_vector":"1"}},{"base_weights":[-2.2097505E-3,-3.0906238E-2,2.3976512E-1,2.3135703E-2,-3.9955777E-1,3.9642042E-1,-5.6482106E-1,-1.838168E-3,4.4632997E-2,3.7598476E-2,-6.507701E-2,6.932247E-2,-9.745633E-3,-6.882331E-2,-1.4965281E-2],"categories":[],"categories_nodes":[],"categories_segments":[],"categories_sizes":[],"default_left":[0,0,0,0,0,0,0,0,0,0,0,0,0,0,0],"id":35,"left_children":[1,3,5,7,9,11,13,-1,-1,-1,-1,-1,-1,-1,-1],"loss_changes":[1.104098E0,2.8398218E0,2.3488114E0,2.2019625E0,3.7943387E0,2.2221682E0,5.8906317E-2,0E0,0E0,0E0,0E0,0E0,0E0,0E0,0E0],"parents":[2147483647,0,0,1,1,2,2,3,3,4,4,5,5,6,6],"right_children":[2,4,6,8,10,12,14,-1,-1,-1,-1,-1,-1,-1,-1],"split_conditions":[1.05396095E2,9.012503E1,1.2320875E-2,8.5629814E1,-1.1605195E-2,7.463213E4,1.3248334E5,-1.838168E-3,4.4632997E-2,3.7598476E-2,-6.507701E-2,6.932247E-2,-9.745633E-3,-6.882331E-2,-1.4965281E-2],"split_indices":[3,3,5,3,0,6,6,0,0,0,0,0,0,0,0],"split_type":[0,0,0,0,0,0,0,0,0,0,0,0,0,0,0],"sum_hessian":[1.5693703E2,1.4107841E2,1.5858616E1,1.23858765E2,1.7219656E1,1.3698731E1,2.1598842E0,1.13664314E2,1.0194449E1,4.0915484E0,1.3128107E1,8.304407E0,5.3943243E0,1.1579527E0,1.0019315E0],"tree_param":{"num_deleted":"0","num_feature":"8","num_nodes":"15","size_leaf_vector":"1"}},{"base_weights":[-2.1703052E-3,-2.8991241E-2,2.5829434E-1,1.5146808E-2,-4.0606418E-1,9.771501E-1,3.2602224E-2,-2.7306092E-3,5.3069808E-2,1.3339385E-2,-6.481131E-2,3.6139188E-3,1.4219318E-1,2.5495756E-2,-8.723652E-2],"categories":[],"categories_nodes":[],"categories_segments":[],"categories_sizes":[],"default_left":[0,0,0,0,0,0,0,0,0,0,0,0,0,0,0],"id":36,"left_children":[1,3,5,7,9,11,13,-1,-1,-1,-1,-1,-1,-1,-1],"loss_changes":[1.1091199E0,2.4006221E0,2.3730521E0,2.8544676E0,2.0596943E0,1.4165974E0,2.7006536E0,0E0,0E0,0E0,0E0,0E0,0E0,0E0,0E0],"parents":[2147483647,0,0,1,1,2,2,3,3,4,4,5,5,6,6],"right_children":[2,4,6,8,10,12,14,-1,-1,-1,-1,-1,-1,-1,-1],"split_conditions":[1.2299698E5,8.29656E4,6.932989E1,6.922171E4,-3.5878753E-3,6.2330074E1,5.2211346E1,-2.7306092E-3,5.3069808E-2,1.3339385E-2,-6.481131E-2,3.6139188E-3,1.4219318E-1,2.5495756E-2,-8.723652E-2],"split_indices":[6,6,3,6,5,1,4,0,0,0,0,0,0,0,0],"split_type":[0,0,0,0,0,0,0,0,0,0,0,0,0,0,0],"sum_hessian":[1.5669345E2,1.428703E2,1.3823151E1,1.2875839E2,1.4111907E1,2.5073564E0,1.1315795E1,1.19837456E2,8.92094E0,4.5097823E0,9.602125E0,1.1517937E0,1.3555626E0,9.660441E0,1.6553531E0],"tree_param":{"num_deleted":"0","num_feature":"8","num_nodes":"15","size_leaf_vector":"1"}},{"base_weights":[-1.5421555E-3,-3.772268E-1,1.7080404E-2,-1.07039884E-1,-5.6323195E-3,8.4830694E-2,2.2383025E-3,5.24563E-2,-5.742081E-2,-3.224136E-3,3.266861E-2],"categories":[],"categories_nodes":[],"categories_segments":[],"categories_sizes":[],"default_left":[0,0,0,0,0,0,0,0,0,0,0],"id":37,"left_children":[1,3,5,-1,7,-1,9,-1,-1,-1,-1],"loss_changes":[1.1080593E0,1.92063E0,1.860753E0,0E0,2.0721893E0,0E0,1.6811011E0,0E0,0E0,0E0,0E0],"parents":[2147483647,0,0,1,1,2,2,4,4,6,6],"right_children":[2,4,6,-1,8,-1,10,-1,-1,-1,-1],"split_conditions":[2.6930866E1,-9.808152E-3,-2.3873253E-1,-1.07039884E-1,-9.808152E-3,8.4830694E-2,1.05396095E2,5.24563E-2,-5.742081E-2,-3.224136E-3,3.266861E-2],"split_indices":[4,0,7,0,5,0,3,0,0,0,0],"split_type":[0,0,0,0,0,0,0,0,0,0,0],"sum_hessian":[1.56459E2,6.4798784E0,1.4997913E2,1.6051245E0,4.874754E0,1.6458955E0,1.4833322E2,2.5625715E0,2.3121822E0,1.34898E2,1.3435231E1],"tree_param":{"num_deleted":"0","num_feature":"8","num_nodes":"11","size_leaf_vector":"1"}},{"base_weights":[-1.4120375E-3,-4.8214193E-2,1.4376386E-1,6.392791E-2,-2.4330607E-1,4.801587E-1,-1.353257E-1,1.1036679E-2,-9.607323E-2,-2.9714966E-2,8.450679E-2,-5.3825863E-2,6.372126E-2,1.4547385E-2,-4.7214087E-2],"categories":[],"categories_nodes":[],"categories_segments":[],"categories_sizes":[],"default_left":[0,0,0,0,0,0,0,0,0,0,0,0,0,0,0],"id":38,"left_children":[1,3,5,7,9,11,13,-1,-1,-1,-1,-1,-1,-1,-1],"loss_changes":[1.0759171E0,2.6348662E0,3.6895192E0,3.7612367E0,2.8241963E0,3.1781726E0,2.1380997E0,0E0,0E0,0E0,0E0,0E0,0E0,0E0,0E0],"parents":[2147483647,0,0,1,1,2,2,3,3,4,4,5,5,6,6],"right_children":[2,4,6,8,10,12,14,-1,-1,-1,-1,-1,-1,-1,-1],"split_conditions":[5.5453403E1,4.6350838E1,6.480985E1,5.0078274E1,2.5108846E-2,4.668273E1,6.493673E1,1.1036679E-2,-9.607323E-2,-2.9714966E-2,8.450679E-2,-5.3825863E-2,6.372126E-2,1.4547385E-2,-4.7214087E-2],"split_indices":[4,4,3,1,5,3,4,0,0,0,0,0,0,0,0],"split_type":[0,0,0,0,0,0,0,0,0,0,0,0,0,0,0],"sum_hessian":[1.5632999E2,1.187235E2,3.760648E1,7.581569E1,4.2907818E1,1.672586E1,2.0880617E1,7.33822E1,2.433484E0,4.157787E1,1.3299457E0,1.910431E0,1.481543E1,1.1697017E1,9.183599E0],"tree_param":{"num_deleted":"0","num_feature":"8","num_nodes":"15","size_leaf_vector":"1"}},{"base_weights":[-1.8333275E-3,-2.3688667E-1,2.8138671E-2,-5.1128995E-3,-7.006753E-1,2.7881002E-1,-3.793898E-2,-2.9927814E-2,6.134344E-2,-5.7897093E-3,-1.015962E-1,3.6396336E-2,-7.984402E-2,6.3073984E-3,-3.2011043E-2],"categories":[],"categories_nodes":[],"categories_segments":[],"categories_sizes":[],"default_left":[0,0,0,0,0,0,0,0,0,0,0,0,0,0,0],"id":39,"left_children":[1,3,5,7,9,11,13,-1,-1,-1,-1,-1,-1,-1,-1],"loss_changes":[1.1135248E0,1.9177846E0,2.333451E0,2.5354545E0,1.1467271E0,2.985226E0,3.2086186E0,0E0,0E0,0E0,0E0,0E0,0E0,0E0,0E0],"parents":[2147483647,0,0,1,1,2,2,3,3,4,4,5,5,6,6],"right_children":[2,4,6,8,10,12,14,-1,-1,-1,-1,-1,-1,-1,-1],"split_conditions":[3.349731E1,3.0683262E1,4.1843708E1,1.6395473E-1,-1.699415E1,9.826971E0,8.135872E1,-2.9927814E-2,6.134344E-2,-5.7897093E-3,-1.015962E-1,3.6396336E-2,-7.984402E-2,6.3073984E-3,-3.2011043E-2],"split_indices":[4,4,4,7,2,2,3,0,0,0,0,0,0,0,0],"split_type":[0,0,0,0,0,0,0,0,0,0,0,0,0,0,0],"sum_hessian":[1.5611232E2,1.6874174E1,1.3923814E2,1.1925532E1,4.948642E0,2.837514E1,1.1086301E2,8.431762E0,3.4937704E0,2.0180516E0,2.93059E0,2.6910114E1,1.4650247E0,8.2209694E1,2.8653316E1],"tree_param":{"num_deleted":"0","num_feature":"8","num_nodes":"15","size_leaf_vector":"1"}},{"base_weights":[-2.7196761E-3,-7.109343E-2,9.647566E-2,-1.006802E-1,9.768544E-2,3.2584527E-1,-7.7048086E-2,6.186884E-3,-3.358721E-2,5.1663984E-3,1.1395057E-1,7.191549E-2,-2.1627974E-2],"categories":[],"categories_nodes":[],"categories_segments":[],"categories_sizes":[],"default_left":[0,0,0,0,0,0,0,0,0,0,0,0,0],"id":40,"left_children":[1,3,5,7,-1,9,11,-1,-1,-1,-1,-1,-1],"loss_changes":[1.0714167E0,2.9970675E0,2.591045E0,3.5314715E0,0E0,6.1782246E0,4.3139277E0,0E0,0E0,0E0,0E0,0E0,0E0],"parents":[2147483647,0,0,1,1,2,2,3,3,5,5,6,6],"right_children":[2,4,6,8,-1,10,12,-1,-1,-1,-1,-1,-1],"split_conditions":[4.297058E0,8.06597E-1,7.025011E-1,4.451531E1,9.768544E-2,5.349015E1,-5.5770553E-3,6.186884E-3,-3.358721E-2,5.1663984E-3,1.1395057E-1,7.191549E-2,-2.1627974E-2],"split_indices":[2,7,7,1,0,4,5,0,0,0,0,0,0],"split_type":[0,0,0,0,0,0,0,0,0,0,0,0,0],"sum_hessian":[1.5595987E2,9.249077E1,6.34691E1,9.083028E1,1.6604898E0,2.6957693E1,3.651141E1,5.4145462E1,3.668481E1,2.0958687E1,5.9990067E0,4.814468E0,3.1696941E1],"tree_param":{"num_deleted":"0","num_feature":"8","num_nodes":"13","size_leaf_vector":"1"}},{"base_weights":[-1.1378676E-3,-2.5223369E-2,2.8128195E-1,-5.4724785E-3,-8.764461E-2,1.0842569E-1,5.4542765E-2,7.3037256E-4,-7.441511E-2,-6.851554E-2,2.2331266E-2],"categories":[],"categories_nodes":[],"categories_segments":[],"categories_sizes":[],"default_left":[0,0,0,0,0,0,0,0,0,0,0],"id":41,"left_children":[1,3,5,7,-1,-1,9,-1,-1,-1,-1],"loss_changes":[1.0721762E0,2.4362316E0,2.1959999E0,1.35411E0,0E0,0E0,1.4902669E0,0E0,0E0,0E0,0E0],"parents":[2147483647,0,0,1,1,2,2,3,3,6,6],"right_children":[2,4,6,8,-1,-1,10,-1,-1,-1,-1],"split_conditions":[9.5003074E-1,9.0887773E-1,-7.778573E-4,7.345932E1,-8.764461E-2,1.0842569E-1,-3.8855293E4,7.3037256E-4,-7.441511E-2,-6.851554E-2,2.2331266E-2],"split_indices":[7,7,5,4,0,0,6,0,0,0,0],"split_type":[0,0,0,0,0,0,0,0,0,0,0],"sum_hessian":[1.5557843E2,1.4419205E2,1.1386387E1,1.4190584E2,2.2862072E0,1.6744671E0,9.71192E0,1.4046645E2,1.4393986E0,1.2358104E0,8.4761095E0],"tree_param":{"num_deleted":"0","num_feature":"8","num_nodes":"11","size_leaf_vector":"1"}},{"base_weights":[-1.7125765E-3,-2.2602768E-1,2.6799966E-2,-8.681996E-3,-6.70458E-1,5.088216E-1,-3.245113E-3,-4.7557496E-2,3.8223155E-2,-6.1653177E-3,-1.0024723E-1,-3.6854245E-2,8.4254935E-2,-8.501746E-2,2.5966405E-3],"categories":[],"categories_nodes":[],"categories_segments":[],"categories_sizes":[],"default_left":[0,0,0,0,0,0,0,0,0,0,0,0,0,0,0],"id":42,"left_children":[1,3,5,7,9,11,13,-1,-1,-1,-1,-1,-1,-1,-1],"loss_changes":[1.0064507E0,1.7083113E0,2.0243855E0,2.5417943E0,1.1135945E0,2.711855E0,3.2993312E0,0E0,0E0,0E0,0E0,0E0,0E0,0E0,0E0],"parents":[2147483647,0,0,1,1,2,2,3,3,4,4,5,5,6,6],"right_children":[2,4,6,8,10,12,14,-1,-1,-1,-1,-1,-1,-1,-1],"split_conditions":[3.349731E1,3.0683262E1,3.551184E1,8.05424E1,-4.2372947E-3,3.510005E1,-2.5558086E-2,-4.7557496E-2,3.8223155E-2,-6.1653177E-3,-1.0024723E-1,-3.6854245E-2,8.4254935E-2,-8.501746E-2,2.5966405E-3],"split_indices":[4,4,1,3,0,4,0,0,0,0,0,0,0,0,0],"split_type":[0,0,0,0,0,0,0,0,0,0,0,0,0,0,0],"sum_hessian":[1.5541422E2,1.6745556E1,1.3866867E2,1.193054E1,4.8150153E0,7.2012773E0,1.3146739E2,5.3382063E0,6.5923333E0,2.1176453E0,2.69737E0,1.9556335E0,5.245644E0,3.4462478E0,1.2802113E2],"tree_param":{"num_deleted":"0","num_feature":"8","num_nodes":"15","size_leaf_vector":"1"}},{"base_weights":[-2.6164767E-3,-2.3671931E-1,2.5012804E-2,5.1186216E-1,-4.0791905E-1,3.3093467E-1,-3.1566422E-2,-1.5649166E-2,8.934646E-2,-8.305705E-2,1.33080855E-2,7.5441316E-2,-1.2818031E-2,-3.2614652E-2,4.3066125E-3],"categories":[],"categories_nodes":[],"categories_segments":[],"categories_sizes":[],"default_left":[0,0,0,0,0,0,0,0,0,0,0,0,0,0,0],"id":43,"left_children":[1,3,5,7,9,11,13,-1,-1,-1,-1,-1,-1,-1,-1],"loss_changes":[1.0163952E0,2.3345528E0,2.444713E0,1.0403523E0,3.3245559E0,4.381402E0,2.6434731E0,0E0,0E0,0E0,0E0,0E0,0E0,0E0,0E0],"parents":[2147483647,0,0,1,1,2,2,3,3,4,4,5,5,6,6],"right_children":[2,4,6,8,10,12,14,-1,-1,-1,-1,-1,-1,-1,-1],"split_conditions":[-1.2984957E5,-3.117397E-2,-7.240259E-3,-2.3123669E1,-1.1144759E-3,4.9567196E1,-2.5640153E-3,-1.5649166E-2,8.934646E-2,-8.305705E-2,1.33080855E-2,7.5441316E-2,-1.2818031E-2,-3.2614652E-2,4.3066125E-3],"split_indices":[6,5,0,2,5,4,0,0,0,0,0,0,0,0,0],"split_type":[0,0,0,0,0,0,0,0,0,0,0,0,0,0,0],"sum_hessian":[1.5522444E2,1.5587118E1,1.3963731E2,2.5308716E0,1.3056247E1,2.1037773E1,1.1859954E2,1.1342354E0,1.3966362E0,7.0293655E0,6.026881E0,1.0609029E1,1.0428745E1,2.3292465E1,9.5307076E1],"tree_param":{"num_deleted":"0","num_feature":"8","num_nodes":"15","size_leaf_vector":"1"}},{"base_weights":[-2.2457747E-3,-1.8850285E-1,3.168377E-2,-1.9330563E-2,-8.739012E-1,6.657556E-1,1.0570955E-2,2.0778222E-2,-6.610755E-2,-1.0266715E-1,-1.5704004E-2,1.08337216E-1,-2.3676353E-2,-8.48311E-2,2.6576363E-3],"categories":[],"categories_nodes":[],"categories_segments":[],"categories_sizes":[],"default_left":[0,0,0,0,0,0,0,0,0,0,0,0,0,0,0],"id":44,"left_children":[1,3,5,7,9,11,13,-1,-1,-1,-1,-1,-1,-1,-1],"loss_changes":[9.9222463E-1,2.7882013E0,1.7716959E0,3.114372E0,3.6077595E-1,1.8641957E0,1.8041838E0,0E0,0E0,0E0,0E0,0E0,0E0,0E0,0E0],"parents":[2147483647,0,0,1,1,2,2,3,3,4,4,5,5,6,6],"right_children":[2,4,6,8,10,12,14,-1,-1,-1,-1,-1,-1,-1,-1],"split_conditions":[-1.9765732E1,4.3438168E1,-1.7217552E1,6.305814E-3,2.781372E-3,4.6040318E1,2.6930866E1,2.0778222E-2,-6.610755E-2,-1.0266715E-1,-1.5704004E-2,1.08337216E-1,-2.3676353E-2,-8.48311E-2,2.6576363E-3],"split_indices":[2,4,2,0,5,4,1,0,0,0,0,0,0,0,0],"split_type":[0,0,0,0,0,0,0,0,0,0,0,0,0,0,0],"sum_hessian":[1.55062E2,2.3192188E1,1.3186981E2,1.942568E1,3.7665074E0,3.2654917E0,1.2860432E2,1.484742E1,4.5782614E0,2.7485807E0,1.0179266E0,2.0954785E0,1.1700132E0,1.4013906E0,1.2720293E2],"tree_param":{"num_deleted":"0","num_feature":"8","num_nodes":"15","size_leaf_vector":"1"}},{"base_weights":[-3.1462195E-3,-3.25948E-2,2.1752633E-1,4.516358E-3,-7.465447E-1,-2.9081288E-1,3.956392E-1,2.2188067E-3,-7.9230815E-2,1.6959703E-2,-9.4034806E-2,2.4464773E-2,-7.6655455E-2,7.733532E-2,-3.4807324E-3],"categories":[],"categories_nodes":[],"categories_segments":[],"categories_sizes":[],"default_left":[0,0,0,0,0,0,0,0,0,0,0,0,0,0,0],"id":45,"left_children":[1,3,5,7,9,11,13,-1,-1,-1,-1,-1,-1,-1,-1],"loss_changes":[1.0208222E0,3.6729517E0,1.7897837E0,1.88544E0,1.3756063E0,1.5569409E0,2.3228E0,0E0,0E0,0E0,0E0,0E0,0E0,0E0,0E0],"parents":[2147483647,0,0,1,1,2,2,3,3,4,4,5,5,6,6],"right_children":[2,4,6,8,10,12,14,-1,-1,-1,-1,-1,-1,-1,-1],"split_conditions":[1.0663557E5,9.1707695E4,1.9901398E-1,7.345932E1,2.8888416E-3,6.305814E-3,5.3110973E1,2.2188067E-3,-7.9230815E-2,1.6959703E-2,-9.4034806E-2,2.4464773E-2,-7.6655455E-2,7.733532E-2,-3.4807324E-3],"split_indices":[6,6,7,4,0,0,1,0,0,0,0,0,0,0,0],"split_type":[0,0,0,0,0,0,0,0,0,0,0,0,0,0,0],"sum_hessian":[1.5499492E2,1.3749818E2,1.7496733E1,1.3164874E2,5.8494353E0,4.375678E0,1.3121055E1,1.297435E2,1.9052536E0,1.0431563E0,4.806279E0,2.287165E0,2.0885134E0,6.5642967E0,6.5567575E0],"tree_param":{"num_deleted":"0","num_feature":"8","num_nodes":"15","size_leaf_vector":"1"}},{"base_weights":[-3.8227988E-3,-4.9466725E-2,1.3742763E-1,-1.0262679E-1,3.1452218E-1,9.856999E-1,4.158786E-2,7.980439E-2,-1.2994672E-2,7.065644E-2,-1.9500745E-2,1.411732E-1,5.07132E-3,-3.54329E-2,3.028374E-2],"categories":[],"categories_nodes":[],"categories_segments":[],"categories_sizes":[],"default_left":[0,0,0,0,0,0,0,0,0,0,0,0,0,0,0],"id":46,"left_children":[1,3,5,7,9,11,13,-1,-1,-1,-1,-1,-1,-1,-1],"loss_changes":[1.0115132E0,2.3254707E0,3.0746512E0,2.6667964E0,3.2038467E0,1.460521E0,3.7768354E0,0E0,0E0,0E0,0E0,0E0,0E0,0E0,0E0],"parents":[2147483647,0,0,1,1,2,2,3,3,4,4,5,5,6,6],"right_children":[2,4,6,8,10,12,14,-1,-1,-1,-1,-1,-1,-1,-1],"split_conditions":[5.5453403E1,1.043651E2,-7.8480086E0,-3.1150682E1,7.463213E4,6.452522E1,9.045237E0,7.980439E-2,-1.2994672E-2,7.065644E-2,-1.9500745E-2,1.411732E-1,5.07132E-3,-3.54329E-2,3.028374E-2],"split_indices":[4,3,2,2,6,3,2,0,0,0,0,0,0,0,0],"split_type":[0,0,0,0,0,0,0,0,0,0,0,0,0,0,0],"sum_hessian":[1.5483685E2,1.17513214E2,3.7323643E1,1.0316427E2,1.4348947E1,2.8463035E0,3.447734E1,2.2066138E0,1.0095766E2,7.8908615E0,6.458085E0,1.6050556E0,1.241248E0,1.3564465E1,2.0912874E1],"tree_param":{"num_deleted":"0","num_feature":"8","num_nodes":"15","size_leaf_vector":"1"}},{"base_weights":[-1.9055245E-3,4.3723673E-2,-1.4348528E-1,-8.474158E-2,2.032579E-1,2.9026204E-1,-2.4595068E-1,1.9989384E-3,-7.519492E-2,6.337647E-2,5.0423155E-3,-7.077258E-3,1.1799022E-1,-5.7310052E-2,-5.8530043E-3],"categories":[],"categories_nodes":[],"categories_segments":[],"categories_sizes":[],"default_left":[0,0,0,0,0,0,0,0,0,0,0,0,0,0,0],"id":47,"left_children":[1,3,5,7,9,11,13,-1,-1,-1,-1,-1,-1,-1,-1],"loss_changes":[1.0105587E0,2.4424334E0,1.7657745E0,4.644794E0,3.4604104E0,2.5707502E0,1.8905175E0,0E0,0E0,0E0,0E0,0E0,0E0,0E0,0E0],"parents":[2147483647,0,0,1,1,2,2,3,3,4,4,5,5,6,6],"right_children":[2,4,6,8,10,12,14,-1,-1,-1,-1,-1,-1,-1,-1],"split_conditions":[5.0613373E-3,-2.236073E-3,-8.797097E4,-3.2197325E-3,4.3354256E1,-9.666509E4,4.289722E-1,1.9989384E-3,-7.519492E-2,6.337647E-2,5.0423155E-3,-7.077258E-3,1.1799022E-1,-5.7310052E-2,-5.8530043E-3],"split_indices":[5,5,6,5,1,6,7,0,0,0,0,0,0,0,0],"split_type":[0,0,0,0,0,0,0,0,0,0,0,0,0,0,0],"sum_hessian":[1.5445796E2,1.17334015E2,3.7123955E1,6.525562E1,5.2078396E1,6.743824E0,3.038013E1,5.7240646E1,8.014973E0,1.2820035E1,3.9258358E1,5.4518123E0,1.2920117E0,1.0315757E1,2.0064375E1],"tree_param":{"num_deleted":"0","num_feature":"8","num_nodes":"15","size_leaf_vector":"1"}},{"base_weights":[-1.6128664E-3,-2.0299236E-1,3.035123E-2,8.661795E-3,-6.4352626E-1,3.2213897E-1,-3.9091203E-2,-2.8153596E-2,6.985845E-2,-9.604278E-2,3.411908E-2,8.094334E-2,3.3129142E-3,-5.971962E-2,4.0235693E-4],"categories":[],"categories_nodes":[],"categories_segments":[],"categories_sizes":[],"default_left":[0,0,0,0,0,0,0,0,0,0,0,0,0,0,0],"id":48,"left_children":[1,3,5,7,9,11,13,-1,-1,-1,-1,-1,-1,-1,-1],"loss_changes":[1.0053203E0,2.0002778E0,2.7445855E0,3.287396E0,2.4983494E0,3.6387582E0,2.644533E0,0E0,0E0,0E0,0E0,0E0,0E0,0E0,0E0],"parents":[2147483647,0,0,1,1,2,2,3,3,4,4,5,5,6,6],"right_children":[2,4,6,8,10,12,14,-1,-1,-1,-1,-1,-1,-1,-1],"split_conditions":[-1.1159323E5,-9.921073E-3,-5.669873E4,-1.7903816E-2,-3.7054585E-3,4.08978E1,3.510005E1,-2.8153596E-2,6.985845E-2,-9.604278E-2,3.411908E-2,8.094334E-2,3.3129142E-3,-5.971962E-2,4.0235693E-4],"split_indices":[6,0,6,0,0,1,1,0,0,0,0,0,0,0,0],"split_type":[0,0,0,0,0,0,0,0,0,0,0,0,0,0,0],"sum_hessian":[1.5422334E2,2.0393024E1,1.338303E2,1.4437079E1,5.955945E0,2.5027826E1,1.0880249E2,1.05791645E1,3.8579147E0,4.524528E0,1.4314169E0,8.647207E0,1.638062E1,6.880867E0,1.0192162E2],"tree_param":{"num_deleted":"0","num_feature":"8","num_nodes":"15","size_leaf_vector":"1"}},{"base_weights":[-1.5427562E-3,-3.094061E-2,2.1755555E-1,2.6826253E-3,-7.006499E-1,-3.704387E-1,3.3620164E-1,1.9594165E-3,-7.743871E-2,1.6667355E-2,-8.932677E-2,-8.565009E-2,3.6245584E-2,6.159106E-2,-2.5033075E-2],"categories":[],"categories_nodes":[],"categories_segments":[],"categories_sizes":[],"default_left":[0,0,0,0,0,0,0,0,0,0,0,0,0,0,0],"id":49,"left_children":[1,3,5,7,9,11,13,-1,-1,-1,-1,-1,-1,-1,-1],"loss_changes":[1.0054907E0,3.1001806E0,1.4129889E0,1.7500006E0,1.2484107E0,1.5845892E0,2.7614179E0,0E0,0E0,0E0,0E0,0E0,0E0,0E0,0E0],"parents":[2147483647,0,0,1,1,2,2,3,3,4,4,5,5,6,6],"right_children":[2,4,6,8,10,12,14,-1,-1,-1,-1,-1,-1,-1,-1],"split_conditions":[1.0663557E5,9.1707695E4,-2.391947E-2,7.345932E1,2.8888416E-3,1.5241006E5,1.7493389E5,1.9594165E-3,-7.743871E-2,1.6667355E-2,-8.932677E-2,-8.565009E-2,3.6245584E-2,6.159106E-2,-2.5033075E-2],"split_indices":[6,6,5,4,0,6,6,0,0,0,0,0,0,0,0],"split_type":[0,0,0,0,0,0,0,0,0,0,0,0,0,0,0],"sum_hessian":[1.540623E2,1.3659344E2,1.7468855E1,1.310119E2,5.5815516E0,2.5767262E0,1.4892128E1,1.291754E2,1.8364881E0,1.0387843E0,4.5427675E0,1.4478465E0,1.1288797E0,1.0049552E1,4.8425765E0],"tree_param":{"num_deleted":"0","num_feature":"8","num_nodes":"15","size_leaf_vector":"1"}},{"base_weights":[-2.5592868E-3,-1.8966655E-1,3.1159934E-2,-2.671655E-2,-8.521011E-1,6.36574E-1,1.0996538E-2,-1.4446221E-2,1.0626614E-1,-1.001085E-1,-1.5591024E-2,1.01711705E-1,-2.1379134E-2,-8.213209E-2,2.6337446E-3],"categories":[],"categories_nodes":[],"categories_segments":[],"categories_sizes":[],"default_left":[0,0,0,0,0,0,0,0,0,0,0,0,0,0,0],"id":50,"left_children":[1,3,5,7,9,11,13,-1,-1,-1,-1,-1,-1,-1,-1],"loss_changes":[9.8313916E-1,2.545473E0,1.6055634E0,2.7352705E0,3.277588E-1,1.5895829E0,1.6669699E0,0E0,0E0,0E0,0E0,0E0,0E0,0E0,0E0],"parents":[2147483647,0,0,1,1,2,2,3,3,4,4,5,5,6,6],"right_children":[2,4,6,8,10,12,14,-1,-1,-1,-1,-1,-1,-1,-1],"split_conditions":[-1.9765732E1,4.3438168E1,-1.7217552E1,4.236983E1,2.781372E-3,4.6040318E1,2.6930866E1,-1.4446221E-2,1.0626614E-1,-1.001085E-1,-1.5591024E-2,1.01711705E-1,-2.1379134E-2,-8.213209E-2,2.6337446E-3],"split_indices":[2,4,2,4,5,4,1,0,0,0,0,0,0,0,0],"split_type":[0,0,0,0,0,0,0,0,0,0,0,0,0,0,0],"sum_hessian":[1.5389174E2,2.2792383E1,1.3109935E2,1.9127586E1,3.6647985E0,3.2402022E0,1.27859146E2,1.8044619E1,1.0829666E0,2.6580365E0,1.006762E0,2.1030028E0,1.1371994E0,1.3631612E0,1.2649599E2],"tree_param":{"num_deleted":"0","num_feature":"8","num_nodes":"15","size_leaf_vector":"1"}},{"base_weights":[-2.527992E-3,-2.6953863E-2,2.3455116E-1,1.1278383E-2,-3.6488008E-1,8.9705455E-1,2.3094699E-2,-1.770236E-3,6.559261E-2,-4.854585E-2,5.6842785E-2,4.361304E-3,1.280734E-1,2.324315E-2,-8.391647E-2],"categories":[],"categories_nodes":[],"categories_segments":[],"categories_sizes":[],"default_left":[0,0,0,0,0,0,0,0,0,0,0,0,0,0,0],"id":51,"left_children":[1,3,5,7,9,11,13,-1,-1,-1,-1,-1,-1,-1,-1],"loss_changes":[9.0295696E-1,1.8292856E0,2.0197778E0,2.4007509E0,1.895187E0,1.0894699E0,2.3733172E0,0E0,0E0,0E0,0E0,0E0,0E0,0E0,0E0],"parents":[2147483647,0,0,1,1,2,2,3,3,4,4,5,5,6,6],"right_children":[2,4,6,8,10,12,14,-1,-1,-1,-1,-1,-1,-1,-1],"split_conditions":[1.2299698E5,8.29656E4,6.932989E1,7.6818984E4,1.115244E0,6.2330074E1,5.2211346E1,-1.770236E-3,6.559261E-2,-4.854585E-2,5.6842785E-2,4.361304E-3,1.280734E-1,2.324315E-2,-8.391647E-2],"split_indices":[6,6,3,6,7,1,4,0,0,0,0,0,0,0,0],"split_type":[0,0,0,0,0,0,0,0,0,0,0,0,0,0,0],"sum_hessian":[1.5383609E2,1.4027057E2,1.3565534E1,1.2688203E2,1.3388535E1,2.4977367E0,1.1067797E1,1.2235403E2,4.528001E0,1.2281662E1,1.106873E0,1.1200382E0,1.3776987E0,9.493444E0,1.5743518E0],"tree_param":{"num_deleted":"0","num_feature":"8","num_nodes":"15","size_leaf_vector":"1"}},{"base_weights":[-1.4265956E-3,-4.467988E-2,1.3160129E-1,-9.425564E-2,2.940234E-1,3.1042573E-1,-2.635012E-1,7.3975705E-2,-1.1978512E-2,6.410332E-2,-1.6434519E-2,9.055775E-3,1.4227475E-1,7.725283E-2,-5.09034E-2],"categories":[],"categories_nodes":[],"categories_segments":[],"categories_sizes":[],"default_left":[0,0,0,0,0,0,0,0,0,0,0,0,0,0,0],"id":52,"left_children":[1,3,5,7,9,11,13,-1,-1,-1,-1,-1,-1,-1,-1],"loss_changes":[8.953645E-1,1.9991035E0,2.779654E0,2.2853239E0,2.5282893E0,6.4122124E0,3.557286E0,0E0,0E0,0E0,0E0,0E0,0E0,0E0,0E0],"parents":[2147483647,0,0,1,1,2,2,3,3,4,4,5,5,6,6],"right_children":[2,4,6,8,10,12,14,-1,-1,-1,-1,-1,-1,-1,-1],"split_conditions":[5.5453403E1,1.043651E2,6.877965E1,-3.1150682E1,7.463213E4,8.314824E-3,5.646177E1,7.3975705E-2,-1.1978512E-2,6.410332E-2,-1.6434519E-2,9.055775E-3,1.4227475E-1,7.725283E-2,-5.09034E-2],"split_indices":[4,3,3,2,6,0,4,0,0,0,0,0,0,0,0],"split_type":[0,0,0,0,0,0,0,0,0,0,0,0,0,0,0],"sum_hessian":[1.535883E2,1.1640424E2,3.7184067E1,1.0217123E2,1.4233014E1,2.5745775E1,1.1438291E1,2.2036734E0,9.996755E1,7.873693E0,6.3593216E0,2.239956E1,3.346214E0,1.7802333E0,9.658057E0],"tree_param":{"num_deleted":"0","num_feature":"8","num_nodes":"15","size_leaf_vector":"1"}},{"base_weights":[4.5110245E-4,-3.4491843E-1,1.8949648E-2,-1.0560363E-1,-9.323547E-3,7.589279E-2,5.1973225E-3,2.8370515E-2,-7.37352E-2,5.0934996E-2,-1.2821218E-3],"categories":[],"categories_nodes":[],"categories_segments":[],"categories_sizes":[],"default_left":[0,0,0,0,0,0,0,0,0,0,0],"id":53,"left_children":[1,3,5,-1,7,-1,9,-1,-1,-1,-1],"loss_changes":[9.910237E-1,1.8721417E0,1.4941163E0,0E0,1.5673875E0,0E0,1.3285382E0,0E0,0E0,0E0,0E0],"parents":[2147483647,0,0,1,1,2,2,4,4,6,6],"right_children":[2,4,6,-1,8,-1,10,-1,-1,-1,-1],"split_conditions":[2.7393974E1,-9.808152E-3,-2.3873253E-1,-1.0560363E-1,-3.2197325E-3,7.589279E-2,2.9964693E1,2.8370515E-2,-7.37352E-2,5.0934996E-2,-1.2821218E-3],"split_indices":[4,0,7,0,5,0,4,0,0,0,0],"split_type":[0,0,0,0,0,0,0,0,0,0,0],"sum_hessian":[1.5309503E2,6.886056E0,1.4620898E2,1.5195035E0,5.3665524E0,1.6790326E0,1.4452995E2,4.261589E0,1.1049633E0,4.04635E0,1.404836E2],"tree_param":{"num_deleted":"0","num_feature":"8","num_nodes":"11","size_leaf_vector":"1"}},{"base_weights":[2.0918042E-4,4.3801848E-2,-1.3567843E-1,-7.178213E-2,1.859694E-1,2.8344184E-1,-2.3517212E-1,2.6073044E-3,-7.123048E-2,5.8277935E-2,4.3599587E-3,5.4730456E-2,-6.431625E-2,-5.4502852E-2,-6.165918E-3],"categories":[],"categories_nodes":[],"categories_segments":[],"categories_sizes":[],"default_left":[0,0,0,0,0,0,0,0,0,0,0,0,0,0,0],"id":54,"left_children":[1,3,5,7,9,11,13,-1,-1,-1,-1,-1,-1,-1,-1],"loss_changes":[9.182952E-1,1.9419255E0,1.6367466E0,4.1212735E0,2.9636025E0,2.2289696E0,1.6317542E0,0E0,0E0,0E0,0E0,0E0,0E0,0E0,0E0],"parents":[2147483647,0,0,1,1,2,2,3,3,4,4,5,5,6,6],"right_children":[2,4,6,8,10,12,14,-1,-1,-1,-1,-1,-1,-1,-1],"split_conditions":[5.0613373E-3,-2.236073E-3,-8.797097E4,-3.2197325E-3,4.3354256E1,6.4219296E-1,4.289722E-1,2.6073044E-3,-7.123048E-2,5.8277935E-2,4.3599587E-3,5.4730456E-2,-6.431625E-2,-5.4502852E-2,-6.165918E-3],"split_indices":[5,5,6,5,1,7,7,0,0,0,0,0,0,0,0],"split_type":[0,0,0,0,0,0,0,0,0,0,0,0,0,0,0],"sum_hessian":[1.5301721E2,1.16365036E2,3.6652176E1,6.445633E1,5.1908707E1,6.676859E0,2.9975317E1,5.674627E1,7.7100573E0,1.2889621E1,3.9019085E1,5.5155716E0,1.1612874E0,9.99151E0,1.9983807E1],"tree_param":{"num_deleted":"0","num_feature":"8","num_nodes":"15","size_leaf_vector":"1"}},{"base_weights":[-4.734694E-4,-1.8539152E-1,3.260632E-2,-3.2775372E-2,-8.1881836E-2,6.195353E-1,1.3050615E-2,-1.4508112E-2,9.942227E-2,9.6811794E-2,-1.8992057E-2,-7.910677E-2,2.7573917E-3],"categories":[],"categories_nodes":[],"categories_segments":[],"categories_sizes":[],"default_left":[0,0,0,0,0,0,0,0,0,0,0,0,0],"id":55,"left_children":[1,3,5,7,-1,9,11,-1,-1,-1,-1,-1,-1],"loss_changes":[9.467187E-1,2.2434425E0,1.4988873E0,2.4471405E0,0E0,1.3723288E0,1.5176177E0,0E0,0E0,0E0,0E0,0E0,0E0],"parents":[2147483647,0,0,1,1,2,2,3,3,5,5,6,6],"right_children":[2,4,6,8,-1,10,12,-1,-1,-1,-1,-1,-1],"split_conditions":[-1.9765732E1,4.3438168E1,-1.7217552E1,4.236983E1,-8.1881836E-2,4.6040318E1,2.6930866E1,-1.4508112E-2,9.942227E-2,9.6811794E-2,-1.8992057E-2,-7.910677E-2,2.7573917E-3],"split_indices":[2,4,2,4,0,4,1,0,0,0,0,0,0],"split_type":[0,0,0,0,0,0,0,0,0,0,0,0,0],"sum_hessian":[1.52779E2,2.248456E1,1.3029445E2,1.8966553E1,3.518007E0,3.211985E0,1.2708246E2,1.7871027E1,1.095525E0,2.1081321E0,1.103853E0,1.3059592E0,1.25776505E2],"tree_param":{"num_deleted":"0","num_feature":"8","num_nodes":"13","size_leaf_vector":"1"}},{"base_weights":[-4.6475505E-4,-1.9136105E-1,2.9617155E-2,4.5002103E-3,-6.025995E-1,9.6472315E-2,1.1065847E-2,-2.7425645E-2,6.595174E-2,-9.0824574E-2,3.2277282E-2,2.6167437E-2,-4.354129E-3],"categories":[],"categories_nodes":[],"categories_segments":[],"categories_sizes":[],"default_left":[0,0,0,0,0,0,0,0,0,0,0,0,0],"id":56,"left_children":[1,3,5,7,9,-1,11,-1,-1,-1,-1,-1,-1],"loss_changes":[8.8830596E-1,1.6988106E0,2.307715E0,2.9665904E0,2.2167208E0,0E0,1.8185867E0,0E0,0E0,0E0,0E0,0E0,0E0],"parents":[2147483647,0,0,1,1,2,2,3,3,4,4,6,6],"right_children":[2,4,6,8,10,-1,12,-1,-1,-1,-1,-1,-1],"split_conditions":[-1.1159323E5,-9.921073E-3,-2.1287488E-2,-1.7903816E-2,-3.7054585E-3,9.6472315E-2,-8.341064E-3,-2.7425645E-2,6.595174E-2,-9.0824574E-2,3.2277282E-2,2.6167437E-2,-4.354129E-3],"split_indices":[6,0,0,0,0,0,5,0,0,0,0,0,0],"split_type":[0,0,0,0,0,0,0,0,0,0,0,0,0],"sum_hessian":[1.5270212E2,2.00576E1,1.3264452E2,1.4256627E1,5.800972E0,1.5881572E0,1.3105637E2,1.0408405E1,3.848222E0,4.374577E0,1.4263949E0,2.2769297E1,1.0828707E2],"tree_param":{"num_deleted":"0","num_feature":"8","num_nodes":"13","size_leaf_vector":"1"}},{"base_weights":[1.4416897E-4,-3.2247162E-1,1.7280575E-2,-9.856441E-2,-1.2095178E-2,7.1190394E-2,4.275721E-3,4.8919868E-2,-4.43252E-2,4.7291752E-2,-1.2587163E-3],"categories":[],"categories_nodes":[],"categories_segments":[],"categories_sizes":[],"default_left":[0,0,0,0,0,0,0,0,0,0,0],"id":57,"left_children":[1,3,5,-1,7,-1,9,-1,-1,-1,-1],"loss_changes":[8.5416895E-1,1.592108E0,1.3221915E0,0E0,1.5830034E0,0E0,1.1519371E0,0E0,0E0,0E0,0E0],"parents":[2147483647,0,0,1,1,2,2,4,4,6,6],"right_children":[2,4,6,-1,8,-1,10,-1,-1,-1,-1],"split_conditions":[2.7393974E1,-9.808152E-3,-2.3873253E-1,-9.856441E-2,-3.1150682E1,7.1190394E-2,2.9964693E1,4.8919868E-2,-4.43252E-2,4.7291752E-2,-1.2587163E-3],"split_indices":[4,0,7,0,2,0,4,0,0,0,0],"split_type":[0,0,0,0,0,0,0,0,0,0,0],"sum_hessian":[1.5249559E2,6.792866E0,1.4570273E2,1.4720143E0,5.320852E0,1.6900733E0,1.4401265E2,2.3980675E0,2.922784E0,4.0626054E0,1.3995004E2],"tree_param":{"num_deleted":"0","num_feature":"8","num_nodes":"11","size_leaf_vector":"1"}},{"base_weights":[2.5594883E-4,-7.1860455E-2,7.8124195E-2,4.177995E-2,-3.853445E-1,4.3584186E-1,-3.2796342E-2,1.1402699E-2,-5.152238E-2,-5.1250782E-2,4.695485E-2,1.6084438E-2,1.2236849E-1,1.4004945E-2,-4.3171253E-2],"categories":[],"categories_nodes":[],"categories_segments":[],"categories_sizes":[],"default_left":[0,0,0,0,0,0,0,0,0,0,0,0,0,0,0],"id":58,"left_children":[1,3,5,7,9,11,13,-1,-1,-1,-1,-1,-1,-1,-1],"loss_changes":[8.669861E-1,2.8716478E0,2.9597192E0,2.462503E0,2.5697062E0,3.6249495E0,4.0315447E0,0E0,0E0,0E0,0E0,0E0,0E0,0E0,0E0],"parents":[2147483647,0,0,1,1,2,2,3,3,4,4,5,5,6,6],"right_children":[2,4,6,8,10,12,14,-1,-1,-1,-1,-1,-1,-1,-1],"split_conditions":[4.6205437E-1,4.451531E1,5.0148827E1,3.3745503E-1,8.815198E4,6.635138E4,7.10463E1,1.1402699E-2,-5.152238E-2,-5.1250782E-2,4.695485E-2,1.6084438E-2,1.2236849E-1,1.4004945E-2,-4.3171253E-2],"split_indices":[7,1,1,7,6,6,3,0,0,0,0,0,0,0,0],"split_type":[0,0,0,0,0,0,0,0,0,0,0,0,0,0,0],"sum_hessian":[1.5238974E2,7.915696E1,7.323277E1,5.8732647E1,2.0424316E1,1.663991E1,5.659286E1,5.2693268E1,6.039378E0,1.8128279E1,2.2960372E0,1.3227125E1,3.4127846E0,3.993738E1,1.6655481E1],"tree_param":{"num_deleted":"0","num_feature":"8","num_nodes":"15","size_leaf_vector":"1"}},{"base_weights":[4.3174598E-4,-2.208305E-1,2.7844157E-2,-2.1980194E-2,-6.258194E-1,3.7292853E-1,-5.190248E-4,-2.7082926E-2,5.64812E-2,-5.227996E-3,-9.4616234E-2,-9.373116E-3,7.080879E-2,7.217762E-2,-2.3106702E-3],"categories":[],"categories_nodes":[],"categories_segments":[],"categories_sizes":[],"default_left":[0,0,0,0,0,0,0,0,0,0,0,0,0,0,0],"id":59,"left_children":[1,3,5,7,9,11,13,-1,-1,-1,-1,-1,-1,-1,-1],"loss_changes":[9.342003E-1,1.3535831E0,1.3414047E0,1.9671401E0,9.711304E-1,1.6943603E0,2.098821E0,0E0,0E0,0E0,0E0,0E0,0E0,0E0,0E0],"parents":[2147483647,0,0,1,1,2,2,3,3,4,4,5,5,6,6],"right_children":[2,4,6,8,10,12,14,-1,-1,-1,-1,-1,-1,-1,-1],"split_conditions":[3.349731E1,3.0683262E1,3.7074963E1,1.7417987E-1,-4.2372947E-3,2.7704014E4,3.4838554E1,-2.7082926E-2,5.64812E-2,-5.227996E-3,-9.4616234E-2,-9.373116E-3,7.080879E-2,7.217762E-2,-2.3106702E-3],"split_indices":[4,4,4,7,0,6,1,0,0,0,0,0,0,0,0],"split_type":[0,0,0,0,0,0,0,0,0,0,0,0,0,0,0],"sum_hessian":[1.520092E2,1.5978792E1,1.3603041E2,1.1423906E1,4.554886E0,9.408791E0,1.2662162E2,8.400043E0,3.0238638E0,2.0492055E0,2.5056803E0,4.2339625E0,5.1748276E0,2.9009929E0,1.2372063E2],"tree_param":{"num_deleted":"0","num_feature":"8","num_nodes":"15","size_leaf_vector":"1"}},{"base_weights":[7.2714954E-4,-1.7994745E-1,3.286209E-2,1.6445471E-1,-4.3660307E-1,3.7642986E-1,2.017251E-3,-1.25177605E-2,7.896809E-2,1.7288882E-2,-5.934074E-2,6.310532E-2,-1.669825E-2,-6.261995E-2,2.5979097E-3],"categories":[],"categories_nodes":[],"categories_segments":[],"categories_sizes":[],"default_left":[0,0,0,0,0,0,0,0,0,0,0,0,0,0,0],"id":60,"left_children":[1,3,5,7,9,11,13,-1,-1,-1,-1,-1,-1,-1,-1],"loss_changes":[8.9300877E-1,2.1248336E0,1.3828657E0,2.0263543E0,1.4006476E0,1.5929049E0,1.8348985E0,0E0,0E0,0E0,0E0,0E0,0E0,0E0,0E0],"parents":[2147483647,0,0,1,1,2,2,3,3,4,4,5,5,6,6],"right_children":[2,4,6,8,10,12,14,-1,-1,-1,-1,-1,-1,-1,-1],"split_conditions":[-1.9765732E1,5.8407236E-2,-1.3257535E1,-1.08594885E-2,-7.840185E4,2.5300498E-3,-1.1996187E1,-1.25177605E-2,7.896809E-2,1.7288882E-2,-5.934074E-2,6.310532E-2,-1.669825E-2,-6.261995E-2,2.5979097E-3],"split_indices":[2,7,2,7,6,0,2,0,0,0,0,0,0,0,0],"split_type":[0,0,0,0,0,0,0,0,0,0,0,0,0,0,0],"sum_hessian":[1.5179027E2,2.2226252E1,1.2956403E2,9.644154E0,1.2582099E1,9.75073E0,1.1981329E2,7.1375256E0,2.5066278E0,2.5536373E0,1.0028461E1,6.5298157E0,3.2209144E0,3.478664E0,1.16334625E2],"tree_param":{"num_deleted":"0","num_feature":"8","num_nodes":"15","size_leaf_vector":"1"}},{"base_weights":[6.28264E-4,-4.164233E-2,1.2968837E-1,-8.880071E-2,2.8199208E-1,3.8224348E-1,-1.3498421E-1,-3.101205E-3,-4.5458123E-2,6.0754288E-2,-1.54042905E-2,4.772422E-3,6.5961495E-2,-4.351885E-2,2.145844E-2],"categories":[],"categories_nodes":[],"categories_segments":[],"categories_sizes":[],"default_left":[0,0,0,0,0,0,0,0,0,0,0,0,0,0,0],"id":61,"left_children":[1,3,5,7,9,11,13,-1,-1,-1,-1,-1,-1,-1,-1],"loss_changes":[8.3857495E-1,1.7923974E0,2.5865283E0,2.1384497E0,2.2182178E0,1.7933099E0,2.1141722E0,0E0,0E0,0E0,0E0,0E0,0E0,0E0,0E0],"parents":[2147483647,0,0,1,1,2,2,3,3,4,4,5,5,6,6],"right_children":[2,4,6,8,10,12,14,-1,-1,-1,-1,-1,-1,-1,-1],"split_conditions":[5.5453403E1,1.043651E2,6.260255E1,9.084934E1,7.463213E4,-2.4028951E-3,6.8012E1,-3.101205E-3,-4.5458123E-2,6.0754288E-2,-1.54042905E-2,4.772422E-3,6.5961495E-2,-4.351885E-2,2.145844E-2],"split_indices":[4,3,4,3,6,0,1,0,0,0,0,0,0,0,0],"split_type":[0,0,0,0,0,0,0,0,0,0,0,0,0,0,0],"sum_hessian":[1.5172339E2,1.1480052E2,3.6922863E1,1.0083323E2,1.3967297E1,1.8666632E1,1.8256233E1,8.801306E1,1.2820161E1,7.7715764E0,6.1957197E0,8.992922E0,9.673709E0,9.689826E0,8.566407E0],"tree_param":{"num_deleted":"0","num_feature":"8","num_nodes":"15","size_leaf_vector":"1"}},{"base_weights":[7.3900184E-4,3.1947915E-2,-1.7342427E-1,1.2558662E-2,7.0848143E-1,-4.0771002E-1,2.791084E-1,3.427066E-3,-8.232855E-2,1.3064955E-1,-2.58748E-2,5.961244E-2,-5.1854312E-2,1.1754238E-1,-4.2727855E-3],"categories":[],"categories_nodes":[],"categories_segments":[],"categories_sizes":[],"default_left":[0,0,0,0,0,0,0,0,0,0,0,0,0,0,0],"id":62,"left_children":[1,3,5,7,9,11,13,-1,-1,-1,-1,-1,-1,-1,-1],"loss_changes":[8.34852E-1,1.6994368E0,2.5884767E0,2.3442974E0,2.4263778E0,2.0653813E0,2.5182633E0,0E0,0E0,0E0,0E0,0E0,0E0,0E0,0E0],"parents":[2147483647,0,0,1,1,2,2,3,3,4,4,5,5,6,6],"right_children":[2,4,6,8,10,12,14,-1,-1,-1,-1,-1,-1,-1,-1],"split_conditions":[7.9501225E-3,7.0862705E-3,1.4467938E1,6.4807497E-3,4.9482895E4,-1.7910112E5,1.5929152E1,3.427066E-3,-8.232855E-2,1.3064955E-1,-2.58748E-2,5.961244E-2,-5.1854312E-2,1.1754238E-1,-4.2727855E-3],"split_indices":[5,5,2,5,6,6,2,0,0,0,0,0,0,0,0],"split_type":[0,0,0,0,0,0,0,0,0,0,0,0,0,0,0],"sum_hessian":[1.5157465E2,1.2923343E2,2.2341217E1,1.2662302E2,2.6104157E0,1.4785501E1,7.5557175E0,1.2435184E2,2.271181E0,1.3963354E0,1.2140802E0,1.0347768E0,1.3750724E1,1.2955009E0,6.260216E0],"tree_param":{"num_deleted":"0","num_feature":"8","num_nodes":"15","size_leaf_vector":"1"}},{"base_weights":[1.477741E-3,-2.2140158E-2,2.3179327E-1,1.4018364E-2,-3.4507623E-1,7.041079E-1,-1.7511576E-2,-1.2880306E-3,6.3081875E-2,1.3852215E-2,-5.7884514E-2,1.1273396E-1,-3.2190133E-2,-3.0621786E-2,5.573768E-2],"categories":[],"categories_nodes":[],"categories_segments":[],"categories_sizes":[],"default_left":[0,0,0,0,0,0,0,0,0,0,0,0,0,0,0],"id":63,"left_children":[1,3,5,7,9,11,13,-1,-1,-1,-1,-1,-1,-1,-1],"loss_changes":[8.3362615E-1,1.6285751E0,1.6906443E0,2.098847E0,1.6675271E0,2.5117033E0,1.8809927E0,0E0,0E0,0E0,0E0,0E0,0E0,0E0,0E0],"parents":[2147483647,0,0,1,1,2,2,3,3,4,4,5,5,6,6],"right_children":[2,4,6,8,10,12,14,-1,-1,-1,-1,-1,-1,-1,-1],"split_conditions":[1.2299698E5,8.29656E4,7.681448E1,1.2492951E-2,-3.5878753E-3,1.8597197E5,2.1248392E5,-1.2880306E-3,6.3081875E-2,1.3852215E-2,-5.7884514E-2,1.1273396E-1,-3.2190133E-2,-3.0621786E-2,5.573768E-2],"split_indices":[6,6,3,0,5,6,6,0,0,0,0,0,0,0,0],"split_type":[0,0,0,0,0,0,0,0,0,0,0,0,0,0,0],"sum_hessian":[1.5130879E2,1.3805563E2,1.325316E1,1.2501459E2,1.3041048E1,3.9484444E0,9.304717E0,1.2072872E2,4.285863E0,4.3824673E0,8.658581E0,2.7254333E0,1.2230109E0,6.505186E0,2.7995307E0],"tree_param":{"num_deleted":"0","num_feature":"8","num_nodes":"15","size_leaf_vector":"1"}},{"base_weights":[2.07129E-3,-2.4221689E-2,1.9947216E-1,1.1598514E-2,-5.204833E-1,4.2542505E-1,-1.3911167E-1,2.7805013E-3,-7.453651E-2,1.5466987E-2,-7.722535E-2,-4.0753286E-2,6.400224E-2,-4.0420722E-2,5.024385E-2],"categories":[],"categories_nodes":[],"categories_segments":[],"categories_sizes":[],"default_left":[0,0,0,0,0,0,0,0,0,0,0,0,0,0,0],"id":64,"left_children":[1,3,5,7,9,11,13,-1,-1,-1,-1,-1,-1,-1,-1],"loss_changes":[7.9406637E-1,2.407233E0,1.4348391E0,1.5782833E0,1.66892E0,2.2326136E0,1.5552626E0,0E0,0E0,0E0,0E0,0E0,0E0,0E0,0E0],"parents":[2147483647,0,0,1,1,2,2,3,3,4,4,5,5,6,6],"right_children":[2,4,6,8,10,12,14,-1,-1,-1,-1,-1,-1,-1,-1],"split_conditions":[1.0663557E5,8.5179586E4,1.601018E-2,7.345932E1,4.7953473E-3,-2.391947E-2,6.4734886E1,2.7805013E-3,-7.453651E-2,1.5466987E-2,-7.722535E-2,-4.0753286E-2,6.400224E-2,-4.0420722E-2,5.024385E-2],"split_indices":[6,6,0,4,0,5,1,0,0,0,0,0,0,0,0],"split_type":[0,0,0,0,0,0,0,0,0,0,0,0,0,0,0],"sum_hessian":[1.5106084E2,1.3407932E2,1.6981512E1,1.2596387E2,8.115453E0,1.0030923E1,6.95059E0,1.242666E2,1.6972648E0,2.3090677E0,5.806385E0,1.8707116E0,8.160211E0,5.1800776E0,1.7705123E0],"tree_param":{"num_deleted":"0","num_feature":"8","num_nodes":"15","size_leaf_vector":"1"}},{"base_weights":[1.1027077E-3,-1.8100278E-1,2.9618464E-2,1.572676E-3,-5.6767035E-1,2.8638515E-1,-3.1980935E-2,-2.581425E-2,5.9991557E-2,-8.65425E-2,3.0995622E-2,7.4896896E-3,8.573285E-2,-5.5312634E-2,7.1995525E-4],"categories":[],"categories_nodes":[],"categories_segments":[],"categories_sizes":[],"default_left":[0,0,0,0,0,0,0,0,0,0,0,0,0,0,0],"id":65,"left_children":[1,3,5,7,9,11,13,-1,-1,-1,-1,-1,-1,-1,-1],"loss_changes":[7.940547E-1,1.4624748E0,2.0997512E0,2.4952312E0,2.0041924E0,3.0359602E0,2.199031E0,0E0,0E0,0E0,0E0,0E0,0E0,0E0,0E0],"parents":[2147483647,0,0,1,1,2,2,3,3,4,4,5,5,6,6],"right_children":[2,4,6,8,10,12,14,-1,-1,-1,-1,-1,-1,-1,-1],"split_conditions":[-1.1159323E5,-9.921073E-3,-5.669873E4,-1.7903816E-2,-3.7054585E-3,9.4797104E1,3.510005E1,-2.581425E-2,5.9991557E-2,-8.65425E-2,3.0995622E-2,7.4896896E-3,8.573285E-2,-5.5312634E-2,7.1995525E-4],"split_indices":[6,0,6,0,0,3,1,0,0,0,0,0,0,0,0],"split_type":[0,0,0,0,0,0,0,0,0,0,0,0,0,0,0],"sum_hessian":[1.5087994E2,1.9703468E1,1.3117648E2,1.4060404E1,5.643064E0,2.4674759E1,1.06501724E2,1.0201108E1,3.8592956E0,4.22391E0,1.4191542E0,1.8830694E1,5.8440657E0,6.529849E0,9.997187E1],"tree_param":{"num_deleted":"0","num_feature":"8","num_nodes":"15","size_leaf_vector":"1"}},{"base_weights":[1.011197E-3,5.768249E-2,-7.7105905E-3,-3.7326196E-1,1.607331E-2,4.104395E-2,-6.671293E-2,-7.84784E-3,1.0800267E-2],"categories":[],"categories_nodes":[],"categories_segments":[],"categories_sizes":[],"default_left":[0,0,0,0,0,0,0,0,0],"id":66,"left_children":[1,-1,3,5,7,-1,-1,-1,-1],"loss_changes":[7.6638603E-1,0E0,1.3139555E0,2.3998466E0,1.2445589E0,0E0,0E0,0E0,0E0],"parents":[2147483647,0,0,2,2,3,3,4,4],"right_children":[2,-1,4,6,8,-1,-1,-1,-1],"split_conditions":[3.1751131E1,5.768249E-2,4.639006E1,3.7912008E-1,4.289722E-1,4.104395E-2,-6.671293E-2,-7.84784E-3,1.0800267E-2],"split_indices":[3,0,3,7,7,0,0,0,0],"split_type":[0,0,0,0,0,0,0,0,0],"sum_hessian":[1.5071634E2,1.2769332E0,1.494394E2,8.2314E0,1.4120801E2,2.1366313E0,6.094768E0,6.968328E1,7.152473E1],"tree_param":{"num_deleted":"0","num_feature":"8","num_nodes":"9","size_leaf_vector":"1"}},{"base_weights":[1.0595472E-3,2.2669856E-2,-2.2287482E-1,-1.1831748E-3,6.836022E-1,-8.4742695E-2,6.5999895E-2,2.9278786E-3,-5.9905123E-2,1.0360366E-1,1.367136E-2,9.078404E-2,-4.6292942E-2],"categories":[],"categories_nodes":[],"categories_segments":[],"categories_sizes":[],"default_left":[0,0,0,0,0,0,0,0,0,0,0,0,0],"id":67,"left_children":[1,3,5,7,9,-1,11,-1,-1,-1,-1,-1,-1],"loss_changes":[7.391265E-1,2.196085E0,2.4811988E0,2.483398E0,7.935703E-1,0E0,4.9260116E0,0E0,0E0,0E0,0E0,0E0,0E0],"parents":[2147483647,0,0,1,1,2,2,3,3,4,4,6,6],"right_children":[2,4,6,8,10,-1,12,-1,-1,-1,-1,-1,-1],"split_conditions":[1.2516414E-2,1.0663683E-2,4.289722E-1,7.9501225E-3,-1.9010962E-3,-8.4742695E-2,5.0222363E1,2.9278786E-3,-5.9905123E-2,1.0360366E-1,1.367136E-2,9.078404E-2,-4.6292942E-2],"split_indices":[5,5,7,5,0,0,1,0,0,0,0,0,0],"split_type":[0,0,0,0,0,0,0,0,0,0,0,0,0],"sum_hessian":[1.5069041E2,1.3824786E2,1.244255E1,1.3439574E2,3.8521283E0,3.3235126E0,9.119037E0,1.2878503E2,5.6106954E0,1.7986165E0,2.0535119E0,3.2422764E0,5.8767605E0],"tree_param":{"num_deleted":"0","num_feature":"8","num_nodes":"13","size_leaf_vector":"1"}},{"base_weights":[9.4607443E-4,-1.7832465E-2,2.5297043E-1,2.2779053E-2,-2.036588E-1,-4.404792E-2,4.5689946E-1,1.000885E-1,5.412257E-4,1.7050277E-2,-6.743414E-2,6.736706E-2,-3.7004687E-2],"categories":[],"categories_nodes":[],"categories_segments":[],"categories_sizes":[],"default_left":[0,0,0,0,0,0,0,0,0,0,0,0,0],"id":68,"left_children":[1,3,5,7,9,-1,11,-1,-1,-1,-1,-1,-1],"loss_changes":[7.214294E-1,1.0756141E0,1.6960504E0,1.9881356E0,4.6150894E0,0E0,1.8014971E0,0E0,0E0,0E0,0E0,0E0,0E0],"parents":[2147483647,0,0,1,1,2,2,3,3,4,4,6,6],"right_children":[2,4,6,8,10,-1,12,-1,-1,-1,-1,-1,-1],"split_conditions":[1.4089944E5,9.084934E1,3.6112142E-3,-2.2984458E5,-5.542394E4,-4.404792E-2,1.1066998E-2,1.000885E-1,5.412257E-4,1.7050277E-2,-6.743414E-2,6.736706E-2,-3.7004687E-2],"split_indices":[6,3,0,6,6,0,5,0,0,0,0,0,0],"split_type":[0,0,0,0,0,0,0,0,0,0,0,0,0],"sum_hessian":[1.5048352E2,1.4091321E2,9.570314E0,1.1636054E2,2.455266E1,1.91125E0,7.6590643E0,1.0420091E0,1.15318535E2,1.4034173E1,1.0518488E1,6.215198E0,1.4438663E0],"tree_param":{"num_deleted":"0","num_feature":"8","num_nodes":"13","size_leaf_vector":"1"}},{"base_weights":[1.0111415E-3,-1.668534E-1,2.7157957E-2,3.8240302E-1,-2.810151E-1,2.2538131E-1,-4.624912E-2,7.474051E-2,-2.731273E-2,-6.312617E-2,1.4618695E-2,-1.2439667E-2,6.053664E-2,-3.5770956E-2,4.9878E-3],"categories":[],"categories_nodes":[],"categories_segments":[],"categories_sizes":[],"default_left":[0,0,0,0,0,0,0,0,0,0,0,0,0,0,0],"id":69,"left_children":[1,3,5,7,9,11,13,-1,-1,-1,-1,-1,-1,-1,-1],"loss_changes":[6.6831535E-1,1.394254E0,1.9269669E0,1.1504445E0,2.7207196E0,4.828842E0,2.9204206E0,0E0,0E0,0E0,0E0,0E0,0E0,0E0,0E0],"parents":[2147483647,0,0,1,1,2,2,3,3,4,4,5,5,6,6],"right_children":[2,4,6,8,10,12,14,-1,-1,-1,-1,-1,-1,-1,-1],"split_conditions":[-1.1159323E5,-2.6376251E-2,2.6609203E-1,-1.032003E-2,-1.1144759E-3,3.9040924E1,4.289722E-1,7.474051E-2,-2.731273E-2,-6.312617E-2,1.4618695E-2,-1.2439667E-2,6.053664E-2,-3.5770956E-2,4.9878E-3],"split_indices":[6,5,7,0,5,4,7,0,0,0,0,0,0,0,0],"split_type":[0,0,0,0,0,0,0,0,0,0,0,0,0,0,0],"sum_hessian":[1.5023384E2,1.952169E1,1.3071214E2,2.9549809E0,1.656671E1,3.4764965E1,9.594718E1,1.8080807E0,1.1469002E0,8.840806E0,7.7259035E0,1.8452232E1,1.6312733E1,2.1986794E1,7.396039E1],"tree_param":{"num_deleted":"0","num_feature":"8","num_nodes":"15","size_leaf_vector":"1"}},{"base_weights":[8.656506E-4,5.329134E-2,-7.3653464E-3,-3.47691E-1,1.4357949E-2,3.824988E-2,-6.3335136E-2,1.9165305E-2,-2.9259122E-3],"categories":[],"categories_nodes":[],"categories_segments":[],"categories_sizes":[],"default_left":[0,0,0,0,0,0,0,0,0],"id":70,"left_children":[1,-1,3,5,7,-1,-1,-1,-1],"loss_changes":[6.658178E-1,0E0,1.1126517E0,2.1256523E0,1.1021309E0,0E0,0E0,0E0,0E0],"parents":[2147483647,0,0,2,2,3,3,4,4],"right_children":[2,-1,4,6,8,-1,-1,-1,-1],"split_conditions":[3.1751131E1,5.329134E-2,4.639006E1,-9.6100146E-1,6.0728516E1,3.824988E-2,-6.3335136E-2,1.9165305E-2,-2.9259122E-3],"split_indices":[3,0,3,2,3,0,0,0,0],"split_type":[0,0,0,0,0,0,0,0,0],"sum_hessian":[1.5014178E2,1.3162359E0,1.4882555E2,8.029339E0,1.4079622E2,2.1625483E0,5.8667903E0,2.7128801E1,1.1366741E2],"tree_param":{"num_deleted":"0","num_feature":"8","num_nodes":"9","size_leaf_vector":"1"}},{"base_weights":[1.0002777E-3,-2.3275612E-2,1.8409024E-1,2.6569439E-3,-5.9272355E-1,3.9497688E-1,-1.3558246E-1,1.7675845E-3,-7.283734E-2,-7.966753E-2,1.7826287E-2,-3.7845165E-2,5.9081018E-2,-3.8285993E-2,4.5856163E-2],"categories":[],"categories_nodes":[],"categories_segments":[],"categories_sizes":[],"default_left":[0,0,0,0,0,0,0,0,0,0,0,0,0,0,0],"id":71,"left_children":[1,3,5,7,9,11,13,-1,-1,-1,-1,-1,-1,-1,-1],"loss_changes":[6.758652E-1,1.9847695E0,1.253598E0,1.434064E0,1.0625138E0,1.886806E0,1.3244634E0,0E0,0E0,0E0,0E0,0E0,0E0,0E0,0E0],"parents":[2147483647,0,0,1,1,2,2,3,3,4,4,5,5,6,6],"right_children":[2,4,6,8,10,12,14,-1,-1,-1,-1,-1,-1,-1,-1],"split_conditions":[1.0663557E5,9.1707695E4,1.601018E-2,7.345932E1,6.850393E1,-2.391947E-2,6.4734886E1,1.7675845E-3,-7.283734E-2,-7.966753E-2,1.7826287E-2,-3.7845165E-2,5.9081018E-2,-3.8285993E-2,4.5856163E-2],"split_indices":[6,6,0,4,4,5,1,0,0,0,0,0,0,0,0],"split_type":[0,0,0,0,0,0,0,0,0,0,0,0,0,0,0],"sum_hessian":[1.5009785E2,1.3329689E2,1.6800955E1,1.2844296E2,4.853935E0,9.980981E0,6.8199744E0,1.26813416E2,1.6295407E0,3.8121688E0,1.041766E0,1.8281848E0,8.152796E0,5.06682E0,1.7531543E0],"tree_param":{"num_deleted":"0","num_feature":"8","num_nodes":"15","size_leaf_vector":"1"}},{"base_weights":[1.2283355E-4,1.3556539E-1,-3.234791E-2,2.1487603E-2,7.675238E-1,-3.288396E-1,2.4438856E-2,-4.9803294E-3,6.709997E-2,9.049196E-2,2.465224E-2,-5.2708656E-2,5.051911E-2,9.3705244E-2,-1.7615441E-3],"categories":[],"categories_nodes":[],"categories_segments":[],"categories_sizes":[],"default_left":[0,0,0,0,0,0,0,0,0,0,0,0,0,0,0],"id":72,"left_children":[1,3,5,7,9,11,13,-1,-1,-1,-1,-1,-1,-1,-1],"loss_changes":[6.6795355E-1,2.1008592E0,2.0707524E0,1.2330581E0,9.633732E-2,3.5338216E0,3.9983695E0,0E0,0E0,0E0,0E0,0E0,0E0,0E0,0E0],"parents":[2147483647,0,0,1,1,2,2,3,3,4,4,5,5,6,6],"right_children":[2,4,6,8,10,12,14,-1,-1,-1,-1,-1,-1,-1,-1],"split_conditions":[-9.035281E-3,-9.921073E-3,-4.690616E-3,1.6581537E-2,7.374246E1,6.892181E-1,-3.949504E-3,-4.9803294E-3,6.709997E-2,9.049196E-2,2.465224E-2,-5.2708656E-2,5.051911E-2,9.3705244E-2,-1.7615441E-3],"split_indices":[5,5,5,0,3,7,5,0,0,0,0,0,0,0,0],"split_type":[0,0,0,0,0,0,0,0,0,0,0,0,0,0,0],"sum_hessian":[1.4988226E2,2.8369965E1,1.2151231E2,2.4907751E1,3.4622135E0,1.876208E1,1.0275022E2,2.3276255E1,1.6314958E0,2.156601E0,1.3056124E0,1.5456203E1,3.3058755E0,3.5887773E0,9.9161446E1],"tree_param":{"num_deleted":"0","num_feature":"8","num_nodes":"15","size_leaf_vector":"1"}},{"base_weights":[1.7740258E-3,4.344123E-1,-7.83964E-3,8.116053E-2,-1.3226653E-2,-4.5106944E-1,1.3108014E-2,-7.497139E-2,1.3353059E-3,4.5054156E-2,-1.7490037E-3],"categories":[],"categories_nodes":[],"categories_segments":[],"categories_sizes":[],"default_left":[0,0,0,0,0,0,0,0,0,0,0],"id":73,"left_children":[1,3,5,-1,-1,7,9,-1,-1,-1,-1],"loss_changes":[6.3003415E-1,8.111662E-1,1.383441E0,0E0,0E0,9.425844E-1,1.9170991E0,0E0,0E0,0E0,0E0],"parents":[2147483647,0,0,1,1,2,2,5,5,6,6],"right_children":[2,4,6,-1,-1,8,10,-1,-1,-1,-1],"split_conditions":[-4.2892482E-2,-1.1616463E-3,-5.7073962E-2,8.116053E-2,-1.3226653E-2,3.1542263E1,5.8407236E-2,-7.497139E-2,1.3353059E-3,4.5054156E-2,-1.7490037E-3],"split_indices":[0,5,7,0,0,4,7,0,0,0,0],"split_type":[0,0,0,0,0,0,0,0,0,0,0],"sum_hessian":[1.4965938E2,2.292758E0,1.4736662E2,1.1170276E0,1.1757302E0,5.7238092E0,1.4164282E2,3.1097853E0,2.6140242E0,8.362791E0,1.3328003E2],"tree_param":{"num_deleted":"0","num_feature":"8","num_nodes":"11","size_leaf_vector":"1"}},{"base_weights":[1.8230347E-3,1.5140481E-2,-3.0235818E-1,-2.0125022E-3,1.0506401E-1,2.5701812E-1,-6.956812E-1,9.930365E-4,-7.602955E-2,6.4324535E-2,-2.9910719E-2,-8.425574E-2,-1.3215767E-2],"categories":[],"categories_nodes":[],"categories_segments":[],"categories_sizes":[],"default_left":[0,0,0,0,0,0,0,0,0,0,0,0,0],"id":74,"left_children":[1,3,5,7,-1,9,11,-1,-1,-1,-1,-1,-1],"loss_changes":[6.144247E-1,2.5808427E0,1.5786068E0,1.3099529E0,0E0,9.134308E-1,2.2016871E-1,0E0,0E0,0E0,0E0,0E0,0E0],"parents":[2147483647,0,0,1,1,2,2,3,3,5,5,6,6],"right_children":[2,4,6,8,-1,10,12,-1,-1,-1,-1,-1,-1],"split_conditions":[6.92951E1,6.867085E1,1.7693185E-3,6.8012E1,1.0506401E-1,2.1408794E1,7.494984E1,9.930365E-4,-7.602955E-2,6.4324535E-2,-2.9910719E-2,-8.425574E-2,-1.3215767E-2],"split_indices":[4,4,5,4,0,2,4,0,0,0,0,0,0],"split_type":[0,0,0,0,0,0,0,0,0,0,0,0,0],"sum_hessian":[1.4954536E2,1.4418307E2,5.3622956E0,1.428154E2,1.3676715E0,2.3569021E0,3.0053935E0,1.4157256E2,1.2428471E0,1.2984662E0,1.0584359E0,1.9912397E0,1.0141538E0],"tree_param":{"num_deleted":"0","num_feature":"8","num_nodes":"13","size_leaf_vector":"1"}},{"base_weights":[1.3705994E-3,-1.5037063E-1,2.786654E-2,-8.1675954E-4,-7.823561E-1,5.509402E-1,1.0161359E-2,-1.0588422E-2,9.045619E-2,-9.057736E-2,-2.1948602E-2,8.680191E-2,-1.8540375E-2,-7.330555E-2,2.3133615E-3],"categories":[],"categories_nodes":[],"categories_segments":[],"categories_sizes":[],"default_left":[0,0,0,0,0,0,0,0,0,0,0,0,0,0,0],"id":75,"left_children":[1,3,5,7,9,11,13,-1,-1,-1,-1,-1,-1,-1,-1],"loss_changes":[6.0913163E-1,2.1281924E0,1.1885265E0,1.9235756E0,1.0053396E-1,1.1421798E0,1.229213E0,0E0,0E0,0E0,0E0,0E0,0E0,0E0,0E0],"parents":[2147483647,0,0,1,1,2,2,3,3,4,4,5,5,6,6],"right_children":[2,4,6,8,10,12,14,-1,-1,-1,-1,-1,-1,-1,-1],"split_conditions":[-1.9765732E1,4.3438168E1,-1.7217552E1,4.236983E1,1.9673228E-3,4.6040318E1,2.6930866E1,-1.0588422E-2,9.045619E-2,-9.057736E-2,-2.1948602E-2,8.680191E-2,-1.8540375E-2,-7.330555E-2,2.3133615E-3],"split_indices":[2,4,2,4,5,4,1,0,0,0,0,0,0,0,0],"split_type":[0,0,0,0,0,0,0,0,0,0,0,0,0,0,0],"sum_hessian":[1.494632E2,2.152353E1,1.2793966E2,1.8214516E1,3.3090146E0,3.202714E0,1.24736946E2,1.7111776E1,1.1027392E0,2.214293E0,1.0947216E0,2.113704E0,1.08901E0,1.1875817E0,1.2354936E2],"tree_param":{"num_deleted":"0","num_feature":"8","num_nodes":"15","size_leaf_vector":"1"}},{"base_weights":[9.480718E-4,3.6286503E-2,-1.1226481E-1,-6.965065E-2,1.6509244E-1,2.2808956E-1,-2.2120811E-1,2.2183447E-3,-6.813913E-2,5.213772E-2,3.5845232E-3,4.3545466E-2,-4.6606965E-2,-9.0571605E-2,-9.587052E-3],"categories":[],"categories_nodes":[],"categories_segments":[],"categories_sizes":[],"default_left":[0,0,0,0,0,0,0,0,0,0,0,0,0,0,0],"id":76,"left_children":[1,3,5,7,9,11,13,-1,-1,-1,-1,-1,-1,-1,-1],"loss_changes":[6.0570294E-1,1.5856403E0,1.3859549E0,3.6107254E0,2.3923357E0,1.5309314E0,2.2975478E0,0E0,0E0,0E0,0E0,0E0,0E0,0E0,0E0],"parents":[2147483647,0,0,1,1,2,2,3,3,4,4,5,5,6,6],"right_children":[2,4,6,8,10,12,14,-1,-1,-1,-1,-1,-1,-1,-1],"split_conditions":[5.0613373E-3,-2.236073E-3,-7.240259E-3,-3.2197325E-3,4.3354256E1,6.4219296E-1,-3.4826566E-3,2.2183447E-3,-6.813913E-2,5.213772E-2,3.5845232E-3,4.3545466E-2,-4.6606965E-2,-9.0571605E-2,-9.587052E-3],"split_indices":[5,5,0,5,1,7,0,0,0,0,0,0,0,0,0],"split_type":[0,0,0,0,0,0,0,0,0,0,0,0,0,0,0],"sum_hessian":[1.4937851E2,1.14361145E2,3.5017365E1,6.300313E1,5.1358013E1,8.22564E0,2.6791725E1,5.5617596E1,7.3855386E0,1.2863726E1,3.849429E1,6.620574E0,1.605066E0,3.1828682E0,2.3608856E1],"tree_param":{"num_deleted":"0","num_feature":"8","num_nodes":"15","size_leaf_vector":"1"}},{"base_weights":[-5.73063E-5,-3.7819907E-2,1.14446595E-1,-8.473112E-2,2.895591E-1,8.4039617E-1,2.8273026E-2,7.190314E-2,-1.096601E-2,-5.498558E-2,4.500423E-2,1.1609962E-1,5.491314E-3,-3.4756586E-2,2.7978582E-2],"categories":[],"categories_nodes":[],"categories_segments":[],"categories_sizes":[],"default_left":[0,0,0,0,0,0,0,0,0,0,0,0,0,0,0],"id":77,"left_children":[1,3,5,7,9,11,13,-1,-1,-1,-1,-1,-1,-1,-1],"loss_changes":[6.5344447E-1,1.7698159E0,2.3208244E0,2.085999E0,2.1966782E0,9.2894936E-1,3.3619447E0,0E0,0E0,0E0,0E0,0E0,0E0,0E0,0E0],"parents":[2147483647,0,0,1,1,2,2,3,3,4,4,5,5,6,6],"right_children":[2,4,6,8,10,12,14,-1,-1,-1,-1,-1,-1,-1,-1],"split_conditions":[5.5453403E1,1.043651E2,-7.8480086E0,-3.1150682E1,-1.5912496E-2,6.452522E1,9.045237E0,7.190314E-2,-1.096601E-2,-5.498558E-2,4.500423E-2,1.1609962E-1,5.491314E-3,-3.4756586E-2,2.7978582E-2],"split_indices":[4,3,2,2,0,3,2,0,0,0,0,0,0,0,0],"split_type":[0,0,0,0,0,0,0,0,0,0,0,0,0,0,0],"sum_hessian":[1.4912056E2,1.1264178E2,3.647878E1,9.917225E1,1.3469533E1,2.942022E0,3.353676E1,2.1457458E0,9.7026505E1,1.7724422E0,1.169709E1,1.7497737E0,1.1922483E0,1.3292178E1,2.024458E1],"tree_param":{"num_deleted":"0","num_feature":"8","num_nodes":"15","size_leaf_vector":"1"}},{"base_weights":[9.70622E-4,5.012067E-2,-6.939311E-3,-2.3397563E-1,2.0289136E-2,-8.5560046E-2,4.0127053E-3,2.9060913E-2,-2.7795208E-3],"categories":[],"categories_nodes":[],"categories_segments":[],"categories_sizes":[],"default_left":[0,0,0,0,0,0,0,0,0],"id":78,"left_children":[1,-1,3,5,7,-1,-1,-1,-1],"loss_changes":[5.9611195E-1,0E0,9.2231673E-1,2.7562432E0,1.742747E0,0E0,0E0,0E0,0E0],"parents":[2147483647,0,0,2,2,3,3,4,4],"right_children":[2,-1,4,6,8,-1,-1,-1,-1],"split_conditions":[3.1751131E1,5.012067E-2,5.255823E1,-2.6857324E-3,6.062136E1,-8.5560046E-2,4.0127053E-3,2.9060913E-2,-2.7795208E-3],"split_indices":[3,0,3,5,3,0,0,0,0],"split_type":[0,0,0,0,0,0,0,0,0],"sum_hessian":[1.4877478E2,1.3450893E0,1.4742969E2,1.4974683E1,1.32455E2,3.9332309E0,1.1041451E1,1.9241219E1,1.1321378E2],"tree_param":{"num_deleted":"0","num_feature":"8","num_nodes":"9","size_leaf_vector":"1"}},{"base_weights":[7.618342E-4,2.0140152E-2,-2.0381983E-1,-2.6299166E-3,6.4459914E-1,1.9268867E-1,-6.390129E-1,2.542381E-3,-5.6991965E-2,1.10736124E-1,2.1190004E-2,-1.3086385E-2,1.04820706E-1,-9.9828176E-2,2.120233E-2],"categories":[],"categories_nodes":[],"categories_segments":[],"categories_sizes":[],"default_left":[0,0,0,0,0,0,0,0,0,0,0,0,0,0,0],"id":79,"left_children":[1,3,5,7,9,11,13,-1,-1,-1,-1,-1,-1,-1,-1],"loss_changes":[5.9776825E-1,1.9596457E0,2.3744714E0,2.1446793E0,7.361903E-1,2.2395582E0,2.1842718E0,0E0,0E0,0E0,0E0,0E0,0E0,0E0,0E0],"parents":[2147483647,0,0,1,1,2,2,3,3,4,4,5,5,6,6],"right_children":[2,4,6,8,10,12,14,-1,-1,-1,-1,-1,-1,-1,-1],"split_conditions":[1.2516414E-2,1.0663683E-2,8.031585E1,7.9501225E-3,1.1066998E-2,2.6172348E1,2.5108846E-2,2.542381E-3,-5.6991965E-2,1.10736124E-1,2.1190004E-2,-1.3086385E-2,1.04820706E-1,-9.9828176E-2,2.120233E-2],"split_indices":[5,5,3,5,5,2,5,0,0,0,0,0,0,0,0],"split_type":[0,0,0,0,0,0,0,0,0,0,0,0,0,0,0],"sum_hessian":[1.4874673E2,1.3669984E2,1.20468855E1,1.328514E2,3.8484616E0,6.595185E0,5.4517007E0,1.2750135E2,5.350039E0,1.106205E0,2.7422566E0,5.3999777E0,1.1952071E0,3.7117493E0,1.7399513E0],"tree_param":{"num_deleted":"0","num_feature":"8","num_nodes":"15","size_leaf_vector":"1"}},{"base_weights":[1.1478779E-3,1.4493425E-2,-3.0522296E-1,-1.3988441E-3,9.608748E-2,2.2561312E-1,-6.828736E-1,9.874821E-4,-7.3152564E-2,5.915754E-2,-2.9660136E-2,-8.242169E-2,-1.44189885E-2],"categories":[],"categories_nodes":[],"categories_segments":[],"categories_sizes":[],"default_left":[0,0,0,0,0,0,0,0,0,0,0,0,0],"id":80,"left_children":[1,3,5,7,-1,9,11,-1,-1,-1,-1,-1,-1],"loss_changes":[6.1604834E-1,2.171638E0,1.4149194E0,1.1835899E0,0E0,8.187685E-1,1.7987585E-1,0E0,0E0,0E0,0E0,0E0,0E0],"parents":[2147483647,0,0,1,1,2,2,3,3,5,5,6,6],"right_children":[2,4,6,8,-1,10,12,-1,-1,-1,-1,-1,-1],"split_conditions":[6.92951E1,6.867085E1,1.7693185E-3,6.8012E1,9.608748E-2,2.1408794E1,1.0299139E0,9.874821E-4,-7.3152564E-2,5.915754E-2,-2.9660136E-2,-8.242169E-2,-1.44189885E-2],"split_indices":[4,4,5,4,0,2,7,0,0,0,0,0,0],"split_type":[0,0,0,0,0,0,0,0,0,0,0,0,0],"sum_hessian":[1.4858952E2,1.4330005E2,5.2894726E0,1.4191542E2,1.384617E0,2.366144E0,2.9233286E0,1.4072894E2,1.1864779E0,1.31311E0,1.053034E0,1.8958311E0,1.0274975E0],"tree_param":{"num_deleted":"0","num_feature":"8","num_nodes":"13","size_leaf_vector":"1"}},{"base_weights":[6.987503E-4,-1.4712277E-1,2.6343495E-2,-6.059671E-3,-7.546862E-1,1.8773167E-1,-2.5967035E-2,-1.0863777E-2,8.6902246E-2,-8.7742545E-2,-2.0423254E-2,-1.233383E-2,4.8901666E-2,6.613297E-3,-2.7693568E-2],"categories":[],"categories_nodes":[],"categories_segments":[],"categories_sizes":[],"default_left":[0,0,0,0,0,0,0,0,0,0,0,0,0,0,0],"id":81,"left_children":[1,3,5,7,9,11,13,-1,-1,-1,-1,-1,-1,-1,-1],"loss_changes":[5.7061017E-1,1.9026692E0,1.0875763E0,1.8060777E0,1.0355854E-1,3.0138924E0,2.277325E0,0E0,0E0,0E0,0E0,0E0,0E0,0E0,0E0],"parents":[2147483647,0,0,1,1,2,2,3,3,4,4,5,5,6,6],"right_children":[2,4,6,8,10,12,14,-1,-1,-1,-1,-1,-1,-1,-1],"split_conditions":[-1.9765732E1,4.3438168E1,4.2843163E1,4.236983E1,1.9673228E-3,-2.6163321E-3,8.05424E1,-1.0863777E-2,8.6902246E-2,-8.7742545E-2,-2.0423254E-2,-1.233383E-2,4.8901666E-2,6.613297E-3,-2.7693568E-2],"split_indices":[2,4,1,4,5,5,3,0,0,0,0,0,0,0,0],"split_type":[0,0,0,0,0,0,0,0,0,0,0,0,0,0,0],"sum_hessian":[1.4850082E2,2.125363E1,1.2724719E2,1.8068491E1,3.1851392E0,3.0514679E1,9.673251E1,1.6956665E1,1.1118251E0,2.1187088E0,1.0664304E0,1.5304132E1,1.52105465E1,7.1302536E1,2.5429983E1],"tree_param":{"num_deleted":"0","num_feature":"8","num_nodes":"15","size_leaf_vector":"1"}},{"base_weights":[4.1748924E-4,1.2788449E-1,-3.2673735E-2,5.470918E-1,-1.3218425E-1,-6.8718415E-1,4.6916998E-7,-3.7413314E-2,7.932777E-2,1.8793423E-2,-4.9766E-2,-7.242533E-3,-9.9777415E-2,-7.3903888E-3,1.3298762E-2],"categories":[],"categories_nodes":[],"categories_segments":[],"categories_sizes":[],"default_left":[0,0,0,0,0,0,0,0,0,0,0,0,0,0,0],"id":82,"left_children":[1,3,5,7,9,11,13,-1,-1,-1,-1,-1,-1,-1,-1],"loss_changes":[6.3444215E-1,3.4519484E0,2.5539055E0,3.0326025E0,2.4259832E0,1.0119298E0,1.1375644E0,0E0,0E0,0E0,0E0,0E0,0E0,0E0,0E0],"parents":[2147483647,0,0,1,1,2,2,3,3,4,4,5,5,6,6],"right_children":[2,4,6,8,10,12,14,-1,-1,-1,-1,-1,-1,-1,-1],"split_conditions":[-8.341064E-3,7.374246E1,-7.040706E-3,-9.2574336E4,4.08978E1,4.1915813E1,7.815816E1,-3.7413314E-2,7.932777E-2,1.8793423E-2,-4.9766E-2,-7.242533E-3,-9.9777415E-2,-7.3903888E-3,1.3298762E-2],"split_indices":[5,3,5,6,1,1,3,0,0,0,0,0,0,0,0],"split_type":[0,0,0,0,0,0,0,0,0,0,0,0,0,0,0],"sum_hessian":[1.4842102E2,2.9999334E1,1.1842168E2,1.1063052E1,1.8936283E1,4.678254E0,1.1374342E2,2.2233994E0,8.839653E0,1.0353491E1,8.582791E0,1.9841534E0,2.6941006E0,7.339836E1,4.0345066E1],"tree_param":{"num_deleted":"0","num_feature":"8","num_nodes":"15","size_leaf_vector":"1"}},{"base_weights":[-3.5217035E-4,-1.7503422E-2,2.3060052E-1,-3.7947145E-1,-1.3383441E-3,-4.1791555E-2,4.2236692E-1,-9.096219E-2,-2.3801385E-3,4.4507794E-2,-2.0838287E-3,8.719525E-2,2.0337903E-3],"categories":[],"categories_nodes":[],"categories_segments":[],"categories_sizes":[],"default_left":[0,0,0,0,0,0,0,0,0,0,0,0,0],"id":83,"left_children":[1,3,5,7,9,-1,11,-1,-1,-1,-1,-1,-1],"loss_changes":[5.950957E-1,8.176667E-1,1.468113E0,1.1048214E0,1.1832008E0,0E0,1.5209318E0,0E0,0E0,0E0,0E0,0E0,0E0],"parents":[2147483647,0,